{"learner":{"attributes":{},"feature_names":["symbol_id","category","market_type","indicator","trend_dir","score","rsi","body","ema50","ema200","atr","dist","relative_momentum","side_enc","raw_market_type_enc"],"feature_types":["float","float","float","float","float","float","float","float","float","float","float","float","float","float","float"],"gradient_booster":{"model":{"gbtree_model_param":{"num_parallel_tree":"1","num_trees":"4"},"iteration_indptr":[0,1,2,3,4],"tree_info":[0,0,0,0],"trees":[{"base_weights":[-1.0117672E-2,1.0948131E-2,-6.481582E-1,-6.782064E-2,2.381937E-2,4.229484E-1,-6.312225E-2,-9.6984714E-2,7.235997E-2,-2.634065E-1,5.5026658E-2,-1.4276995E-1,-1.2076235E0,6.749902E-2,-4.6647366E-2,-1.0716183E-1,2.6040005E-2,1.3845162E-1,-2.7759794E-2,3.6475286E-1,-5.2542865E-1,-2.5466967E-1,9.9321085E-1,-5.424392E-1,8.102695E-2,-1.0317917E-1,1.8010488E-2,1.3675663E0,-6.0253315E-2,-8.210341E-2,7.4457794E-2,1.7459888E-2,-6.3824E-2,-1.3661988E-2,1.4855869E-1,4.3779776E-2,2.727489E-1,1.8297638E-1,1.10396E0,3.4433153E-2,-8.4043555E-2,-4.4281285E-2,2.5508928E-1,9.486797E-2,-4.360956E-2,-6.9818795E-2,2.66868E-1,7.813617E-2,-1.7283216E-1,6.7034113E-1,-6.13703E-2,-2.4739617E-2,1.5156792E-1,1.5550224E-1,2.7940761E-2,-1.6069677E-1,8.318524E-2,1.0278417E-1,-3.7420776E-2,9.4266705E-2,1.2331949E-1,1.2941426E-1,-4.4968647E-1,6.159556E-2,2.3194777E-2,9.9454306E-2,-3.1209918E-2,1.1514631E-1,-8.431411E-2,-3.915064E-3,-6.5817066E-2,1.7776753E-1,-2.2330923E-2,-5.860608E-2,3.5530344E-1,7.947347E-1,-2.1405118E-2,5.453252E-1,1.5550224E-1,6.975911E-2,4.842302E-1,9.900098E-2,2.3538585E-1,4.202658E-2,5.4555994E-2,7.1557236E-1,-9.415177E-2,2.4244724E-1,1.0277035E-1,4.3562215E-2,-9.8967336E-2,8.480988E-2,4.373104E-3,8.390704E-2,-2.5141457E-2,2.2381784E-3,4.3861292E-2],"categories":[],"categories_nodes":[],"categories_segments":[],"categories_sizes":[],"default_left":[0,0,0,0,0,0,0,0,0,0,0,0,0,0,0,0,0,0,0,0,0,0,0,0,0,0,0,0,0,0,0,0,0,0,0,0,0,0,0,0,0,0,0,0,0,0,0,0,0,0,0,0,0,0,0,0,0,0,0,0,0,0,0,0,0,0,0,0,0,0,0,0,0,0,0,0,0,0,0,0,0,0,0,0,0,0,0,0,0,0,0,0,0,0,0,0,0],"id":0,"left_children":[1,3,5,-1,9,7,-1,-1,-1,11,13,17,15,35,-1,-1,-1,19,-1,21,25,23,29,31,-1,-1,27,33,-1,-1,-1,-1,-1,-1,-1,55,37,39,53,-1,41,-1,43,-1,45,-1,47,-1,49,51,-1,-1,-1,-1,-1,71,57,59,-1,61,-1,63,69,65,-1,67,-1,79,-1,-1,-1,73,-1,-1,75,77,-1,85,-1,83,81,-1,91,93,-1,87,-1,89,-1,-1,-1,-1,-1,95,-1,-1,-1],"loss_changes":[9.314424E0,8.876663E0,7.1609526E0,0E0,5.9393315E0,6.397425E0,0E0,0E0,0E0,7.360762E0,5.6320934E0,4.458327E0,4.797944E0,2.8595264E0,0E0,0E0,0E0,4.3265414E0,0E0,8.38768E0,4.087942E0,4.719166E0,3.1650295E0,3.131386E0,0E0,0E0,6.3454766E0,2.8908944E0,0E0,0E0,0E0,0E0,0E0,0E0,0E0,4.2515535E0,4.5021653E0,4.9225316E0,4.7902856E0,0E0,6.08304E0,0E0,6.831147E0,0E0,4.9419975E0,0E0,4.8604584E0,0E0,5.32544E0,6.800047E0,0E0,0E0,0E0,0E0,0E0,5.0424776E0,5.5957255E0,6.35303E0,0E0,8.181136E0,0E0,5.9506936E0,5.4465284E0,6.1607213E0,0E0,6.151283E0,0E0,4.738691E0,0E0,0E0,0E0,5.5043883E0,0E0,0E0,7.4804115E0,5.620125E0,0E0,4.591338E0,0E0,5.234708E0,7.65662E0,0E0,4.383635E0,4.2830353E0,0E0,4.758863E0,0E0,5.8649325E0,0E0,0E0,0E0,0E0,0E0,6.399844E0,0E0,0E0,0E0],"parents":[2147483647,0,0,1,1,2,2,5,5,4,4,9,9,10,10,12,12,11,11,17,17,19,19,21,21,20,20,26,26,22,22,23,23,27,27,13,13,36,36,37,37,40,40,42,42,44,44,46,46,48,48,49,49,38,38,35,35,56,56,57,57,59,59,61,61,63,63,65,65,62,62,55,55,71,71,74,74,75,75,67,67,80,80,79,79,77,77,85,85,87,87,82,82,83,83,93,93],"right_children":[2,4,6,-1,10,8,-1,-1,-1,12,14,18,16,36,-1,-1,-1,20,-1,22,26,24,30,32,-1,-1,28,34,-1,-1,-1,-1,-1,-1,-1,56,38,40,54,-1,42,-1,44,-1,46,-1,48,-1,50,52,-1,-1,-1,-1,-1,72,58,60,-1,62,-1,64,70,66,-1,68,-1,80,-1,-1,-1,74,-1,-1,76,78,-1,86,-1,84,82,-1,92,94,-1,88,-1,90,-1,-1,-1,-1,-1,96,-1,-1,-1],"split_conditions":[2.545455E0,7.6935E-1,8.6551E-1,-6.782064E-2,-1.845971E0,2.604651E0,-6.312225E-2,-9.6984714E-2,7.235997E-2,5.209E1,5.1069E-1,5E0,1.850333E2,6.29E1,-4.6647366E-2,-1.0716183E-1,2.6040005E-2,1.1066E-1,-2.7759794E-2,1.38E-3,1.5867E-1,1.33698E0,2.282E1,-2.420339E0,8.102695E-2,-1.0317917E-1,2.1270215E2,1.860041E2,-6.0253315E-2,-8.210341E-2,7.4457794E-2,1.7459888E-2,-6.3824E-2,-1.3661988E-2,1.4855869E-1,6.2E-4,2.5264E-1,1.16497E0,1E0,3.4433153E-2,1.35303E0,-4.4281285E-2,1.35855E0,9.486797E-2,4.865E-2,-6.9818795E-2,1.8493538E2,7.813617E-2,1.6258E-1,7.65837E-1,-6.13703E-2,-2.4739617E-2,1.5156792E-1,1.5550224E-1,2.7940761E-2,4.306E1,6.181E1,1.066E-1,-3.7420776E-2,1.85683E0,1.2331949E-1,5.481E1,1.3445E0,8.788E-2,2.3194777E-2,5.449E1,-3.1209918E-2,2.124867E2,-8.431411E-2,-3.915064E-3,-6.5817066E-2,2.2E-4,-2.2330923E-2,-5.860608E-2,-4.175E-3,4.189E1,-2.1405118E-2,6.5E-4,1.5550224E-1,5.359E1,2.1354532E2,9.900098E-2,1.0017E-1,1.5619E-1,5.4555994E-2,8.8337E-1,-9.415177E-2,8.7432E-1,1.0277035E-1,4.3562215E-2,-9.8967336E-2,8.480988E-2,4.373104E-3,1.8516673E2,-2.5141457E-2,2.2381784E-3,4.3861292E-2],"split_indices":[12,8,8,0,12,12,0,0,0,6,11,1,8,6,0,0,0,11,0,11,11,9,6,12,0,0,9,8,0,0,0,0,0,0,0,11,11,8,13,0,9,0,8,0,10,0,9,0,11,12,0,0,0,0,0,6,6,10,0,12,0,6,9,10,0,6,0,8,0,0,0,10,0,0,12,6,0,10,0,6,9,0,11,11,0,8,0,9,0,0,0,0,0,9,0,0,0],"split_type":[0,0,0,0,0,0,0,0,0,0,0,0,0,0,0,0,0,0,0,0,0,0,0,0,0,0,0,0,0,0,0,0,0,0,0,0,0,0,0,0,0,0,0,0,0,0,0,0,0,0,0,0,0,0,0,0,0,0,0,0,0,0,0,0,0,0,0,0,0,0,0,0,0,0,0,0,0,0,0,0,0,0,0,0,0,0,0,0,0,0,0,0,0,0,0,0,0],"sum_hessian":[6.9245715E2,6.704668E2,2.1990355E1,8.12687E0,6.623399E2,4.780512E0,1.7209843E1,1.195128E0,3.585384E0,6.477593E1,5.9756396E2,5.7605167E1,7.170768E0,5.880029E2,9.561024E0,5.736614E0,1.4341536E0,2.8444046E1,2.9161121E1,2.1273277E1,7.170768E0,1.0756151E1,1.0517126E1,9.082973E0,1.6731791E0,2.390256E0,4.780512E0,1.9122047E0,2.868307E0,4.780512E-1,1.0039075E1,3.1073327E0,5.97564E0,7.170768E-1,1.195128E0,5.2729047E2,6.07125E1,5.4975887E1,5.736614E0,2.4380611E1,3.0595276E1,1.1234203E1,1.9361073E1,3.8244095E0,1.5536663E1,3.585384E0,1.195128E1,3.8244095E0,8.12687E0,3.8244095E0,4.3024607E0,2.390256E0,1.4341536E0,1.9122047E0,3.8244095E0,8.509311E1,4.4219736E2,4.2928998E2,1.2907382E1,4.2737775E2,1.9122047E0,4.01563E2,2.5814764E1,3.0666983E2,9.489316E1,2.8635266E2,2.0317175E1,2.8324533E2,3.1073327E0,1.5058613E1,1.0756151E1,2.8922096E1,5.6171013E1,4.063435E0,2.4858662E1,1.5058613E1,9.800049E0,1.3146408E1,1.9122047E0,2.5241103E2,3.0834301E1,5.97564E0,2.4858662E1,2.4356708E2,8.843946E0,1.2190306E1,9.561024E-1,7.8878446E0,4.3024607E0,6.453691E0,1.4341536E0,3.3463583E0,2.1512302E1,2.2157672E2,2.1990355E1,2.0388882E2,1.7687893E1],"tree_param":{"num_deleted":"0","num_feature":"15","num_nodes":"97","size_leaf_vector":"1"}},{"base_weights":[-1.4401927E-2,-9.008495E-4,-5.4570466E-2,-1.820989E-1,4.9722098E-2,7.370699E-2,-5.329937E-1,8.949323E-2,-4.8697475E-2,-1.1806114E-1,1.1439341E-1,9.437571E-1,6.227209E-3,-7.159953E-2,-7.386563E-2,1.6683508E0,4.846725E-1,1.5866303E-1,2.3844726E-4,-2.4361241E-1,1.3551577E0,-9.887398E-2,4.170265E-2,-1.0634047E-2,1.4993118E-1,1.2295729E-1,-9.114309E-2,-3.1815223E-2,-3.2306114E-1,1.1285032E-2,-1.00955464E-1,1.7490023E-1,-3.7291119E-1,-5.0904006E-1,-1.4625437E-3,-6.260691E-2,2.5184235E-1,1.4498359E-1,1.9323586E-1,1.2378641E-1,9.87121E-2,-7.654906E-2,2.0228691E-1,1.329369E-1,1.4719519E-1,2.4704488E-1,-8.47E-1,8.385407E-2,-1.0234671E-1,-7.890467E-2,-1.3938056E-1,5.1612633E-1,-4.6986526E-1,9.971312E-2,-1.5044066E-1,-8.429938E-2,3.5780333E-2,8.7290174E-1,-4.2413205E-1,3.7283625E-3,-7.819368E-2,-8.4033936E-1,-2.8902057E-1,3.2619555E-2,-8.266286E-2,-1.0103391E-1,7.929521E-1,-3.609984E-1,1.3914151E-1,-4.936286E-2,6.153484E-1,1.2793157E-1,-4.1117048E-1,-1.0108737E-1,-1.9908572E-2,-5.7159007E-1,1.2485184E-1,-7.6883905E-2,1.2594943E-1,-3.5003256E-2,-6.6269785E-2,1.4495029E-1,-6.492631E-2,-8.368612E-3,7.9880124E-1,-2.9229987E-2,1.9131368E0,5.9393216E-2,-9.6079946E-2,-6.303045E-2,1.5409689E-1,-1.5538501E-2,1.3677037E-1,1.0440284E-1,-3.4614836E-3,-8.108249E-2,7.34444E-2],"categories":[],"categories_nodes":[],"categories_segments":[],"categories_sizes":[],"default_left":[0,0,0,0,0,0,0,0,0,0,0,0,0,0,0,0,0,0,0,0,0,0,0,0,0,0,0,0,0,0,0,0,0,0,0,0,0,0,0,0,0,0,0,0,0,0,0,0,0,0,0,0,0,0,0,0,0,0,0,0,0,0,0,0,0,0,0,0,0,0,0,0,0,0,0,0,0,0,0,0,0,0,0,0,0,0,0,0,0,0,0,0,0,0,0,0,0],"id":1,"left_children":[1,3,-1,27,5,9,7,-1,-1,13,11,15,-1,-1,79,17,19,-1,-1,21,23,-1,-1,25,-1,-1,-1,29,33,31,-1,35,49,61,-1,-1,37,-1,39,41,-1,-1,43,45,-1,55,47,-1,-1,-1,51,53,69,-1,75,57,-1,93,59,-1,-1,63,67,65,-1,-1,95,71,-1,-1,91,-1,73,-1,-1,77,-1,-1,-1,81,-1,-1,83,-1,85,87,89,-1,-1,-1,-1,-1,-1,-1,-1,-1,-1],"loss_changes":[7.575658E0,6.3005447E0,0E0,3.173819E0,7.5056934E0,4.0259094E0,8.026939E0,0E0,0E0,3.7975783E0,7.373706E0,3.3379927E0,0E0,0E0,3.0827415E0,4.7126627E0,4.263613E0,0E0,0E0,4.1860275E0,3.7434201E0,0E0,0E0,3.8263469E0,0E0,0E0,0E0,4.6653514E0,4.3272686E0,4.4655538E0,0E0,4.3065257E0,3.9837925E0,3.4390306E0,0E0,0E0,5.1894608E0,0E0,4.0350747E0,4.3654184E0,0E0,0E0,5.6455374E0,4.48123E0,0E0,3.4472818E0,6.373048E0,0E0,0E0,0E0,3.6465719E0,3.7367873E0,3.3542485E0,0E0,3.1488104E0,5.5293202E0,0E0,2.8810544E0,4.523896E0,0E0,0E0,6.6437397E0,5.066724E0,7.3870783E0,0E0,0E0,2.8262951E0,3.350067E0,0E0,0E0,2.9057648E0,0E0,3.371595E0,0E0,0E0,4.6753345E0,0E0,0E0,0E0,5.5095053E0,0E0,0E0,4.3186216E0,0E0,5.0116396E0,4.440663E0,2.9932156E0,0E0,0E0,0E0,0E0,0E0,0E0,0E0,0E0,0E0,0E0],"parents":[2147483647,0,0,1,1,4,4,6,6,5,5,10,10,9,9,11,11,15,15,16,16,19,19,20,20,23,23,3,3,27,27,29,29,28,28,31,31,36,36,38,38,39,39,42,42,43,43,46,46,32,32,50,50,51,51,45,45,55,55,58,58,33,33,61,61,63,63,62,62,52,52,67,67,72,72,54,54,75,75,14,14,79,79,82,82,84,84,85,85,86,86,70,70,57,57,66,66],"right_children":[2,4,-1,28,6,10,8,-1,-1,14,12,16,-1,-1,80,18,20,-1,-1,22,24,-1,-1,26,-1,-1,-1,30,34,32,-1,36,50,62,-1,-1,38,-1,40,42,-1,-1,44,46,-1,56,48,-1,-1,-1,52,54,70,-1,76,58,-1,94,60,-1,-1,64,68,66,-1,-1,96,72,-1,-1,92,-1,74,-1,-1,78,-1,-1,-1,82,-1,-1,84,-1,86,88,90,-1,-1,-1,-1,-1,-1,-1,-1,-1,-1],"split_conditions":[5.1069E-1,-1.14497E0,-5.4570466E-2,5E0,2.545455E0,6.2E-4,3.9E-4,8.949323E-2,-4.8697475E-2,6.5E1,-1.058537E0,1.29E-3,6.227209E-3,-7.159953E-2,6E-4,8.5E1,1.8472221E2,1.5866303E-1,2.3844726E-4,4.083E1,5E0,-9.887398E-2,4.170265E-2,5E0,1.4993118E-1,1.2295729E-1,-9.114309E-2,9.5E1,8.4E1,-1.455446E0,-1.00955464E-1,7.801E-1,2E0,4.189E1,-1.4625437E-3,-6.260691E-2,7.8711E-1,1.4498359E-1,-1.509364E0,2E0,9.87121E-2,-7.654906E-2,2.1584842E2,2.138783E2,1.4719519E-1,1.1973E0,1.0562E-1,8.385407E-2,-1.0234671E-1,-7.890467E-2,7E1,4E0,5.928E1,9.971312E-2,2.1348946E2,3E0,3.5780333E-2,4.596E1,4.368E1,3.7283625E-3,-7.819368E-2,3E0,2.1536205E2,7.7E1,-8.266286E-2,-1.0103391E-1,6.1E-4,-3.411765E0,1.3914151E-1,-4.936286E-2,5E0,1.2793157E-1,-2.629834E0,-1.0108737E-1,-1.9908572E-2,5.928E1,1.2485184E-1,-7.6883905E-2,1.2594943E-1,6.6E1,-6.6269785E-2,1.4495029E-1,8.9E1,-8.368612E-3,7.8965E-1,5.53E1,2E0,5.9393216E-2,-9.6079946E-2,-6.303045E-2,1.5409689E-1,-1.5538501E-2,1.3677037E-1,1.0440284E-1,-3.4614836E-3,-8.108249E-2,7.34444E-2],"split_indices":[11,12,0,1,12,11,11,0,0,7,12,11,0,0,11,7,9,0,0,6,1,0,0,0,0,0,0,7,7,12,0,8,0,6,0,0,9,0,12,1,0,0,9,9,0,8,11,0,0,0,7,0,6,0,8,4,0,6,6,0,0,0,8,7,0,0,11,12,0,0,0,0,12,0,0,6,0,0,0,7,0,0,7,0,8,6,1,0,0,0,0,0,0,0,0,0,0],"split_type":[0,0,0,0,0,0,0,0,0,0,0,0,0,0,0,0,0,0,0,0,0,0,0,0,0,0,0,0,0,0,0,0,0,0,0,0,0,0,0,0,0,0,0,0,0,0,0,0,0,0,0,0,0,0,0,0,0,0,0,0,0,0,0,0,0,0,0,0,0,0,0,0,0,0,0,0,0,0,0,0,0,0,0,0,0,0,0,0,0,0,0,0,0,0,0,0,0],"sum_hessian":[6.978238E2,6.864694E2,1.1354385E1,1.4984183E2,5.3662756E2,5.1555615E2,2.1071426E1,1.9188452E0,1.9152582E1,9.015804E1,4.253981E2,1.0301624E1,4.1509647E2,3.8130262E0,8.634502E1,3.828242E0,6.4733815E0,2.6305118E0,1.1977304E0,3.5828366E0,2.8905451E0,1.4334211E0,2.1494155E0,1.2032831E0,1.6872619E0,4.8224214E-1,7.2104096E-1,7.263844E1,7.720339E1,7.073589E1,1.9025513E0,4.9681076E1,2.1054817E1,4.7645657E1,2.9557732E1,3.0887456E0,4.659233E1,1.2050501E0,4.538728E1,4.323464E1,2.1526399E0,2.382077E0,4.0852562E1,3.965411E1,1.1984512E0,3.5630096E1,4.024016E0,9.574448E-1,3.0665712E0,4.5566654E0,1.6498152E1,5.493696E0,1.1004456E1,2.147698E0,3.3459985E0,1.666787E1,1.8962225E1,4.2971625E0,1.2370707E1,7.623887E0,4.74682E0,1.8824718E1,2.882094E1,5.956852E0,1.28678665E1,1.9069326E0,4.049919E0,2.810687E1,7.140688E-1,8.851319E0,2.1531355E0,4.7519147E-1,2.763168E1,2.3624196E0,2.526926E1,2.866371E0,4.7962767E-1,2.3883302E0,4.7804064E-1,8.301188E1,3.333144E0,9.543326E-1,8.205754E1,7.68069E1,5.2506413E0,3.0976453E0,2.1529963E0,1.9082375E0,1.1894078E0,2.3528162E-1,1.9177146E0,1.4345334E0,7.1860206E-1,2.3963609E0,1.9008019E0,4.7519147E-1,3.5747278E0],"tree_param":{"num_deleted":"0","num_feature":"15","num_nodes":"97","size_leaf_vector":"1"}},{"base_weights":[-4.083205E-3,-9.8812785E-3,1.3086727E0,1.2063187E-3,-7.2200805E-1,1.781066E-2,-4.621575E-1,1.2015315E0,-6.831467E-1,-5.918034E-1,3.086695E-2,1.6688026E-1,-8.353579E-2,1.4219308E-1,-3.4988385E-2,1.2139052E-1,-7.743527E-2,-7.537787E-2,3.542818E-2,1.9867179E-1,-5.9569303E-2,-8.9936316E-2,6.7828375E-1,7.109407E-2,-7.8471825E-2,-3.0628802E-2,-1.1250012E0,3.8751733E-1,-9.174768E-2,1.2433308E-1,-8.001636E-2,1.0634085E0,-3.5026243E-1,3.8689896E-1,-9.150673E-2,-8.0766775E-2,8.278049E-2,1.379999E-1,-9.6749505E-3,6.0345155E-1,3.0180693E-2,-9.407148E-2,6.9369905E-2,-1.1273011E-1,7.309381E-2,1.073734E0,3.955227E-3,-8.342611E-2,8.587392E-2,4.2828403E-2,-2.57448E-1,-8.83805E-2,4.4335502E-1,3.2062635E-2,-1.3609147E0,7.69808E-2,-7.3343225E-2,1.1066493E-1,-4.4462726E-1,-7.7463225E-2,3.6489893E-2,1.3710208E-1,-1.5255974E-2,-2.3222055E-1,2.7496353E-2,2.336952E-1,-3.891695E-2,-4.0259708E-2,5.823083E-1,1.14944704E-1,-3.4555668E-1,-5.0168555E-2,1.2949373E-1,-5.079576E-1,-9.784703E-2,1.2377705E-1,-6.6899575E-2,-9.864472E-2,4.8899055E-1,9.642583E-1,-7.57165E-2,-1.2661371E0,-4.245815E-3,8.007132E-2,-1.2436342E-1,4.2632963E-3,1.06875814E-1,1.3581976E-1,-1.7260276E-1,-8.182136E-2,-7.7271596E-2,-9.023547E-3,9.359367E-2,-1.0311104E-1,1.0127143E-1,9.471072E-2,-1.0442861E-1],"categories":[],"categories_nodes":[],"categories_segments":[],"categories_sizes":[],"default_left":[0,0,0,0,0,0,0,0,0,0,0,0,0,0,0,0,0,0,0,0,0,0,0,0,0,0,0,0,0,0,0,0,0,0,0,0,0,0,0,0,0,0,0,0,0,0,0,0,0,0,0,0,0,0,0,0,0,0,0,0,0,0,0,0,0,0,0,0,0,0,0,0,0,0,0,0,0,0,0,0,0,0,0,0,0,0,0,0,0,0,0,0,0,0,0,0,0],"id":2,"left_children":[1,3,15,5,11,9,7,13,25,19,17,21,-1,-1,-1,-1,-1,-1,39,31,-1,-1,23,-1,-1,-1,27,29,-1,-1,-1,37,33,35,-1,-1,-1,-1,-1,41,43,-1,-1,49,45,47,-1,-1,-1,51,73,53,55,61,95,-1,57,-1,59,-1,-1,-1,63,65,-1,67,-1,-1,69,-1,71,-1,-1,75,81,77,-1,-1,79,85,-1,93,83,-1,87,-1,-1,-1,89,-1,91,-1,-1,-1,-1,-1,-1],"loss_changes":[5.3050647E0,5.491161E0,4.223089E0,5.263956E0,5.0770926E0,5.259364E0,8.828737E0,4.74135E0,1.9821606E0,3.3407574E0,3.429469E0,3.3400116E0,0E0,0E0,0E0,0E0,0E0,0E0,1.9150921E0,1.9406906E0,0E0,0E0,2.5009756E0,0E0,0E0,0E0,2.73135E0,2.9645433E0,0E0,0E0,0E0,1.9824073E0,2.0009255E0,2.4168417E0,0E0,0E0,0E0,0E0,0E0,5.4168158E0,3.9202824E0,0E0,0E0,3.3261132E0,6.7434225E0,3.5763264E0,0E0,0E0,0E0,3.7531161E0,3.047474E0,8.260034E0,6.5008097E0,4.741498E0,3.0256433E0,0E0,6.774981E0,0E0,6.2687926E0,0E0,0E0,0E0,4.499766E0,5.2967196E0,0E0,4.129052E0,0E0,0E0,1.06346245E1,0E0,5.454679E0,0E0,0E0,9.33709E0,5.1252155E0,7.8454413E0,0E0,0E0,8.576297E0,4.870978E0,0E0,3.095745E0,6.336096E0,0E0,4.198542E0,0E0,0E0,0E0,3.9105396E0,0E0,3.1265666E0,0E0,0E0,0E0,0E0,0E0,0E0],"parents":[2147483647,0,0,1,1,3,3,6,6,5,5,4,4,7,7,2,2,10,10,9,9,11,11,22,22,8,8,26,26,27,27,19,19,32,32,33,33,31,31,18,18,39,39,40,40,44,44,45,45,43,43,49,49,51,51,52,52,56,56,58,58,53,53,62,62,63,63,65,65,68,68,70,70,50,50,73,73,75,75,78,78,74,74,82,82,79,79,84,84,88,88,90,90,81,81,54,54],"right_children":[2,4,16,6,12,10,8,14,26,20,18,22,-1,-1,-1,-1,-1,-1,40,32,-1,-1,24,-1,-1,-1,28,30,-1,-1,-1,38,34,36,-1,-1,-1,-1,-1,42,44,-1,-1,50,46,48,-1,-1,-1,52,74,54,56,62,96,-1,58,-1,60,-1,-1,-1,64,66,-1,68,-1,-1,70,-1,72,-1,-1,76,82,78,-1,-1,80,86,-1,94,84,-1,88,-1,-1,-1,90,-1,92,-1,-1,-1,-1,-1,-1],"split_conditions":[1.066E-1,5.1069E-1,3.524E-1,2.474138E0,8.484E-2,7.7042E-1,3.9E-4,8.651E-1,1E0,4.8E-4,1.4E-4,1.8405156E2,-8.353579E-2,1.4219308E-1,-3.4988385E-2,1.2139052E-1,-7.743527E-2,-7.537787E-2,5E1,7.6913E-1,-5.9569303E-2,-8.9936316E-2,2.1548428E2,7.109407E-2,-7.8471825E-2,-3.0628802E-2,7.8692E-1,2.4E-4,-9.174768E-2,1.2433308E-1,-8.001636E-2,1E0,3.44134E-1,2.2E-4,-9.150673E-2,-8.0766775E-2,8.278049E-2,1.379999E-1,-9.6749505E-3,-9.24893E-1,-1.14497E0,-9.407148E-2,6.9369905E-2,5E0,3.013E1,2.282E1,3.955227E-3,-8.342611E-2,8.587392E-2,1.8528487E2,4.203E1,5.178E-2,2.1270215E2,1.7E-4,3.251E-2,7.69808E-2,1.1066E-1,1.1066493E-1,4.788E1,-7.7463225E-2,3.6489893E-2,1.3710208E-1,1.19465E0,8.7189E-1,2.7496353E-2,7.8657E-1,-3.891695E-2,-4.0259708E-2,2.8E-4,1.14944704E-1,3.2E-4,-5.0168555E-2,1.2949373E-1,1.18555E0,2.3E-4,7.7E1,-6.6899575E-2,-9.864472E-2,3.927E1,8.7513E-1,-7.57165E-2,1.08E-3,7.6E-4,8.007132E-2,4.211E1,4.2632963E-3,1.06875814E-1,1.3581976E-1,8.6834E-1,-8.182136E-2,2.1600511E2,-9.023547E-3,9.359367E-2,-1.0311104E-1,1.0127143E-1,9.471072E-2,-1.0442861E-1],"split_indices":[10,11,11,12,10,9,11,9,13,11,11,9,0,0,0,0,0,0,5,9,0,0,9,0,0,0,9,10,0,0,0,13,12,10,0,0,0,0,0,12,12,0,0,1,6,6,0,0,0,8,6,10,9,11,11,0,11,0,6,0,0,0,9,9,0,8,0,0,10,0,10,0,0,8,10,7,0,0,6,9,0,11,11,0,6,0,0,0,9,0,8,0,0,0,0,0,0],"split_type":[0,0,0,0,0,0,0,0,0,0,0,0,0,0,0,0,0,0,0,0,0,0,0,0,0,0,0,0,0,0,0,0,0,0,0,0,0,0,0,0,0,0,0,0,0,0,0,0,0,0,0,0,0,0,0,0,0,0,0,0,0,0,0,0,0,0,0,0,0,0,0,0,0,0,0,0,0,0,0,0,0,0,0,0,0,0,0,0,0,0,0,0,0,0,0,0,0],"sum_hessian":[6.97618E2,6.947117E2,2.9062839E0,6.8420825E2,1.0503403E1,6.606984E2,2.350985E1,2.670891E0,2.0838959E1,1.3696347E1,6.470021E2,3.9666226E0,6.53678E0,1.7125217E0,9.583694E-1,2.4432597E0,4.6302408E-1,2.371433E0,6.446306E2,3.7961411E0,9.900206E0,9.317627E-1,3.03486E0,2.5679762E0,4.6688375E-1,1.4062162E1,6.776797E0,9.512238E-1,5.825573E0,4.8036274E-1,4.7086108E-1,1.4207689E0,2.3753722E0,1.4342203E0,9.4115186E-1,4.742586E-1,9.599617E-1,7.16021E-1,7.0474786E-1,5.7244253E0,6.389062E2,9.556359E-1,4.7687893E0,1.4745233E2,4.914539E2,6.4865236E0,4.8496735E2,4.8144633E-1,6.0050774E0,7.109756E1,7.635477E1,5.363517E1,1.746239E1,4.9134327E1,4.5008435E0,7.267294E0,1.0195097E1,1.698001E0,8.497096E0,4.9182425E0,3.578853E0,9.710547E-1,4.816327E1,3.20154E1,1.614787E1,1.3788006E1,1.8227396E1,4.0119934E0,9.776012E0,4.3232265E0,5.4527864E0,4.7216926E0,7.310938E-1,2.956484E1,4.678993E1,1.3048739E1,1.65161E1,2.3271184E0,1.07216215E1,8.348466E0,2.3731546E0,3.318437E0,4.3471493E1,3.804286E0,3.9667206E1,3.5436738E0,4.804793E0,7.2008926E-1,3.8947117E1,3.0657148E0,3.58814E1,3.4669426E1,1.2119768E0,3.0803125E0,2.3812456E-1,2.4389596E-1,4.2569475E0],"tree_param":{"num_deleted":"0","num_feature":"15","num_nodes":"97","size_leaf_vector":"1"}},{"base_weights":[-1.7392853E-3,1.0403593E-2,-7.4139446E-1,4.992439E-3,7.95811E-2,3.583649E-3,-8.144488E-2,-6.996183E-1,1.3487713E-2,6.625398E-2,-7.262894E-2,-1.3648517E-1,5.4959446E-2,1.0340518E-1,-1.5517923E-1,-1.263269E-1,-8.371734E-2,1.5209782E-1,-1.9762798E-1,-6.0561668E-2,3.5354698E-1,-2.5464723E-2,3.0260706E-2,-5.380507E-3,1.3618939E-1,8.468639E-2,-7.0147745E-2,-4.4151342E-1,2.3701103E-1,1.6556273E0,4.377223E-2,-2.8059263E-2,3.5311347E-1,1.5443513E-1,2.201495E-2,-9.243861E-2,4.568348E-1,4.308001E-2,-4.9771085E-2,2.6791158E-1,1.3774814E-1,5.810725E-1,-2.518642E-1,-7.290809E-1,8.4232813E-1,-9.395292E-2,1.0050428E0,-9.740633E-2,1.5329932E-1,1.2609277E0,-2.1971844E-2,-8.042424E-2,1.3981491E-1,-8.282701E-2,1.1206722E0,-9.918625E-2,-1.4335747E-1,-5.8351565E-2,6.698769E-1,1.6252009E0,-9.408855E-2,1.5130582E-1,-1.341277E-2,5.446705E-2,-9.571405E-2,1.4683242E-1,5.668039E-2,-1.4652509E-2,7.4204296E-2,1.1254271E-1,-2.8122035E-1,6.2364346E-1,-3.842783E-2,1.4124002E-1,2.4648662E-1,1.2444618E-1,-1.2612769E-2,1.01278596E-1,1.0344653E-1,-5.614345E-1,1.17955305E-1,1.4932984E-1,1.1002024E-1,6.618811E-2,9.751283E-2,-4.8165526E-2,1.2123688E-1,3.954244E-2,7.964916E-2,-1.0460638E-1,9.318015E-3,8.981866E-3,-3.2467178E-1,-1.9461335E-1,-7.916202E-2,-2.697986E-2,2.1907806E-2],"categories":[],"categories_nodes":[],"categories_segments":[],"categories_sizes":[],"default_left":[0,0,0,0,0,0,0,0,0,0,0,0,0,0,0,0,0,0,0,0,0,0,0,0,0,0,0,0,0,0,0,0,0,0,0,0,0,0,0,0,0,0,0,0,0,0,0,0,0,0,0,0,0,0,0,0,0,0,0,0,0,0,0,0,0,0,0,0,0,0,0,0,0,0,0,0,0,0,0,0,0,0,0,0,0,0,0,0,0,0,0,0,0,0,0,0,0],"id":3,"left_children":[1,3,5,7,-1,-1,-1,9,11,-1,-1,13,67,-1,15,17,-1,19,21,-1,39,-1,23,25,-1,27,-1,55,29,33,31,-1,35,-1,-1,-1,37,-1,-1,41,-1,43,47,63,45,-1,53,-1,49,51,-1,-1,-1,-1,65,-1,57,-1,59,61,-1,-1,-1,-1,-1,-1,-1,-1,69,77,71,73,-1,-1,75,-1,-1,-1,79,85,81,-1,83,-1,87,-1,-1,-1,89,91,-1,-1,93,95,-1,-1,-1],"loss_changes":[6.2377872E0,4.365352E0,4.3058667E0,4.0668206E0,0E0,0E0,0E0,5.5219355E0,4.1798577E0,0E0,0E0,4.6234455E0,2.7864792E0,0E0,4.544771E0,2.7967422E0,0E0,6.1899624E0,4.7145395E0,0E0,3.4595132E0,0E0,3.6207507E0,4.6925774E0,0E0,3.6827805E0,0E0,3.176526E0,9.735968E0,3.5977383E0,4.5517955E0,0E0,3.524943E0,0E0,0E0,0E0,4.1973143E0,0E0,0E0,3.8185878E0,0E0,5.094733E0,4.388884E0,2.9326053E0,4.710659E0,0E0,3.2139359E0,0E0,3.6991527E0,4.7359943E0,0E0,0E0,0E0,0E0,2.9130745E0,0E0,4.9837046E0,0E0,8.272378E0,3.386457E0,0E0,0E0,0E0,0E0,0E0,0E0,0E0,0E0,6.7109394E0,5.6535287E0,1.2874889E1,6.6005096E0,0E0,0E0,6.8928695E0,0E0,0E0,0E0,4.268937E0,3.8315806E0,7.2306232E0,0E0,4.7387514E0,0E0,3.7542424E0,0E0,0E0,0E0,4.55468E0,5.336203E0,0E0,0E0,5.8775697E0,5.087756E0,0E0,0E0,0E0],"parents":[2147483647,0,0,1,1,2,2,3,3,7,7,8,8,11,11,14,14,15,15,17,17,18,18,22,22,23,23,25,25,28,28,30,30,29,29,32,32,36,36,20,20,39,39,41,41,44,44,42,42,48,48,49,49,46,46,27,27,56,56,58,58,59,59,43,43,54,54,12,12,68,68,70,70,71,71,74,74,69,69,78,78,80,80,82,82,79,79,84,84,88,88,89,89,92,92,93,93],"right_children":[2,4,6,8,-1,-1,-1,10,12,-1,-1,14,68,-1,16,18,-1,20,22,-1,40,-1,24,26,-1,28,-1,56,30,34,32,-1,36,-1,-1,-1,38,-1,-1,42,-1,44,48,64,46,-1,54,-1,50,52,-1,-1,-1,-1,66,-1,58,-1,60,62,-1,-1,-1,-1,-1,-1,-1,-1,70,78,72,74,-1,-1,76,-1,-1,-1,80,86,82,-1,84,-1,88,-1,-1,-1,90,92,-1,-1,94,96,-1,-1,-1],"split_conditions":[5.1069E-1,1.066E-1,8.484E-2,7.6913E-1,7.95811E-2,3.583649E-3,-8.144488E-2,4.8E-4,-1.14497E0,6.625398E-2,-7.262894E-2,1.9E-4,2.2E-4,1.0340518E-1,9.3E1,7.2E1,-8.371734E-2,2E0,8.3E1,-6.0561668E-2,3.66E-1,-2.5464723E-2,6.368E1,-1.21522E0,1.3618939E-1,8.8533E-1,-7.0147745E-2,2E0,1.17366E0,8.8E1,4.203E1,-2.8059263E-2,4.8E-4,1.5443513E-1,2.201495E-2,-9.243861E-2,8.519E-2,4.308001E-2,-4.9771085E-2,1.8105647E2,1.3774814E-1,6.7E-4,1.8483002E2,7.8803E-1,-2.895051E0,-9.395292E-2,3.013E1,-9.740633E-2,2.1165189E2,3.306E1,-2.1971844E-2,-8.042424E-2,1.3981491E-1,-8.282701E-2,9.5E-4,-9.918625E-2,8.7E1,-5.8351565E-2,8.7058E-1,4.211E1,-9.408855E-2,1.5130582E-1,-1.341277E-2,5.446705E-2,-9.571405E-2,1.4683242E-1,5.668039E-2,-1.4652509E-2,1.964912E0,-1.121367E0,8.6685E-1,3.9E-4,-3.842783E-2,1.4124002E-1,4.788E1,1.2444618E-1,-1.2612769E-2,1.01278596E-1,2.5E-4,8.8555E-1,2.7E-4,1.4932984E-1,3.013E1,6.618811E-2,7.7791E-1,-4.8165526E-2,1.2123688E-1,3.954244E-2,1.04E-3,4.933E1,9.318015E-3,8.981866E-3,9.6E-4,5.1E-4,-7.916202E-2,-2.697986E-2,2.1907806E-2],"split_indices":[11,10,10,9,0,0,0,11,12,0,0,11,10,0,7,7,0,0,7,0,11,0,6,12,0,8,0,4,9,7,6,0,10,0,0,0,10,0,0,8,0,11,8,9,12,0,6,0,9,6,0,0,0,0,11,0,7,0,8,6,0,0,0,0,0,0,0,0,12,12,9,11,0,0,6,0,0,0,11,9,11,0,6,0,8,0,0,0,11,6,0,0,11,10,0,0,0],"split_type":[0,0,0,0,0,0,0,0,0,0,0,0,0,0,0,0,0,0,0,0,0,0,0,0,0,0,0,0,0,0,0,0,0,0,0,0,0,0,0,0,0,0,0,0,0,0,0,0,0,0,0,0,0,0,0,0,0,0,0,0,0,0,0,0,0,0,0,0,0,0,0,0,0,0,0,0,0,0,0,0,0,0,0,0,0,0,0,0,0,0,0,0,0,0,0,0,0],"sum_hessian":[6.937109E2,6.826517E2,1.1059178E1,6.797091E2,2.9426093E0,4.215069E0,6.84411E0,7.9350615E0,6.7177405E2,1.4368863E0,6.498175E0,1.4541203E2,5.26362E2,1.4466012E0,1.4396542E2,1.4046695E2,3.4984813E0,2.8583582E1,1.1188336E2,4.467821E0,2.411576E1,6.1785248E1,5.0098118E1,4.937899E1,7.191252E-1,4.559718E1,3.7818131E0,1.0159563E1,3.5437614E1,4.1007957E0,3.133682E1,1.2490737E1,1.8846083E1,2.6527781E0,1.4480175E0,9.4638956E-1,1.7899694E1,1.5531639E1,2.3680544E0,2.3145903E1,9.6985817E-1,1.4439493E1,8.7064085E0,2.3494964E0,1.2089996E1,7.301894E-1,1.1359807E1,2.0844483E0,6.6219606E0,1.937171E0,4.684789E0,4.7105277E-1,1.4661182E0,4.775117E-1,1.0882296E1,2.107251E0,8.052312E0,4.234768E0,3.8175437E0,2.6425917E0,1.1749521E0,1.9267842E0,7.158075E-1,7.267663E-1,1.6227301E0,1.9420207E0,8.940275E0,3.4316895E1,4.920451E2,4.4425113E2,4.779399E1,1.1714603E1,3.6079388E1,2.208244E0,9.50636E0,1.9068165E0,7.5995436E0,2.6797225E0,4.4157138E2,9.293257E0,4.3227814E2,1.4407864E0,4.3083734E2,5.835755E0,4.250016E2,8.8093195E0,4.8393768E-1,1.458921E1,4.1041238E2,1.009813E2,3.094311E2,4.838342E1,5.259788E1,4.5885777E1,6.7121034E0,3.2769638E1,1.311614E1],"tree_param":{"num_deleted":"0","num_feature":"15","num_nodes":"97","size_leaf_vector":"1"}}]},"name":"gbtree"},"learner_model_param":{"base_score":"3.9524123E-1","boost_from_average":"1","num_class":"0","num_feature":"15","num_target":"1"},"objective":{"name":"binary:logistic","reg_loss_param":{"scale_pos_weight":"1"}}},"version":[2,1,4]}