{"learner":{"attributes":{},"feature_names":["category","market_type","indicator","trend_dir","score","rsi","body","ema50","ema200","atr","dist","relative_momentum","symbol_enc","side_enc","raw_market_type_enc"],"feature_types":["float","float","float","float","float","float","float","float","float","float","float","float","float","float","float"],"gradient_booster":{"model":{"gbtree_model_param":{"num_parallel_tree":"1","num_trees":"14"},"iteration_indptr":[0,1,2,3,4,5,6,7,8,9,10,11,12,13,14],"tree_info":[0,0,0,0,0,0,0,0,0,0,0,0,0,0],"trees":[{"base_weights":[-2.4081355E-2,-9.115488E-2,4.8939484E-1,-2.861375E-1,5.9624083E-2,8.6789507E-1,-9.753109E-2,-8.2131207E-1,3.2355763E-2,3.766578E-1,-4.240539E-1,-1.4864404E0,-2.9607654E-1,-1.3354357E-1,5.84005E-1,1.0708874E0,-4.7482046E-1,9.9700745E-3,-1.0212266E0,-3.379283E-1,5.3862125E-1,-7.35163E-1,2.869086E-1,9.558114E-1,-2.2227506E-1,1.5255799E0,4.18339E-1,3.9919797E-1,1.6312476E0,-5.334988E-1,9.566899E-3,2.34832E-1,1.2212135E0,7.9602647E-1,-5.1884884E-1,-3.1902412E-1,-1.1055466E0,-6.514015E-1,7.7607614E-1,3.173508E-2,-1.0035723E0,-1.9865379E-1,6.0509694E-1,4.139763E-1,-5.1872647E-1,-1.2710361E0,-4.165643E-1,-0E0,9.2479366E-1,-1.8924782E-1,7.7607614E-1,-3.8511264E-3,-8.537674E-1,1.4868077E0,5.5350745E-1,9.836627E-3,-8.222354E-1,-4.7482046E-1,-1.3376156E0,-1.0212266E0,-4.7482046E-1],"categories":[],"categories_nodes":[],"categories_segments":[],"categories_sizes":[],"default_left":[0,0,0,0,0,0,0,0,0,0,0,0,0,0,0,0,0,0,0,0,0,0,0,0,0,0,0,0,0,0,0,0,0,0,0,0,0,0,0,0,0,0,0,0,0,0,0,0,0,0,0,0,0,0,0,0,0,0,0,0,0],"id":0,"left_children":[1,3,31,9,5,25,7,59,13,47,11,-1,29,17,15,53,-1,19,-1,21,23,45,49,27,-1,-1,-1,-1,-1,35,41,33,-1,-1,-1,37,-1,39,-1,-1,57,43,-1,-1,51,-1,55,-1,-1,-1,-1,-1,-1,-1,-1,-1,-1,-1,-1,-1,-1],"loss_changes":[5.3088717E0,4.0269794E0,3.1879435E0,5.506506E0,9.852565E0,3.4842443E0,6.1286855E0,4.9731874E-1,5.09355E0,2.1553311E0,6.5584574E0,0E0,3.2572904E0,5.470153E0,6.806902E0,1.6139288E0,0E0,6.869957E0,0E0,5.657053E0,4.797021E0,2.1574821E0,2.1408572E0,3.3797731E0,0E0,0E0,0E0,0E0,0E0,2.9436889E0,2.4997196E0,5.8901777E0,0E0,0E0,0E0,6.9878874E0,0E0,3.548811E0,0E0,0E0,1.4636488E0,2.978707E0,0E0,0E0,1.685097E0,0E0,1.6125076E0,0E0,0E0,0E0,0E0,0E0,0E0,0E0,0E0,0E0,0E0,0E0,0E0,0E0,0E0],"parents":[2147483647,0,0,1,1,4,4,6,6,3,3,10,10,8,8,14,14,13,13,17,17,19,19,20,20,5,5,23,23,12,12,2,2,31,31,29,29,35,35,37,37,30,30,41,41,21,21,9,9,22,22,44,44,15,15,46,46,40,40,7,7],"right_children":[2,4,32,10,6,26,8,60,14,48,12,-1,30,18,16,54,-1,20,-1,22,24,46,50,28,-1,-1,-1,-1,-1,36,42,34,-1,-1,-1,38,-1,40,-1,-1,58,44,-1,-1,52,-1,56,-1,-1,-1,-1,-1,-1,-1,-1,-1,-1,-1,-1,-1,-1],"split_conditions":[6.25E1,1.57E-3,2.1078E-1,7.7546E-1,2.09E-3,5.2E-4,5.9E-4,4.947E1,5.626E1,8.2E1,7.7807E-1,-1.4864404E0,5E0,4.1521E-1,6.052E1,7.265E-2,-4.7482046E-1,4E0,-1.0212266E0,8.002E-2,4.549E1,4.378E1,4.144E1,4.06E1,-2.2227506E-1,1.5255799E0,4.18339E-1,3.9919797E-1,1.6312476E0,1.11E-3,5E-4,5E-4,1.2212135E0,7.9602647E-1,-5.1884884E-1,9E-4,-1.1055466E0,4.3E-4,7.7607614E-1,3.173508E-2,3.1E-4,7.9E1,6.0509694E-1,4.139763E-1,6.4E-4,-1.2710361E0,5.582E-2,-0E0,9.2479366E-1,-1.8924782E-1,7.7607614E-1,-3.8511264E-3,-8.537674E-1,1.4868077E0,5.5350745E-1,9.836627E-3,-8.222354E-1,-4.7482046E-1,-1.3376156E0,-1.0212266E0,-4.7482046E-1],"split_indices":[5,10,10,8,10,9,9,5,5,6,8,0,0,10,5,9,0,3,0,9,5,5,5,5,0,0,0,0,0,10,9,9,0,0,0,10,0,10,0,0,9,6,0,0,10,0,9,0,0,0,0,0,0,0,0,0,0,0,0,0,0],"split_type":[0,0,0,0,0,0,0,0,0,0,0,0,0,0,0,0,0,0,0,0,0,0,0,0,0,0,0,0,0,0,0,0,0,0,0,0,0,0,0,0,0,0,0,0,0,0,0,0,0,0,0,0,0,0,0,0,0,0,0,0,0],"sum_hessian":[1.53775E2,1.3627817E2,1.7496834E1,5.9390663E1,7.68875E1,1.2321714E1,6.456578E1,9.610937E0,5.4954845E1,1.0103806E1,4.9286858E1,4.9286857E0,4.4358173E1,4.2386696E1,1.2568149E1,8.6252E0,3.9429486E0,3.6718708E1,5.667989E0,2.2179087E1,1.4539623E1,1.3553885E1,8.6252E0,9.364503E0,5.17512E0,4.6822515E0,7.639463E0,5.421554E0,3.9429486E0,2.4889862E1,1.946831E1,1.3307451E1,4.189383E0,7.639463E0,5.667989E0,1.848257E1,6.4072914E0,1.4293189E1,4.189383E0,4.9286857E0,9.364503E0,1.4539623E1,4.9286857E0,4.9286857E0,9.610937E0,4.6822515E0,8.8716345E0,6.160857E0,3.9429486E0,4.4358172E0,4.189383E0,3.9429486E0,5.667989E0,4.4358172E0,4.189383E0,4.4358172E0,4.4358172E0,3.9429486E0,5.421554E0,5.667989E0,3.9429486E0],"tree_param":{"num_deleted":"0","num_feature":"15","num_nodes":"61","size_leaf_vector":"1"}},{"base_weights":[-2.4485974E-2,1.5907817E-2,-1.0081507E0,1.3052844E-1,-3.680189E-1,8.5308665E-1,-6.9506294E-1,6.913537E-2,1.3462156E0,-8.569103E-1,1.3163221E-1,-3.2937158E-2,3.5914037E-1,1.1492196E-1,7.6510257E-1,-4.2360362E-1,4.398417E-1,1.0542735E0,-4.502938E-2,-9.249833E-1,6.98745E-1,2.1761625E-1,-2.8254202E-1,2.8701644E-2,1.0743864E0,-4.51062E-1,5.8585536E-1,-7.8671277E-1,2.069485E-1,2.8401387E-1,-6.2265843E-1,9.108671E-1,-1.5394329E-1,-1.0299797E0,-2.7825603E-1,-3.3561018E-1,-1.1857123E0,-5.178273E-1,3.2353094E-1,-7.2944695E-1,-1.5746043E0,-1.121379E-1,-1.2822342E0,-7.982388E-1,5.25388E-2,1.2063022E0,5.115803E-1,1.0429637E0,1.8898154E-2,-3.5207865E-3,-6.445594E-1],"categories":[],"categories_nodes":[],"categories_segments":[],"categories_sizes":[],"default_left":[0,0,0,0,0,0,0,0,0,0,0,0,0,0,0,0,0,0,0,0,0,0,0,0,0,0,0,0,0,0,0,0,0,0,0,0,0,0,0,0,0,0,0,0,0,0,0,0,0,0,0],"id":1,"left_children":[1,3,-1,7,5,-1,33,9,-1,-1,11,21,13,15,45,43,17,-1,19,-1,-1,23,25,29,-1,27,-1,35,-1,31,-1,-1,37,39,49,-1,-1,-1,-1,41,-1,-1,-1,-1,-1,-1,47,-1,-1,-1,-1],"loss_changes":[5.3052216E0,5.6286926E0,0E0,7.294012E0,1.1912156E1,0E0,3.1378536E0,5.468104E0,0E0,0E0,3.3291974E0,3.2477841E0,3.6441846E0,4.1997147E0,1.3194265E0,1.6447675E0,4.496191E0,0E0,5.84451E0,0E0,0E0,4.1464295E0,3.8871071E0,3.6251976E0,0E0,4.926148E0,0E0,2.4756804E0,0E0,4.37678E0,0E0,0E0,1.7037082E0,1.6822577E0,1.0743178E0,0E0,0E0,0E0,0E0,2.937368E0,0E0,0E0,0E0,0E0,0E0,0E0,2.4245348E0,0E0,0E0,0E0,0E0],"parents":[2147483647,0,0,1,1,4,4,3,3,7,7,10,10,12,12,13,13,16,16,18,18,11,11,21,21,22,22,25,25,23,23,29,29,6,6,27,27,32,32,33,33,39,39,15,15,14,14,46,46,34,34],"right_children":[2,4,-1,8,6,-1,34,10,-1,-1,12,22,14,16,46,44,18,-1,20,-1,-1,24,26,30,-1,28,-1,36,-1,32,-1,-1,38,40,50,-1,-1,-1,-1,42,-1,-1,-1,-1,-1,-1,48,-1,-1,-1,-1],"split_conditions":[9.39E-2,1.067835E0,-1.0081507E0,4.4193E-1,6.3E-4,8.5308665E-1,3E0,7.7468E-1,1.3462156E0,-8.569103E-1,8.1E1,3E0,-3.29897E-1,5E0,8.4E1,3E0,2.09E-3,1.0542735E0,1.8183707E2,-9.249833E-1,6.98745E-1,7.8E1,5.14854E-1,7.6E1,1.0743864E0,2.1242673E2,5.8585536E-1,1.2E-3,2.069485E-1,-7.03102E-1,-6.2265843E-1,9.108671E-1,6.2E-4,2E0,1.38607E0,-3.3561018E-1,-1.1857123E0,-5.178273E-1,3.2353094E-1,5.5E1,-1.5746043E0,-1.121379E-1,-1.2822342E0,-7.982388E-1,5.25388E-2,1.2063022E0,5.5E1,1.0429637E0,1.8898154E-2,-3.5207865E-3,-6.445594E-1],"split_indices":[9,11,0,10,10,0,12,7,0,0,6,12,11,0,6,12,10,0,7,0,0,6,11,6,0,7,0,10,0,11,0,0,9,12,7,0,0,0,0,4,0,0,0,0,0,0,4,0,0,0,0],"split_type":[0,0,0,0,0,0,0,0,0,0,0,0,0,0,0,0,0,0,0,0,0,0,0,0,0,0,0,0,0,0,0,0,0,0,0,0,0,0,0,0,0,0,0,0,0,0,0,0,0,0,0],"sum_hessian":[1.3238757E2,1.2742493E2,4.962646E0,9.83397E1,2.9085228E1,6.02281E0,2.3062418E1,9.393977E1,4.399928E0,5.6664424E0,8.827333E1,5.130044E1,3.697289E1,2.337192E1,1.3600969E1,8.727605E0,1.4644315E1,6.3276043E0,8.31671E0,3.793101E0,4.523609E0,2.5564558E1,2.5735882E1,2.1230124E1,4.3344345E0,2.1702702E1,4.0331807E0,1.4360786E1,7.3419156E0,1.5406021E1,5.824103E0,6.2281723E0,9.177849E0,1.2502174E1,1.0560243E1,7.0358734E0,7.3249125E0,5.2274537E0,3.9503946E0,8.547569E0,3.954605E0,4.2347746E0,4.312795E0,4.8026853E0,3.9249194E0,4.5063305E0,9.09464E0,4.184759E0,4.9098806E0,6.253543E0,4.3066998E0],"tree_param":{"num_deleted":"0","num_feature":"15","num_nodes":"51","size_leaf_vector":"1"}},{"base_weights":[-1.1654767E-1,-1.6302039E-1,9.6125984E-1,2.6546909E-2,-3.797289E-1,-2.9251152E-1,-1.225171E0,3.044972E-1,-4.6697563E-1,7.674101E-1,-3.626887E-1,1.2074699E-1,-6.1267304E-1,-7.6332295E-1,1.3013159E-1,-5.738798E-1,-1.2794855E0,-2.5786342E-2,-8.1289685E-1,-1.22746E0,-3.630682E-1,2.568591E-1,-1.069446E-1,-3.1080604E-2,1.3807322E0,5.099817E-1,-3.0387628E-1,-8.434296E-1,7.2556205E-2,-5.18029E-1,3.948123E-2,-3.3282375E-1,5.5476016E-1,-8.786667E-1,1.7441975E-1,1.276213E0,1.9027379E-1,-1.388645E0,-2.4261792E-1,-7.300686E-2,-1.0058745E0,-2.4710329E-1,4.8363474E-1,5.206472E-1,-1.3347879E-1,-2.917073E-2,4.1626084E-1],"categories":[],"categories_nodes":[],"categories_segments":[],"categories_sizes":[],"default_left":[0,0,0,0,0,0,0,0,0,0,0,0,0,0,0,0,0,0,0,0,0,0,0,0,0,0,0,0,0,0,0,0,0,0,0,0,0,0,0,0,0,0,0,0,0,0,0],"id":2,"left_children":[1,3,-1,21,5,7,-1,9,11,-1,-1,41,13,15,-1,17,-1,-1,19,-1,-1,23,29,25,-1,-1,27,-1,-1,39,31,33,35,37,43,-1,45,-1,-1,-1,-1,-1,-1,-1,-1,-1,-1],"loss_changes":[6.2013054E0,4.880878E0,0E0,1.9623857E0,3.9318118E0,5.321088E0,0E0,3.6775312E0,3.404665E0,0E0,0E0,1.114792E0,3.585309E0,2.3019276E0,0E0,2.5730562E0,0E0,0E0,2.3915138E0,0E0,0E0,7.6356874E0,2.444641E0,2.8359358E0,0E0,0E0,2.6426723E0,0E0,0E0,2.2600014E0,5.8053384E0,4.922038E0,3.225183E0,2.6167045E0,1.0251992E0,0E0,4.5210814E-1,0E0,0E0,0E0,0E0,0E0,0E0,0E0,0E0,0E0,0E0],"parents":[2147483647,0,0,1,1,4,4,5,5,7,7,8,8,12,12,13,13,15,15,18,18,3,3,21,21,23,23,26,26,22,22,30,30,31,31,32,32,33,33,29,29,11,11,34,34,36,36],"right_children":[2,4,-1,22,6,8,-1,10,12,-1,-1,42,14,16,-1,18,-1,-1,20,-1,-1,24,30,26,-1,-1,28,-1,-1,40,32,34,36,38,44,-1,46,-1,-1,-1,-1,-1,-1,-1,-1,-1,-1],"split_conditions":[9.3E1,8E1,9.6125984E-1,1.17692E0,8.785E-2,-1.216512E0,-1.225171E0,5.7E1,8.5801E-1,7.674101E-1,-3.626887E-1,7.7523E-1,8.9E1,4E0,1.3013159E-1,-2.20592E-1,-1.2794855E0,-2.5786342E-2,1.35529E0,-1.22746E0,-3.630682E-1,8.8773E-1,5.5E1,7.7677E-1,1.3807322E0,5.099817E-1,1E0,-8.434296E-1,7.2556205E-2,1E0,7.2E1,1.8326735E2,-6.48113E-1,0E0,2.1283221E2,1.276213E0,1.38616E0,-1.388645E0,-2.4261792E-1,-7.300686E-2,-1.0058745E0,-2.4710329E-1,4.8363474E-1,5.206472E-1,-1.3347879E-1,-2.917073E-2,4.1626084E-1],"split_indices":[6,6,0,8,9,11,0,4,8,0,0,8,6,3,0,11,0,0,8,0,0,8,4,8,0,0,13,0,0,13,6,8,11,11,8,0,8,0,0,0,0,0,0,0,0,0,0],"split_type":[0,0,0,0,0,0,0,0,0,0,0,0,0,0,0,0,0,0,0,0,0,0,0,0,0,0,0,0,0,0,0,0,0,0,0,0,0,0,0,0,0,0,0,0,0,0,0],"sum_hessian":[1.23002975E2,1.1819073E2,4.8122478E0,6.311586E1,5.5074867E1,5.0325264E1,4.749605E0,1.1293005E1,3.903226E1,6.665197E0,4.6278076E0,7.7257876E0,3.130647E1,2.605235E1,5.2541227E0,1.9566769E1,6.48558E0,6.079726E0,1.3487042E1,6.71285E0,6.7741923E0,2.313391E1,3.998195E1,1.8630754E1,4.503155E0,6.121646E0,1.2509109E1,5.016754E0,7.4923544E0,1.0349216E1,2.9632734E1,1.723363E1,1.2399104E1,8.220697E0,9.012933E0,3.8807569E0,8.518348E0,4.3385015E0,3.8821957E0,5.6249437E0,4.7242727E0,3.84614E0,3.879648E0,4.1868114E0,4.8261213E0,4.392516E0,4.125831E0],"tree_param":{"num_deleted":"0","num_feature":"15","num_nodes":"47","size_leaf_vector":"1"}},{"base_weights":[1.11836374E-1,3.6570564E-2,5.4403096E-1,1.0644867E0,-3.2750625E-2,1.16918094E-1,-5.1846796E-1,-1.2855316E0,1.2529829E-1,6.2183738E-2,7.91672E-1,2.1868816E-1,-1.5963815E-1,2.3305508E-1,-6.864377E-1,8.3129096E-1,-9.105744E-2,-1.0792569E-2,5.578396E-1,-2.6095766E-1,5.9863096E-1,-2.9231701E-2,-1.2041941E0,-4.050818E-1,6.1950654E-1,-1.0454667E0,2.5921533E-1,1.7728715E-1,9.6024096E-1,-4.0547043E-1,3.7308052E-1,1.4518887E0,3.748224E-1,8.832473E-2,1.1279632E0,4.7260937E-1,-2.1400364E-1,7.387261E-1,-1.3759653E-2,-8.0181813E-1,-5.7076186E-2,-3.748417E-1,3.34767E-1,-9.0082675E-1,-3.8001698E-1,7.736349E-1,1.3017848E0,-1.0727478E0,-6.6457087E-1],"categories":[],"categories_nodes":[],"categories_segments":[],"categories_sizes":[],"default_left":[0,0,0,0,0,0,0,0,0,0,0,0,0,0,0,0,0,0,0,0,0,0,0,0,0,0,0,0,0,0,0,0,0,0,0,0,0,0,0,0,0,0,0,0,0,0,0,0,0],"id":3,"left_children":[1,5,3,45,41,9,7,-1,-1,11,-1,17,13,15,43,-1,23,19,27,21,33,29,-1,25,-1,-1,-1,35,31,39,37,-1,-1,-1,-1,-1,-1,-1,-1,-1,-1,-1,-1,47,-1,-1,-1,-1,-1],"loss_changes":[3.866084E0,4.564313E0,5.338718E0,2.7848625E-1,1.1257229E0,3.268578E0,6.468485E0,0E0,0E0,2.9009175E0,0E0,3.8300576E0,7.2029443E0,3.9168296E0,8.3553076E-1,0E0,3.0151684E0,4.5303626E0,2.95224E0,4.5741687E0,2.2679565E0,2.6658401E0,0E0,4.088146E0,0E0,0E0,0E0,1.2626778E0,2.5265722E0,1.2215743E0,1.2234927E0,0E0,0E0,0E0,0E0,0E0,0E0,0E0,0E0,0E0,0E0,0E0,0E0,7.8214645E-2,0E0,0E0,0E0,0E0,0E0],"parents":[2147483647,0,0,2,2,1,1,6,6,5,5,9,9,12,12,13,13,11,11,17,17,19,19,16,16,23,23,18,18,21,21,28,28,20,20,27,27,30,30,29,29,4,4,14,14,3,3,43,43],"right_children":[2,6,4,46,42,10,8,-1,-1,12,-1,18,14,16,44,-1,24,20,28,22,34,30,-1,26,-1,-1,-1,36,32,40,38,-1,-1,-1,-1,-1,-1,-1,-1,-1,-1,-1,-1,48,-1,-1,-1,-1,-1],"split_conditions":[6.121E1,5.741E1,5E0,5.7E1,1.35387E0,5.626E1,1.35788E0,-1.2855316E0,1.2529829E-1,4.774E1,7.91672E-1,4.279E1,1.35529E0,7.5E1,5.212E1,8.3129096E-1,8.9372E-1,1.8491261E2,1.18581E0,1.35935E0,5E0,5E0,-1.2041941E0,8.3E1,6.1950654E-1,-1.0454667E0,2.5921533E-1,8.8526E-1,1.8106058E2,8.8902E-1,8.8773E-1,1.4518887E0,3.748224E-1,8.832473E-2,1.1279632E0,4.7260937E-1,-2.1400364E-1,7.387261E-1,-1.3759653E-2,-8.0181813E-1,-5.7076186E-2,-3.748417E-1,3.34767E-1,8E1,-3.8001698E-1,7.736349E-1,1.3017848E0,-1.0727478E0,-6.6457087E-1],"split_indices":[5,5,0,4,8,5,8,0,0,5,0,5,8,6,5,0,7,7,7,7,0,0,0,6,0,0,0,7,7,7,8,0,0,0,0,0,0,0,0,0,0,0,0,6,0,0,0,0,0],"split_type":[0,0,0,0,0,0,0,0,0,0,0,0,0,0,0,0,0,0,0,0,0,0,0,0,0,0,0,0,0,0,0,0,0,0,0,0,0,0,0,0,0,0,0,0,0,0,0,0,0],"sum_hessian":[1.1923454E2,1.0188593E2,1.7348614E1,9.01037E0,8.3382435E0,8.925575E1,1.2630176E1,5.6450887E0,6.9850874E0,8.29042E1,6.351557E0,4.8685867E1,3.421833E1,1.9670801E1,1.4547531E1,6.7759576E0,1.2894842E1,2.9163578E1,1.952229E1,2.0832054E1,8.331524E0,1.6998869E1,3.8331842E0,9.060796E0,3.834047E0,4.546364E0,4.5144315E0,1.029438E1,9.227909E0,8.819102E0,8.179767E0,4.745197E0,4.4827127E0,4.449527E0,3.8819976E0,5.87177E0,4.4226103E0,4.100612E0,4.0791545E0,3.902872E0,4.9162307E0,4.3551536E0,3.9830904E0,8.15839E0,6.389141E0,4.682954E0,4.3274164E0,4.03078E0,4.12761E0],"tree_param":{"num_deleted":"0","num_feature":"15","num_nodes":"49","size_leaf_vector":"1"}},{"base_weights":[-1.2262459E-1,-2.182353E-2,-5.565228E-1,-1.8942197E-1,2.8576753E-1,-8.504323E-2,-1.0910432E0,-1.8942365E-1,5.2313495E-1,-8.187987E-2,-9.4233423E-1,-9.733953E-1,3.910108E-2,-2.098974E-1,3.2993233E-1,2.5751672E-3,1.1021552E0,8.236432E-3,-9.828438E-1,6.2027574E-1,-4.602573E-1,-9.8182905E-1,1.17054306E-1,4.718139E-1,-1.2622383E-1,-6.22764E-1,6.0409313E-1,9.6733034E-1,2.0259021E-1,8.9887494E-1,-2.8288287E-1,-1.1813918E0,-3.5437673E-1,2.927261E-1,-6.862631E-1,1.2935308E-1,-6.449112E-1,-1.0654633E0,-3.2380125E-1,-4.4065908E-1,2.3858386E-1],"categories":[],"categories_nodes":[],"categories_segments":[],"categories_sizes":[],"default_left":[0,0,0,0,0,0,0,0,0,0,0,0,0,0,0,0,0,0,0,0,0,0,0,0,0,0,0,0,0,0,0,0,0,0,0,0,0,0,0,0,0],"id":4,"left_children":[1,3,31,5,23,7,-1,9,-1,11,-1,-1,13,17,15,39,-1,19,-1,-1,21,-1,-1,27,25,-1,-1,-1,29,-1,35,-1,33,-1,37,-1,-1,-1,-1,-1,-1],"loss_changes":[4.690214E0,4.537894E0,2.3857841E0,5.3075304E0,2.4050717E0,3.2891755E0,0E0,3.5271883E0,0E0,4.2494607E0,0E0,0E0,2.53335E0,3.1995234E0,4.050782E0,1.2472519E0,0E0,4.3732347E0,0E0,0E0,2.6509418E0,0E0,0E0,2.772644E0,3.6833117E0,0E0,0E0,0E0,4.9409637E0,0E0,1.331481E0,0E0,3.4564471E0,0E0,1.3041363E0,0E0,0E0,0E0,0E0,0E0,0E0],"parents":[2147483647,0,0,1,1,3,3,5,5,7,7,9,9,12,12,14,14,13,13,17,17,20,20,4,4,24,24,23,23,28,28,2,2,32,32,30,30,34,34,15,15],"right_children":[2,4,32,6,24,8,-1,10,-1,12,-1,-1,14,18,16,40,-1,20,-1,-1,22,-1,-1,28,26,-1,-1,-1,30,-1,36,-1,34,-1,38,-1,-1,-1,-1,-1,-1],"split_conditions":[2.0363E-1,1.35203E0,2.5659E-1,1.18808E0,8.4E1,1.17908E0,-1.0910432E0,6E-4,5.2313495E-1,6.7E1,-9.4233423E-1,-9.733953E-1,2.8E-4,8.6E1,4.54352E-1,-1.583246E0,1.1021552E0,-4.01323E-1,-9.828438E-1,6.2027574E-1,7.57862E-1,-9.8182905E-1,1.17054306E-1,-5.07772E-1,5.115E1,-6.22764E-1,6.0409313E-1,9.6733034E-1,5.165E1,8.9887494E-1,1.93E-3,-1.1813918E0,7.5E1,2.927261E-1,5.115E1,1.2935308E-1,-6.449112E-1,-1.0654633E0,-3.2380125E-1,-4.4065908E-1,2.3858386E-1],"split_indices":[10,8,10,7,6,7,0,9,0,6,0,0,9,6,11,11,0,11,0,0,11,0,0,11,5,0,0,0,5,0,10,0,6,0,5,0,0,0,0,0,0],"split_type":[0,0,0,0,0,0,0,0,0,0,0,0,0,0,0,0,0,0,0,0,0,0,0,0,0,0,0,0,0,0,0,0,0,0,0,0,0,0,0,0,0],"sum_hessian":[1.0738973E2,8.745627E1,1.9933466E1,5.674551E1,3.0710758E1,5.1183647E1,5.561863E0,4.3903957E1,7.2796893E0,3.8743988E1,5.1599693E0,4.4017024E0,3.4342285E1,1.849501E1,1.5847277E1,1.1368973E1,4.478305E0,1.4630096E1,3.8649127E0,6.3267407E0,8.303356E0,4.27619E0,4.027166E0,2.1173634E1,9.537126E0,5.726833E0,3.8102927E0,7.140024E0,1.4033609E1,5.682765E0,8.350843E0,4.478677E0,1.545479E1,5.222628E0,1.02321615E1,3.9594474E0,4.3913965E0,4.6747723E0,5.5573893E0,3.8172135E0,7.551759E0],"tree_param":{"num_deleted":"0","num_feature":"15","num_nodes":"41","size_leaf_vector":"1"}},{"base_weights":[8.49785E-2,3.2202467E-2,6.625359E-1,-1.8877536E-1,2.3427458E-1,5.0581086E-1,-3.3564657E-1,-1.1656233E0,-1.8005492E-1,-2.0990327E-2,-1.1159655E0,-2.2718965E-1,3.700854E-1,1.8915413E-1,9.8834604E-1,3.3739218E-1,-5.0410694E-1,-2.563592E-1,4.3878725E-1,-5.913326E-1,1.9551279E-1,5.6240654E-1,-1.5555744E-1,3.2526383E-1,1.2413601E0,1.4873186E-1,1.072531E0,-1.0512183E-1,-9.111076E-1,1.395772E0,5.144555E-1,-4.973066E-1,2.0200078E-1,7.7834025E-2,7.959712E-1,6.6048443E-1,6.1745718E-2,3.603049E-1,1.0133122E-2,-2.66751E-1,-2.4029298E-2],"categories":[],"categories_nodes":[],"categories_segments":[],"categories_sizes":[],"default_left":[0,0,0,0,0,0,0,0,0,0,0,0,0,0,0,0,0,0,0,0,0,0,0,0,0,0,0,0,0,0,0,0,0,0,0,0,0,0,0,0,0],"id":5,"left_children":[1,3,25,5,11,-1,7,-1,9,17,-1,31,13,15,29,21,-1,19,33,27,37,23,39,35,-1,-1,-1,-1,-1,-1,-1,-1,-1,-1,-1,-1,-1,-1,-1,-1,-1],"loss_changes":[3.0797768E0,4.1999483E0,1.701582E0,4.6242094E0,3.1105084E0,0E0,4.7092857E0,0E0,4.6890793E0,3.003081E0,0E0,1.351073E0,4.1769557E0,3.1217103E0,1.3747053E0,2.7960327E0,0E0,2.8328228E0,1.165422E0,1.6032934E0,2.3372978E-1,2.598824E0,1.0671803E-1,1.1308622E0,0E0,0E0,0E0,0E0,0E0,0E0,0E0,0E0,0E0,0E0,0E0,0E0,0E0,0E0,0E0,0E0,0E0],"parents":[2147483647,0,0,1,1,3,3,6,6,8,8,4,4,12,12,13,13,9,9,17,17,15,15,21,21,2,2,19,19,14,14,11,11,18,18,23,23,20,20,22,22],"right_children":[2,4,26,6,12,-1,8,-1,10,18,-1,32,14,16,30,22,-1,20,34,28,38,24,40,36,-1,-1,-1,-1,-1,-1,-1,-1,-1,-1,-1,-1,-1,-1,-1,-1,-1],"split_conditions":[8.773E-2,5E0,2.1323936E2,4.5E-4,1E0,5.0581086E-1,6.5E-4,-1.1656233E0,7.635E-2,3E0,-1.1159655E0,8.8622E-1,8.6E1,8.4E1,1.36241E0,1.8137968E2,-5.0410694E-1,4E0,1.72E-3,6.6E-4,1.18509E0,2.54E-3,5.115E1,4.731E1,1.2413601E0,1.4873186E-1,1.072531E0,-1.0512183E-1,-9.111076E-1,1.395772E0,5.144555E-1,-4.973066E-1,2.0200078E-1,7.7834025E-2,7.959712E-1,6.6048443E-1,6.1745718E-2,3.603049E-1,1.0133122E-2,-2.66751E-1,-2.4029298E-2],"split_indices":[9,0,8,10,12,0,10,0,9,12,0,8,6,6,8,8,0,3,10,9,8,10,5,5,0,0,0,0,0,0,0,0,0,0,0,0,0,0,0,0,0],"split_type":[0,0,0,0,0,0,0,0,0,0,0,0,0,0,0,0,0,0,0,0,0,0,0,0,0,0,0,0,0,0,0,0,0,0,0,0,0,0,0,0,0],"sum_hessian":[1.0159087E2,9.342344E1,8.167432E0,4.456704E1,4.8856403E1,7.615845E0,3.6951195E1,5.493695E0,3.1457499E1,2.7178844E1,4.2786546E0,1.1015455E1,3.7840946E1,2.9616087E1,8.22486E0,2.4560873E1,5.055214E0,1.810584E1,9.073004E0,1.0379938E1,7.725902E0,1.6873287E1,7.687587E0,1.28690605E1,4.0042267E0,3.8390052E0,4.3284264E0,4.313321E0,6.066617E0,4.072955E0,4.1519055E0,6.7713766E0,4.2440786E0,4.7359123E0,4.3370914E0,5.415518E0,7.4535427E0,3.8577895E0,3.8681128E0,3.8803785E0,3.807208E0],"tree_param":{"num_deleted":"0","num_feature":"15","num_nodes":"41","size_leaf_vector":"1"}},{"base_weights":[-4.4819586E-2,-1.8518476E-1,1.906391E-1,4.739362E-1,-4.2253405E-1,1.2325286E-1,-5.018258E-1,-4.363722E-2,8.604295E-1,1.251242E0,-7.3329635E-2,6.958062E-1,-1.0204782E-1,7.8380436E-2,-9.0123653E-1,1.5625444E-1,-5.078947E-1,-1.062115E0,-0E0,-8.955381E-1,-3.1477952E-1,3.6004972E-1,-6.032855E-1,-1.3470933E0,-2.0246132E-1,-9.0252763E-1,-2.0143087E-1,5.2943957E-1,-1.2040055E-1,-4.760899E-1,2.5640684E-1,-1.291022E0,-4.1547674E-1,1.6433339E0,8.345037E-1,-3.391894E-1,1.0635322E-1,4.462703E-1,8.93049E-1],"categories":[],"categories_nodes":[],"categories_segments":[],"categories_sizes":[],"default_left":[0,0,0,0,0,0,0,0,0,0,0,0,0,0,0,0,0,0,0,0,0,0,0,0,0,0,0,0,0,0,0,0,0,0,0,0,0,0,0],"id":6,"left_children":[1,5,3,7,13,11,19,29,9,33,-1,37,15,-1,-1,27,17,-1,-1,23,21,-1,25,-1,-1,31,-1,-1,35,-1,-1,-1,-1,-1,-1,-1,-1,-1,-1],"loss_changes":[3.2223957E0,5.9980955E0,6.380101E0,5.0456653E0,2.831615E0,4.0574117E0,2.1087403E0,1.4663191E0,5.3114824E0,1.1772099E0,0E0,2.7788115E-1,2.4019341E0,0E0,0E0,1.4755485E0,2.508621E0,0E0,0E0,2.8569427E0,4.1674895E0,0E0,1.702466E0,0E0,0E0,1.3781924E0,0E0,0E0,4.262964E-1,0E0,0E0,0E0,0E0,0E0,0E0,0E0,0E0,0E0,0E0],"parents":[2147483647,0,0,2,2,1,1,3,3,8,8,5,5,4,4,12,12,16,16,6,6,20,20,19,19,22,22,15,15,7,7,25,25,9,9,28,28,11,11],"right_children":[2,6,4,8,14,12,20,30,10,34,-1,38,16,-1,-1,28,18,-1,-1,24,22,-1,26,-1,-1,32,-1,-1,36,-1,-1,-1,-1,-1,-1,-1,-1,-1,-1],"split_conditions":[7.2E-4,8.9009E-1,8.617E-2,-3.55378E-1,5E0,7.5E1,-5.57214E-1,4.886E1,6.5E1,5.455E1,-7.3329635E-2,6.8E1,3.22302E-1,7.8380436E-2,-9.0123653E-1,8E1,7.7792E-1,-1.062115E0,-0E0,8.4E1,6.7633E-2,3.6004972E-1,1E0,-1.3470933E0,-2.0246132E-1,5.6E-4,-2.0143087E-1,5.2943957E-1,-8.7965E-1,-4.760899E-1,2.5640684E-1,-1.291022E0,-4.1547674E-1,1.6433339E0,8.345037E-1,-3.391894E-1,1.0635322E-1,4.462703E-1,8.93049E-1],"split_indices":[9,7,9,11,0,6,11,5,4,5,0,6,11,0,0,6,8,0,0,6,11,0,13,0,0,9,0,0,11,0,0,0,0,0,0,0,0,0,0],"split_type":[0,0,0,0,0,0,0,0,0,0,0,0,0,0,0,0,0,0,0,0,0,0,0,0,0,0,0,0,0,0,0,0,0,0,0,0,0,0,0],"sum_hessian":[9.687677E1,6.0810318E1,3.6066456E1,2.4747595E1,1.131886E1,3.0852964E1,2.9957352E1,1.0663648E1,1.4083947E1,9.877042E0,4.2069054E0,8.568697E0,2.2284267E1,5.626365E0,5.6924953E0,1.3689023E1,8.595244E0,3.9550471E0,4.640197E0,9.229442E0,2.0727911E1,6.1558824E0,1.4572029E1,5.3903065E0,3.8391347E0,8.095316E0,6.4767127E0,5.75313E0,7.935893E0,4.333591E0,6.3300567E0,4.192255E0,3.9030607E0,4.593678E0,5.283364E0,4.0256157E0,3.9102774E0,4.2833714E0,4.2853255E0],"tree_param":{"num_deleted":"0","num_feature":"15","num_nodes":"39","size_leaf_vector":"1"}},{"base_weights":[-4.7452147E-3,-1.0752386E-1,4.4259897E-1,1.9737259E-2,-6.5703183E-1,-3.7770414E-1,6.685907E-1,1.3093365E0,2.2260933E-1,-4.2236406E-2,7.697497E-1,-9.850786E-3,-9.636241E-1,5.609376E-1,-9.846863E-2,-7.527671E-1,-2.782153E-2,8.3981043E-1,-1.0234474E-1,-5.424151E-1,-5.114307E-3,-1.8550082E-1,6.075887E-1,1.7928688E-1,-1.9578686E-1,-2.562433E-1,5.2240825E-1,1.3362894E0,-7.90995E-2,-1.0079373E0,4.130723E-1,-1.2583187E0,-5.292588E-1,-5.7729167E-1,-7.379387E-2,-5.652887E-1,2.028166E-1,-1.1216274E-1,4.844085E-1,-7.975381E-1,-2.0709512E-1],"categories":[],"categories_nodes":[],"categories_segments":[],"categories_sizes":[],"default_left":[0,0,0,0,0,0,0,0,0,0,0,0,0,0,0,0,0,0,0,0,0,0,0,0,0,0,0,0,0,0,0,0,0,0,0,0,0,0,0,0,0],"id":7,"left_children":[1,3,5,9,11,-1,7,-1,21,13,-1,-1,31,-1,15,-1,17,-1,19,39,23,-1,-1,25,33,29,27,-1,-1,-1,-1,-1,-1,-1,35,-1,37,-1,-1,-1,-1],"loss_changes":[4.636786E0,5.7713013E0,3.5754812E0,3.145013E0,3.047234E0,0E0,4.1257734E0,0E0,1.4878592E0,2.1116033E0,0E0,0E0,1.090353E0,0E0,2.6132464E0,0E0,3.363219E0,0E0,2.0429301E0,6.6178465E-1,1.4096618E0,0E0,0E0,3.0823538E0,8.89077E-1,4.7289186E0,5.693988E0,0E0,0E0,0E0,0E0,0E0,0E0,0E0,2.1371558E0,0E0,9.1693264E-1,0E0,0E0,0E0,0E0],"parents":[2147483647,0,0,1,1,2,2,6,6,3,3,4,4,9,9,14,14,16,16,18,18,8,8,20,20,23,23,26,26,25,25,12,12,24,24,34,34,36,36,19,19],"right_children":[2,4,6,10,12,-1,8,-1,22,14,-1,-1,32,-1,16,-1,18,-1,20,40,24,-1,-1,26,34,30,28,-1,-1,-1,-1,-1,-1,-1,36,-1,38,-1,-1,-1,-1],"split_conditions":[2.1353E-1,1.8164107E2,2.1087437E2,1.38844E0,-1.075753E0,-3.7770414E-1,2.1338257E2,1.3093365E0,-3.20366E-1,3.73E1,7.697497E-1,-9.850786E-3,5E0,5.609376E-1,-1.896601E0,-7.527671E-1,-1.407782E0,8.3981043E-1,4.364E1,5.5E-4,8.853E-1,-1.8550082E-1,6.075887E-1,6E-4,1.17495E0,5.26E1,5.14E1,1.3362894E0,-7.90995E-2,-1.0079373E0,4.130723E-1,-1.2583187E0,-5.292588E-1,-5.7729167E-1,-1.22538E-1,-5.652887E-1,5E0,-1.1216274E-1,4.844085E-1,-7.975381E-1,-2.0709512E-1],"split_indices":[10,7,7,7,11,0,7,0,11,5,0,0,0,0,11,0,11,0,5,9,7,0,0,10,7,5,5,0,0,0,0,0,0,0,11,0,0,0,0,0,0],"split_type":[0,0,0,0,0,0,0,0,0,0,0,0,0,0,0,0,0,0,0,0,0,0,0,0,0,0,0,0,0,0,0,0,0,0,0,0,0,0,0,0,0],"sum_hessian":[1.00437004E2,8.191136E1,1.8525642E1,6.670453E1,1.5206831E1,3.9303963E0,1.4595245E1,5.7225547E0,8.872691E0,6.184329E1,4.861243E0,5.018593E0,1.0188238E1,4.998625E0,5.6844666E1,5.2149906E0,5.1629673E1,3.8072622E0,4.782241E1,8.349893E0,3.947252E1,4.347732E0,4.5249596E0,2.0000217E1,1.9472303E1,8.810941E0,1.1189277E1,4.6175113E0,6.571765E0,4.0975914E0,4.7133493E0,5.6881866E0,4.500052E0,4.3873544E0,1.5084948E1,5.3550406E0,9.729908E0,4.6315966E0,5.098311E0,4.4565244E0,3.8933682E0],"tree_param":{"num_deleted":"0","num_feature":"15","num_nodes":"41","size_leaf_vector":"1"}},{"base_weights":[-4.0752094E-2,5.7172835E-1,-8.7997496E-2,6.7578334E-1,-1.2948482E-1,1.16068564E-1,-2.4936555E-1,-1.4725964E0,-1.3889685E-1,-2.341546E-2,8.436663E-1,-1.5114845E-2,-4.8628223E-1,-1.1480252E0,2.9920088E-3,-1.4174019E-1,5.385239E-1,-1.9715955E-2,-6.0898113E-1,-2.1213973E-1,6.1627924E-1,-1.6866747E-3,-9.475759E-1,-6.93237E-1,2.6501065E-1,8.538349E-1,-3.3475494E-1,3.432633E-1,-2.2441098E-1,4.1740578E-1,-3.8250643E-1,2.732975E-2,-4.685431E-1,-9.2825156E-1,1.108182E-2,3.9122993E-1,-3.3306634E-1,6.3634753E-1,-0E0],"categories":[],"categories_nodes":[],"categories_segments":[],"categories_sizes":[],"default_left":[0,0,0,0,0,0,0,0,0,0,0,0,0,0,0,0,0,0,0,0,0,0,0,0,0,0,0,0,0,0,0,0,0,0,0,0,0,0,0],"id":8,"left_children":[1,-1,3,-1,5,9,7,-1,11,27,-1,15,13,-1,29,17,-1,19,-1,21,-1,23,-1,-1,25,-1,-1,37,31,-1,-1,35,33,-1,-1,-1,-1,-1,-1],"loss_changes":[2.809472E0,0E0,2.8753731E0,0E0,2.5448349E0,2.9063401E0,7.7267914E0,0E0,2.2854683E0,1.7927054E0,0E0,2.8050325E0,4.564177E0,0E0,1.3792034E0,1.8433871E0,0E0,3.2463725E0,0E0,3.1375148E0,0E0,3.0616577E0,0E0,0E0,4.3056655E0,0E0,0E0,8.565247E-1,9.8550016E-1,0E0,0E0,1.0895629E0,1.8104112E0,0E0,0E0,0E0,0E0,0E0,0E0],"parents":[2147483647,0,0,2,2,4,4,6,6,5,5,8,8,12,12,11,11,15,15,17,17,19,19,21,21,24,24,9,9,14,14,28,28,32,32,31,31,27,27],"right_children":[2,-1,4,-1,6,10,8,-1,12,28,-1,16,14,-1,30,18,-1,20,-1,22,-1,24,-1,-1,26,-1,-1,38,32,-1,-1,36,34,-1,-1,-1,-1,-1,-1],"split_conditions":[-1.974359E0,5.7172835E-1,7.7399E-1,6.7578334E-1,4.503E1,8.36653E-1,4.718E1,-1.4725964E0,6.141E1,7.6E1,8.436663E-1,5.882E1,6.397E1,-1.1480252E0,6.666E1,2.1877E-1,5.385239E-1,4.15E-3,-6.0898113E-1,8.6E1,6.1627924E-1,8.5481E-1,-9.475759E-1,-6.93237E-1,1.27602E-1,8.538349E-1,-3.3475494E-1,1.82E-3,4E0,4.1740578E-1,-3.8250643E-1,1.35941E0,1.18808E0,-9.2825156E-1,1.108182E-2,3.9122993E-1,-3.3306634E-1,6.3634753E-1,-0E0],"split_indices":[11,0,7,0,5,11,5,0,5,6,0,5,5,0,5,10,0,10,0,6,0,7,0,0,11,0,0,10,3,0,0,7,7,0,0,0,0,0,0],"split_type":[0,0,0,0,0,0,0,0,0,0,0,0,0,0,0,0,0,0,0,0,0,0,0,0,0,0,0,0,0,0,0,0,0,0,0,0,0,0,0],"sum_hessian":[9.673001E1,6.643036E0,9.0086975E1,4.3670673E0,8.571991E1,2.804636E1,5.767355E1,4.445781E0,5.3227768E1,2.3748672E1,4.2976885E0,3.9537613E1,1.3690153E1,5.6701684E0,8.019985E0,3.2403355E1,7.1342583E0,2.5992113E1,6.411243E0,2.0144123E1,5.8479905E0,1.5928655E1,4.215468E0,4.3275385E0,1.1601116E1,5.812803E0,5.788314E0,8.282841E0,1.5465831E1,3.8882153E0,4.1317697E0,7.6900826E0,7.7757483E0,3.855352E0,3.9203963E0,3.8524857E0,3.837597E0,4.3100896E0,3.9727516E0],"tree_param":{"num_deleted":"0","num_feature":"15","num_nodes":"39","size_leaf_vector":"1"}},{"base_weights":[-4.4200815E-2,-4.557743E-1,6.458431E-2,-1.2872012E-1,-1.2636613E0,2.0696545E-1,-2.0149383E-1,-6.3632226E-1,2.8833836E-1,2.4241479E-1,-6.387604E-1,1.8514708E-1,-4.09617E-1,-3.5446373E-1,8.668568E-1,-1.8570869E-1,-1.0140629E0,-7.076204E-1,1.4237814E-1,1.7012355E-1,6.6377836E-1,-3.8140375E-2,6.415925E-1,1.0462543E0,1.875485E-1,-2.1654199E-1,5.050537E-1,-4.0121183E-1,7.238371E-2,2.4143745E-1,-4.2925647E-1,-1.680541E-1,6.5127707E-1,5.386532E-1,-9.9832125E-2,3.3771974E-1,9.052339E-1],"categories":[],"categories_nodes":[],"categories_segments":[],"categories_sizes":[],"default_left":[0,0,0,0,0,0,0,0,0,0,0,0,0,0,0,0,0,0,0,0,0,0,0,0,0,0,0,0,0,0,0,0,0,0,0,0,0],"id":9,"left_children":[1,3,5,9,-1,7,11,-1,19,33,-1,13,15,-1,-1,17,-1,-1,25,21,35,27,23,-1,-1,-1,-1,-1,29,31,-1,-1,-1,-1,-1,-1,-1],"loss_changes":[4.1712804E0,5.057185E0,2.7991E0,2.7511313E0,0E0,3.3485098E0,2.0991635E0,0E0,1.9008965E0,8.8263625E-1,0E0,3.4781933E0,2.1912072E0,0E0,0E0,2.2230122E0,0E0,0E0,1.0858521E0,3.3658376E0,6.913924E-1,9.750892E-1,1.8320422E0,0E0,0E0,0E0,0E0,0E0,1.5933807E0,2.406281E0,0E0,0E0,0E0,0E0,0E0,0E0,0E0],"parents":[2147483647,0,0,1,1,2,2,5,5,3,3,6,6,11,11,12,12,15,15,8,8,19,19,22,22,18,18,21,21,28,28,29,29,9,9,20,20],"right_children":[2,4,6,10,-1,8,12,-1,20,34,-1,14,16,-1,-1,18,-1,-1,26,22,36,28,24,-1,-1,-1,-1,-1,30,32,-1,-1,-1,-1,-1,-1,-1],"split_conditions":[7.2E1,6.9E1,6E0,5.06E1,-1.2636613E0,-2.092527E0,-6.60786E-1,-6.3632226E-1,5.7E1,3E0,-6.387604E-1,-1.327115E0,1.8605E-1,-3.5446373E-1,8.668568E-1,2.2754E-2,-1.0140629E0,-7.076204E-1,1.91E-3,5.899E1,3E0,4.096E1,6.316E1,1.0462543E0,1.875485E-1,-2.1654199E-1,5.050537E-1,-4.0121183E-1,1.4054E-1,1.18164E0,-4.2925647E-1,-1.680541E-1,6.5127707E-1,5.386532E-1,-9.9832125E-2,3.3771974E-1,9.052339E-1],"split_indices":[6,6,0,5,0,11,11,0,4,12,0,11,10,0,0,11,0,0,10,5,12,5,5,0,0,0,0,0,10,7,0,0,0,0,0,0,0],"split_type":[0,0,0,0,0,0,0,0,0,0,0,0,0,0,0,0,0,0,0,0,0,0,0,0,0,0,0,0,0,0,0,0,0,0,0,0,0],"sum_hessian":[9.241508E1,1.9171898E1,7.324318E1,1.3922588E1,5.249309E0,4.7825047E1,2.5418137E1,3.996004E0,4.382904E1,8.118827E0,5.803762E0,8.8587265E0,1.655941E1,5.002953E0,3.8557734E0,1.2407004E1,4.1524053E0,4.6865616E0,7.720443E0,3.3726078E1,1.0102962E1,2.3544744E1,1.0181335E1,5.141162E0,5.040174E0,3.90268E0,3.8177629E0,5.367938E0,1.8176805E1,1.3755073E1,4.4217334E0,6.935603E0,6.8194695E0,4.302744E0,3.816083E0,4.6580114E0,5.44495E0],"tree_param":{"num_deleted":"0","num_feature":"15","num_nodes":"37","size_leaf_vector":"1"}},{"base_weights":[-9.006729E-3,5.8994436E-1,-5.2474204E-2,8.172849E-2,-2.1058501E-1,8.3578074E-1,-3.655979E-1,1.9907208E-1,-3.8694555E-1,3.980631E-1,-1.1114783E0,-1.5820272E-1,5.838479E-1,-4.7769833E-1,2.4584188E-1,-1.242957E0,-3.133312E-1,9.2991996E-1,2.5961417E-1,-6.242152E-1,4.6356402E-2,4.5531064E-1,-4.6625793E-1,-5.561377E-1,-4.8261117E-2,-1.8015596E-1,-1.1304253E0,-6.89271E-1,3.2902902E-1,2.4985695E-1,-5.0038165E-1,-8.221502E-2,6.4016837E-1,5.282907E-1,1.2074934E0,3.2156795E-1,5.4914635E-1],"categories":[],"categories_nodes":[],"categories_segments":[],"categories_sizes":[],"default_left":[0,0,0,0,0,0,0,0,0,0,0,0,0,0,0,0,0,0,0,0,0,0,0,0,0,0,0,0,0,0,0,0,0,0,0,0,0],"id":10,"left_children":[1,-1,3,7,5,-1,13,11,9,-1,-1,19,17,15,-1,-1,23,33,31,-1,21,35,-1,25,29,27,-1,-1,-1,-1,-1,-1,-1,-1,-1,-1,-1],"loss_changes":[2.3912585E0,0E0,1.8371471E0,2.5878932E0,6.525231E0,0E0,2.4306746E0,5.21161E0,5.50745E0,0E0,0E0,1.9037647E0,1.9370346E0,3.5597339E0,0E0,0E0,1.5705743E0,7.2178173E-1,1.3153634E0,0E0,2.9856904E0,2.1406054E-2,0E0,2.6771066E0,1.695041E0,2.1944797E0,0E0,0E0,0E0,0E0,0E0,0E0,0E0,0E0,0E0,0E0,0E0],"parents":[2147483647,0,0,2,2,4,4,3,3,8,8,7,7,6,6,13,13,12,12,11,11,20,20,16,16,23,23,25,25,24,24,18,18,17,17,21,21],"right_children":[2,-1,4,8,6,-1,14,12,10,-1,-1,20,18,16,-1,-1,24,34,32,-1,22,36,-1,26,30,28,-1,-1,-1,-1,-1,-1,-1,-1,-1,-1,-1],"split_conditions":[6.3E1,5.8994436E-1,1.35548E0,1.93E-3,-1.560606E0,8.3578074E-1,4.4193E-1,5E0,8.1E1,3.980631E-1,-1.1114783E0,-5.20584E-1,-2.7812E-1,7.5E1,2.4584188E-1,-1.242957E0,1E0,8.634E-1,3E-4,-6.242152E-1,6.3E-4,5.93377E-1,-4.6625793E-1,5.556E1,3.83838E-1,4.439E1,-1.1304253E0,-6.89271E-1,3.2902902E-1,2.4985695E-1,-5.0038165E-1,-8.221502E-2,6.4016837E-1,5.282907E-1,1.2074934E0,3.2156795E-1,5.4914635E-1],"split_indices":[6,0,8,10,11,0,10,0,6,0,0,11,11,6,0,0,13,8,9,0,10,11,0,5,11,5,0,0,0,0,0,0,0,0,0,0,0],"split_type":[0,0,0,0,0,0,0,0,0,0,0,0,0,0,0,0,0,0,0,0,0,0,0,0,0,0,0,0,0,0,0,0,0,0,0,0,0],"sum_hessian":[9.1766335E1,5.906907E0,8.585942E1,4.6423676E1,3.943575E1,4.8928227E0,3.4542927E1,3.731569E1,9.107985E0,4.4185123E0,4.6894727E0,1.9403984E1,1.7911705E1,2.9286211E1,5.256715E0,4.795468E0,2.4490744E1,8.347621E0,9.564085E0,5.7713094E0,1.3632675E1,7.6325626E0,6.000113E0,1.2552586E1,1.1938157E1,7.8568034E0,4.695782E0,3.9026973E0,3.9541063E0,7.2385893E0,4.699568E0,5.12471E0,4.439375E0,3.8132577E0,4.534363E0,3.8252988E0,3.8072639E0],"tree_param":{"num_deleted":"0","num_feature":"15","num_nodes":"37","size_leaf_vector":"1"}},{"base_weights":[-6.496252E-3,-4.8322767E-1,1.7400703E-1,-1.1695893E0,-2.2452226E-1,-5.69273E-2,4.2766395E-1,5.694365E-1,-4.9602848E-1,3.903893E-1,1.2000422E0,1.2083354E0,1.6069451E-1,-4.4058585E-3,-7.466881E-1,3.3552915E-1,-1.9340852E-1,-4.3906164E-1,1.2299789E-1,-1.7242767E-1,-8.665628E-1,-7.048851E-2,5.0493544E-1,3.945532E-1,-3.8195577E-1,4.1344354E-1,-2.1934122E-1,1.31346E-1,-5.38447E-1,3.5471082E-1,-2.2361103E-1,-6.33447E-1,1.6160187E-1,4.3265682E-1,1.9322553E-1],"categories":[],"categories_nodes":[],"categories_segments":[],"categories_sizes":[],"default_left":[0,0,0,0,0,0,0,0,0,0,0,0,0,0,0,0,0,0,0,0,0,0,0,0,0,0,0,0,0,0,0,0,0,0,0],"id":11,"left_children":[1,3,5,-1,13,15,7,9,-1,11,-1,-1,21,29,-1,33,17,19,25,27,-1,23,-1,-1,-1,-1,-1,-1,-1,-1,31,-1,-1,-1,-1],"loss_changes":[7.552234E0,4.163365E0,3.7406106E0,0E0,2.0376089E0,1.8087466E0,4.0662084E0,2.805543E0,0E0,3.8720422E0,0E0,0E0,1.3659037E0,1.0398283E0,0E0,7.713503E-2,1.9749976E0,1.5481813E0,1.1416777E0,1.0545716E0,0E0,1.5390036E0,0E0,0E0,0E0,0E0,0E0,0E0,0E0,0E0,1.3510686E0,0E0,0E0,0E0,0E0],"parents":[2147483647,0,0,1,1,2,2,6,6,7,7,9,9,4,4,5,5,16,16,17,17,12,12,21,21,18,18,19,19,13,13,30,30,15,15],"right_children":[2,4,6,-1,14,16,8,10,-1,12,-1,-1,22,30,-1,34,18,20,26,28,-1,24,-1,-1,-1,-1,-1,-1,-1,-1,32,-1,-1,-1,-1],"split_conditions":[-8.77888E-1,8.717E-1,5.9E-4,-1.1695893E0,6E0,-3.1532E-2,8.873E-2,2.1304884E2,-4.9602848E-1,6.6E-4,1.2000422E0,1.2083354E0,8.2E1,1.19898E0,-7.466881E-1,8.5899E-1,1.06E-3,1E0,1.96E-3,7.7862E-1,-8.665628E-1,2E0,5.0493544E-1,3.945532E-1,-3.8195577E-1,4.1344354E-1,-2.1934122E-1,1.31346E-1,-5.38447E-1,3.5471082E-1,1.3578E-1,-6.33447E-1,1.6160187E-1,4.3265682E-1,1.9322553E-1],"split_indices":[11,8,9,0,0,11,9,8,0,9,0,0,6,8,0,8,10,13,10,8,0,12,0,0,0,0,0,0,0,0,10,0,0,0,0],"split_type":[0,0,0,0,0,0,0,0,0,0,0,0,0,0,0,0,0,0,0,0,0,0,0,0,0,0,0,0,0,0,0,0,0,0,0],"sum_hessian":[8.706232E1,2.3813944E1,6.3248375E1,6.1964E0,1.7617544E1,3.3172062E1,3.0076313E1,2.620175E1,3.8745642E0,2.0825203E1,5.376546E0,4.2553573E0,1.6569845E1,1.2646645E1,4.970899E0,8.391732E0,2.478033E1,1.393383E1,1.0846499E1,8.8845825E0,5.0492477E0,1.0008111E1,6.561734E0,3.9455388E0,6.0625725E0,5.878491E0,4.968009E0,4.9193587E0,3.9652238E0,4.673595E0,7.9730496E0,3.803768E0,4.1692815E0,4.501468E0,3.8902643E0],"tree_param":{"num_deleted":"0","num_feature":"15","num_nodes":"35","size_leaf_vector":"1"}},{"base_weights":[-4.1267045E-2,-8.0104224E-2,6.763813E-1,8.748808E-2,-2.2309253E-1,-3.652646E-1,3.0096978E-1,3.9796807E-2,-4.07141E-1,-7.0683235E-1,2.5256494E-1,-1.338638E-1,-7.884042E-1,-5.307609E-1,5.648366E-1,-2.4336584E-1,6.081382E-1,-3.8475886E-2,-7.9300714E-1,6.695322E-2,5.6494784E-1,3.7501296E-1,-6.554865E-1,-3.7332985E-1,-1.0732242E0,-2.171696E-1,-8.836286E-1,9.535321E-1,2.4090627E-1,7.8269845E-1,1.7367096E-1,1.2094001E-1,6.7774695E-1],"categories":[],"categories_nodes":[],"categories_segments":[],"categories_sizes":[],"default_left":[0,0,0,0,0,0,0,0,0,0,0,0,0,0,0,0,0,0,0,0,0,0,0,0,0,0,0,0,0,0,0,0,0],"id":12,"left_children":[1,3,-1,5,7,17,19,9,11,-1,15,13,23,25,-1,-1,27,-1,-1,21,29,31,-1,-1,-1,-1,-1,-1,-1,-1,-1,-1,-1],"loss_changes":[2.3730054E0,1.9530168E0,0E0,3.652342E0,2.141024E0,1.6584063E0,1.5562177E0,2.949375E0,2.6438365E0,0E0,2.6119757E0,4.3923364E0,1.1050711E0,1.0256641E0,0E0,0E0,9.828439E-1,0E0,0E0,3.1838894E0,9.510362E-1,7.247932E-1,0E0,0E0,0E0,0E0,0E0,0E0,0E0,0E0,0E0,0E0,0E0],"parents":[2147483647,0,0,1,1,3,3,4,4,7,7,8,8,11,11,10,10,5,5,6,6,19,19,12,12,13,13,16,16,20,20,21,21],"right_children":[2,4,-1,6,8,18,20,10,12,-1,16,14,24,26,-1,-1,28,-1,-1,22,30,32,-1,-1,-1,-1,-1,-1,-1,-1,-1,-1,-1],"split_conditions":[6.666E1,4.84E1,6.763813E-1,3.948E1,5.2E-4,1E0,1.62E-3,7.7574E-1,5.719E1,-7.0683235E-1,5.525E1,5.4E1,8E1,2E0,5.648366E-1,-2.4336584E-1,6.012E1,-3.8475886E-2,-7.9300714E-1,1.03E-3,6.031E-2,4.481E1,-6.554865E-1,-3.7332985E-1,-1.0732242E0,-2.171696E-1,-8.836286E-1,9.535321E-1,2.4090627E-1,7.8269845E-1,1.7367096E-1,1.2094001E-1,6.7774695E-1],"split_indices":[5,5,0,5,9,13,10,7,5,0,5,5,6,3,0,0,5,0,0,10,9,5,0,0,0,0,0,0,0,0,0,0,0],"split_type":[0,0,0,0,0,0,0,0,0,0,0,0,0,0,0,0,0,0,0,0,0,0,0,0,0,0,0,0,0,0,0,0,0],"sum_hessian":[8.485118E1,8.07882E1,4.0629826E0,3.715748E1,4.3630722E1,1.1794847E1,2.536263E1,1.8001917E1,2.5628805E1,3.80656E0,1.4195356E1,1.5210591E1,1.0418214E1,9.772623E0,5.437968E0,5.9345937E0,8.260763E0,6.911488E0,4.883358E0,1.3702718E1,1.1659914E1,9.73615E0,3.9665675E0,4.565496E0,5.852718E0,5.476316E0,4.296307E0,3.967554E0,4.293209E0,7.2495704E0,4.410344E0,5.5752234E0,4.160927E0],"tree_param":{"num_deleted":"0","num_feature":"15","num_nodes":"33","size_leaf_vector":"1"}},{"base_weights":[1.0529329E-2,5.316971E-2,-7.1425587E-1,-7.7616334E-1,1.1507419E-1,4.2571E-2,7.1874815E-1,-1.6052496E-1,2.3536938E-1,7.862298E-2,8.1355375E-1,4.5441273E-1,-2.7766788E-1,-4.678013E-1,3.2023195E-2,-1.4507876E-1,-1.0145708E0,-5.136675E-1,4.815999E-1,-4.5283175E-1,3.9341033E-1,1.683219E-1,-3.934129E-1,-5.112022E-2,9.089096E-1,2.759102E-1,-5.5077267E-1,8.600289E-1,-1.0965564E-1],"categories":[],"categories_nodes":[],"categories_segments":[],"categories_sizes":[],"default_left":[0,0,0,0,0,0,0,0,0,0,0,0,0,0,0,0,0,0,0,0,0,0,0,0,0,0,0,0,0],"id":13,"left_children":[1,3,-1,-1,5,7,-1,11,9,21,-1,-1,13,15,19,17,-1,-1,-1,-1,-1,23,-1,25,-1,27,-1,-1,-1],"loss_changes":[2.5313382E0,4.007442E0,0E0,0E0,3.1546216E0,2.5720556E0,0E0,2.333358E0,3.0108333E0,1.1526388E0,0E0,0E0,1.609453E0,2.8930705E0,1.8951006E0,2.6105793E0,0E0,0E0,0E0,0E0,0E0,3.7543619E0,0E0,2.9783149E0,0E0,2.523875E0,0E0,0E0,0E0],"parents":[2147483647,0,0,1,1,4,4,5,5,8,8,7,7,12,12,13,13,15,15,14,14,9,9,21,21,23,23,25,25],"right_children":[2,4,-1,-1,6,8,-1,12,10,22,-1,-1,14,16,20,18,-1,-1,-1,-1,-1,24,-1,26,-1,28,-1,-1,-1],"split_conditions":[2.574713E0,7.7509E-1,-7.1425587E-1,-7.7616334E-1,1.402168E0,3E0,7.1874815E-1,3.964E1,5.14854E-1,4.1082E-1,8.1355375E-1,4.5441273E-1,6.7E-4,5.088E1,4.958E1,-2.73101E-1,-1.0145708E0,-5.136675E-1,4.815999E-1,-4.5283175E-1,3.9341033E-1,2.1078E-1,-3.934129E-1,-4.11317E-1,9.089096E-1,1.35855E0,-5.5077267E-1,8.600289E-1,-1.0965564E-1],"split_indices":[11,7,0,0,11,12,0,5,11,10,0,0,9,5,5,11,0,0,0,0,0,10,0,11,0,7,0,0,0],"split_type":[0,0,0,0,0,0,0,0,0,0,0,0,0,0,0,0,0,0,0,0,0,0,0,0,0,0,0,0,0],"sum_hessian":[8.183387E1,7.758943E1,4.2444377E0,5.1142917E0,7.247514E1,6.5035904E1,7.43924E0,3.1625582E1,3.341032E1,2.6594297E1,6.8160243E0,4.882095E0,2.6743486E1,1.6530685E1,1.0212802E1,1.0669166E1,5.8615193E0,6.7807674E0,3.8883984E0,4.295207E0,5.917595E0,2.256207E1,4.0322256E0,1.7593513E1,4.9685583E0,1.0681661E1,6.911852E0,4.1277933E0,6.5538673E0],"tree_param":{"num_deleted":"0","num_feature":"15","num_nodes":"29","size_leaf_vector":"1"}}]},"name":"gbtree"},"learner_model_param":{"base_score":"4.402863E-1","boost_from_average":"1","num_class":"0","num_feature":"15","num_target":"1"},"objective":{"name":"binary:logistic","reg_loss_param":{"scale_pos_weight":"1"}}},"version":[2,1,4]}