{"learner":{"attributes":{},"feature_names":["category","market_type","indicator","trend_dir","score","rsi","body","ema50","ema200","atr","dist","relative_momentum","symbol_enc","side_enc","raw_market_type_enc"],"feature_types":["float","float","float","float","float","float","float","float","float","float","float","float","float","float","float"],"gradient_booster":{"model":{"gbtree_model_param":{"num_parallel_tree":"1","num_trees":"45"},"iteration_indptr":[0,1,2,3,4,5,6,7,8,9,10,11,12,13,14,15,16,17,18,19,20,21,22,23,24,25,26,27,28,29,30,31,32,33,34,35,36,37,38,39,40,41,42,43,44,45],"tree_info":[0,0,0,0,0,0,0,0,0,0,0,0,0,0,0,0,0,0,0,0,0,0,0,0,0,0,0,0,0,0,0,0,0,0,0,0,0,0,0,0,0,0,0,0,0],"trees":[{"base_weights":[2.327854E-2,1.8544278E-1,-2.8755376E-1,2.867716E-1,-4.828937E-1,3.1157464E-1,-2.5547796E-1,-2.719688E-1,4.2632025E-1,7.0189166E-1,1.8477404E-1,1.2524883E0,3.1249574E-1,-6.062514E-1,8.652427E-2,3.6060113E-1,-2.4084337E-1,1.5945424E-1,6.2601477E-1,-6.450191E-1,-2.8907892E-1,-4.6879235E-1,-8.414885E-1],"categories":[],"categories_nodes":[],"categories_segments":[],"categories_sizes":[],"default_left":[0,0,0,0,0,0,0,0,0,0,0,0,0,0,0,0,0,0,0,0,0,0,0],"id":0,"left_children":[1,5,3,-1,19,7,13,-1,9,11,15,-1,-1,-1,-1,17,-1,-1,-1,21,-1,-1,-1],"loss_changes":[8.5441065E0,6.202668E0,6.5226235E0,0E0,1.3351984E0,5.8137455E0,2.9848049E0,0E0,4.802109E0,7.203827E0,2.9021382E0,0E0,0E0,0E0,0E0,1.4429698E0,0E0,0E0,0E0,7.740269E-1,0E0,0E0,0E0],"parents":[2147483647,0,0,2,2,1,1,5,5,8,8,9,9,6,6,10,10,15,15,4,4,19,19],"right_children":[2,6,4,-1,20,8,14,-1,10,12,16,-1,-1,-1,-1,18,-1,-1,-1,22,-1,-1,-1],"split_conditions":[4E0,1.013699E0,7.7714E-1,2.867716E-1,1.34913E0,4E0,5.5E1,-2.719688E-1,1E0,1.18846E0,8.5E1,1.2524883E0,3.1249574E-1,-6.062514E-1,8.652427E-2,1.8452602E2,-2.4084337E-1,1.5945424E-1,6.2601477E-1,1.33645E0,-2.8907892E-1,-4.6879235E-1,-8.414885E-1],"split_indices":[12,11,8,0,8,0,4,0,13,8,6,0,0,0,0,8,0,0,0,8,0,0,0],"split_type":[0,0,0,0,0,0,0,0,0,0,0,0,0,0,0,0,0,0,0,0,0,0,0],"sum_hessian":[1.6953403E2,1.1147107E2,5.8062954E1,1.4699482E1,4.3363472E1,8.6726944E1,2.4744127E1,1.4209499E1,7.251744E1,3.3808807E1,3.8708633E1,1.3964508E1,1.9844301E1,1.2249568E1,1.2494559E1,2.7439034E1,1.1269603E1,1.5679447E1,1.1759585E1,2.351917E1,1.9844301E1,1.2494559E1,1.1024611E1],"tree_param":{"num_deleted":"0","num_feature":"15","num_nodes":"23","size_leaf_vector":"1"}},{"base_weights":[-2.2218412E-1,-4.8508126E-1,5.7535875E-3,-1.8272762E-1,6.274905E-1,-7.88066E-1,-1.9371365E-1,-4.143447E-1,-1.1926901E0,1.04921475E-1,-3.6874607E-1,8.244673E-2,-6.1269E-1,4.7329476E-1,-2.779549E-1,-9.135522E-1,-2.1228105E-1,8.3039396E-2,-4.4370037E-1],"categories":[],"categories_nodes":[],"categories_segments":[],"categories_sizes":[],"default_left":[0,0,0,0,0,0,0,0,0,0,0,0,0,0,0,0,0,0,0],"id":1,"left_children":[1,5,3,9,-1,7,17,-1,-1,13,11,-1,15,-1,-1,-1,-1,-1,-1],"loss_changes":[9.860551E0,6.7132587E0,1.0323151E1,3.61877E0,0E0,5.6036644E0,2.7080693E0,0E0,0E0,3.7384863E0,4.5325665E0,0E0,3.1811008E0,0E0,0E0,0E0,0E0,0E0,0E0],"parents":[2147483647,0,0,2,2,1,1,5,5,3,3,10,10,9,9,12,12,6,6],"right_children":[2,6,4,10,-1,8,18,-1,-1,14,12,-1,16,-1,-1,-1,-1,-1,-1],"split_conditions":[1.19586E0,1E0,8.6E1,7.133E-2,6.274905E-1,8.6668E-1,1.16E-3,-4.143447E-1,-1.1926901E0,-1.3273E-1,7.3E1,8.244673E-2,5.082E1,4.7329476E-1,-2.779549E-1,-9.135522E-1,-2.1228105E-1,8.3039396E-2,-4.4370037E-1],"split_indices":[8,13,6,10,0,7,10,0,0,11,6,0,5,0,0,0,0,0,0],"split_type":[0,0,0,0,0,0,0,0,0,0,0,0,0,0,0,0,0,0,0],"sum_hessian":[1.6431967E2,7.635644E1,8.796324E1,6.747397E1,2.0489267E1,3.7375355E1,3.8981083E1,1.9478329E1,1.7897024E1,2.6443312E1,4.103066E1,1.4362888E1,2.666777E1,1.35114355E1,1.2931876E1,1.5178344E1,1.1489426E1,1.845279E1,2.0528296E1],"tree_param":{"num_deleted":"0","num_feature":"15","num_nodes":"19","size_leaf_vector":"1"}},{"base_weights":[1.0436434E-1,-7.0598304E-2,6.027662E-1,-6.7817575E-1,3.926223E-2,2.7773136E-1,-1.5049927E-1,1.0468649E0,-4.2104658E-2,3.0917966E-1,9.481792E-1,3.7969284E-2,-5.282129E-1,-4.6447924E-1,3.7464884E-1,-3.015954E-1,2.3897493E-1],"categories":[],"categories_nodes":[],"categories_segments":[],"categories_sizes":[],"default_left":[0,0,0,0,0,0,0,0,0,0,0,0,0,0,0,0,0],"id":2,"left_children":[1,3,9,-1,5,7,11,-1,15,-1,-1,13,-1,-1,-1,-1,-1],"loss_changes":[1.3285842E1,7.5345426E0,3.9762497E0,0E0,4.318546E0,1.0437879E1,3.7893035E0,0E0,2.181771E0,0E0,0E0,5.979523E0,0E0,0E0,0E0,0E0,0E0],"parents":[2147483647,0,0,1,1,4,4,5,5,2,2,6,6,11,11,8,8],"right_children":[2,4,10,-1,6,8,12,-1,16,-1,-1,14,-1,-1,-1,-1,-1],"split_conditions":[8.08279E-1,3.757E1,5E0,-6.7817575E-1,1.33709E0,4.588E1,2.1604E-1,1.0468649E0,8.8418E-1,3.0917966E-1,9.481792E-1,5.7E-4,-5.282129E-1,-4.6447924E-1,3.7464884E-1,-3.015954E-1,2.3897493E-1],"split_indices":[11,5,0,0,8,5,10,0,7,0,0,9,0,0,0,0,0],"split_type":[0,0,0,0,0,0,0,0,0,0,0,0,0,0,0,0,0],"sum_hessian":[1.5217245E2,1.1260102E2,3.9571438E1,1.7269878E1,9.533115E1,4.230467E1,5.3026474E1,1.2441238E1,2.986343E1,2.1446379E1,1.812506E1,3.5335194E1,1.7691278E1,1.4143045E1,2.119215E1,1.5577736E1,1.4285694E1],"tree_param":{"num_deleted":"0","num_feature":"15","num_nodes":"17","size_leaf_vector":"1"}},{"base_weights":[-6.65145E-2,8.433216E-1,-1.7910582E-1,-7.131601E-1,-6.371253E-2,1.4592548E-1,-7.6713634E-1,-1.2734138E0,-1.3536431E-1,-1.2555169E-1,3.9840913E-1,7.4610114E-1,7.989643E-2,-2.676191E-1,2.5893015E-1,3.7310827E-1,-2.1668133E-1,-5.1047176E-1,-1.0558755E0,-4.878604E-1,-1.3316106E-2],"categories":[],"categories_nodes":[],"categories_segments":[],"categories_sizes":[],"default_left":[0,0,0,0,0,0,0,0,0,0,0,0,0,0,0,0,0,0,0,0,0],"id":3,"left_children":[1,-1,3,7,5,9,17,-1,-1,13,11,-1,15,19,-1,-1,-1,-1,-1,-1,-1],"loss_changes":[1.5421721E1,0E0,8.245056E0,7.6610594E0,1.6293196E1,5.8347044E0,1.8306704E0,0E0,0E0,2.2363315E0,4.860509E0,0E0,2.0115333E0,1.6630821E0,0E0,0E0,0E0,0E0,0E0,0E0,0E0],"parents":[2147483647,0,0,2,2,4,4,3,3,5,5,10,10,9,9,12,12,6,6,13,13],"right_children":[2,-1,4,8,6,10,18,-1,-1,14,12,-1,16,20,-1,-1,-1,-1,-1,-1,-1],"split_conditions":[3.799E1,8.433216E-1,4.391E1,-5.01493E-1,1.378894E0,3E0,5.7E1,-1.2734138E0,-1.3536431E-1,6.5E1,1.35406E0,7.4610114E-1,-1.74455E-1,-6.1538E-2,2.5893015E-1,3.7310827E-1,-2.1668133E-1,-5.1047176E-1,-1.0558755E0,-4.878604E-1,-1.3316106E-2],"split_indices":[5,0,5,11,11,12,4,0,0,4,7,0,11,11,0,0,0,0,0,0,0],"split_type":[0,0,0,0,0,0,0,0,0,0,0,0,0,0,0,0,0,0,0,0,0],"sum_hessian":[1.5068784E2,1.655805E1,1.3412979E2,2.377819E1,1.103516E2,8.499331E1,2.5358295E1,1.204048E1,1.1737711E1,4.090756E1,4.408575E1,2.1028248E1,2.30575E1,2.9924799E1,1.09827585E1,1.163884E1,1.1418661E1,1.3493804E1,1.1864491E1,1.5972722E1,1.3952077E1],"tree_param":{"num_deleted":"0","num_feature":"15","num_nodes":"21","size_leaf_vector":"1"}},{"base_weights":[2.6146038E-2,-7.1962297E-1,1.2293269E-1,9.3041825E-1,1.3015034E-2,-6.9282836E-1,1.0903457E-1,-1.11675754E-1,3.1235945E-1,4.720113E-1,-2.7138293E-1,2.0576365E-1,-3.605087E-1,2.319486E-1,8.545265E-1,-2.8390566E-2,-6.457405E-1,5.413867E-1,-9.0203166E-2],"categories":[],"categories_nodes":[],"categories_segments":[],"categories_sizes":[],"default_left":[0,0,0,0,0,0,0,0,0,0,0,0,0,0,0,0,0,0,0],"id":4,"left_children":[1,-1,3,-1,5,-1,7,11,9,13,-1,-1,15,17,-1,-1,-1,-1,-1],"loss_changes":[1.0583831E1,0E0,1.1513884E1,0E0,7.7439666E0,0E0,4.530121E0,3.8193393E0,4.9038334E0,3.760357E0,0E0,0E0,2.5506897E0,2.5485263E0,0E0,0E0,0E0,0E0,0E0],"parents":[2147483647,0,0,2,2,4,4,6,6,8,8,7,7,9,9,12,12,13,13],"right_children":[2,-1,4,-1,6,-1,8,12,10,14,-1,-1,16,18,-1,-1,-1,-1,-1],"split_conditions":[7.7715E-1,-7.1962297E-1,8.6558E-1,9.3041825E-1,9E-4,-6.9282836E-1,3E0,1.18561E0,8.846E-2,2.1164156E2,-2.7138293E-1,2.0576365E-1,5.7E1,1.93E-3,8.545265E-1,-2.8390566E-2,-6.457405E-1,5.413867E-1,-9.0203166E-2],"split_indices":[7,0,7,0,10,0,12,7,9,7,0,0,4,10,0,0,0,0,0],"split_type":[0,0,0,0,0,0,0,0,0,0,0,0,0,0,0,0,0,0,0],"sum_hessian":[1.4682509E2,1.6824276E1,1.3000082E2,1.5534572E1,1.1446625E2,1.3663205E1,1.0080305E2,4.8273922E1,5.252912E1,4.1286404E1,1.1242718E1,2.1165747E1,2.7108173E1,2.5423143E1,1.5863261E1,1.2575312E1,1.4532862E1,1.3005842E1,1.2417301E1],"tree_param":{"num_deleted":"0","num_feature":"15","num_nodes":"19","size_leaf_vector":"1"}},{"base_weights":[-5.7297274E-2,-7.797603E-1,6.66752E-2,8.001677E-1,-3.8855225E-2,1.9457923E-1,-2.9724598E-1,-8.666016E-1,-1.277516E-1,-2.9735914E-1,3.520542E-1,6.048979E-1,-2.2976787E-1,1.020739E-1,-5.9455526E-1,2.0451578E-1,8.8745296E-1,-1.5157731E-1,3.5225707E-1],"categories":[],"categories_nodes":[],"categories_segments":[],"categories_sizes":[],"default_left":[0,0,0,0,0,0,0,0,0,0,0,0,0,0,0,0,0,0,0],"id":5,"left_children":[1,-1,3,-1,5,9,7,-1,13,-1,11,15,-1,17,-1,-1,-1,-1,-1],"loss_changes":[1.2966133E1,0E0,9.569298E0,0E0,6.506845E0,4.387341E0,4.9157763E0,0E0,4.2553806E0,0E0,6.326107E0,3.3568087E0,0E0,1.6854585E0,0E0,0E0,0E0,0E0,0E0],"parents":[2147483647,0,0,2,2,4,4,6,6,5,5,10,10,8,8,11,11,13,13],"right_children":[2,-1,4,-1,6,10,8,-1,14,-1,12,16,-1,18,-1,-1,-1,-1,-1],"split_conditions":[3.888E1,-7.797603E-1,4.289E1,8.001677E-1,5E0,6.7E1,8.5914E-1,-8.666016E-1,9.06762E-1,-2.9735914E-1,1.8355263E2,6.3E-4,-2.2976787E-1,5.115E1,-5.9455526E-1,2.0451578E-1,8.8745296E-1,-1.5157731E-1,3.5225707E-1],"split_indices":[5,0,5,0,0,6,7,0,11,0,8,10,0,5,0,0,0,0,0],"split_type":[0,0,0,0,0,0,0,0,0,0,0,0,0,0,0,0,0,0,0],"sum_hessian":[1.4453021E2,2.1190365E1,1.2333985E2,1.5534862E1,1.07804985E2,5.6584167E1,5.1220818E1,1.1701082E1,3.9519737E1,1.3676374E1,4.2907795E1,2.994196E1,1.2965835E1,2.6449686E1,1.307005E1,1.2437142E1,1.7504816E1,1.3082537E1,1.3367149E1],"tree_param":{"num_deleted":"0","num_feature":"15","num_nodes":"19","size_leaf_vector":"1"}},{"base_weights":[4.1504286E-2,-8.090549E-2,7.726949E-1,-3.275994E-1,6.393497E-2,4.4519147E-1,-1.0193608E-1,-6.4990324E-1,-1.2372678E-2,1.4180747E-1,-3.6057824E-1,-4.2550495E-1,6.049594E-1,-7.324324E-1,-3.9289095E-2],"categories":[],"categories_nodes":[],"categories_segments":[],"categories_sizes":[],"default_left":[0,0,0,0,0,0,0,0,0,0,0,0,0,0,0],"id":6,"left_children":[1,3,-1,7,5,-1,9,-1,-1,11,13,-1,-1,-1,-1],"loss_changes":[1.172836E1,4.0106707E0,0E0,4.2000556E0,4.470384E0,0E0,3.1026766E0,0E0,0E0,6.639876E0,2.8322864E0,0E0,0E0,0E0,0E0],"parents":[2147483647,0,0,1,1,4,4,3,3,6,6,9,9,10,10],"right_children":[2,4,-1,8,6,-1,10,-1,-1,12,14,-1,-1,-1,-1],"split_conditions":[1.319231E0,7.7E1,7.726949E-1,2.02E-3,2E0,4.4519147E-1,6.6E-4,-6.4990324E-1,-1.2372678E-2,4.5E-4,4.863E1,-4.2550495E-1,6.049594E-1,-7.324324E-1,-3.9289095E-2],"split_indices":[11,6,0,10,12,0,9,0,0,9,5,0,0,0,0],"split_type":[0,0,0,0,0,0,0,0,0,0,0,0,0,0,0],"sum_hessian":[1.3080396E2,1.1202437E2,1.8779589E1,4.150437E1,7.052E1,2.1422215E1,4.9097782E1,2.047236E1,2.103201E1,2.522596E1,2.3871822E1,1.1312198E1,1.3913763E1,1.1018242E1,1.28535795E1],"tree_param":{"num_deleted":"0","num_feature":"15","num_nodes":"15","size_leaf_vector":"1"}},{"base_weights":[-9.405893E-2,1.0302536E0,-2.1193716E-1,-7.5749767E-1,-9.602248E-2,6.6330296E-1,-1.8697838E-1,5.749277E-1,-2.9142982E-1,-1.2616691E-1,-7.6346093E-1,-1.0914515E0,-3.9381745E-1,-2.980009E-1,8.7241516E-2,-5.238193E-1,-1.1640532E-1,3.5643193E-1,-8.799445E-2],"categories":[],"categories_nodes":[],"categories_segments":[],"categories_sizes":[],"default_left":[0,0,0,0,0,0,0,0,0,0,0,0,0,0,0,0,0,0,0],"id":7,"left_children":[1,-1,3,11,5,-1,7,-1,9,13,-1,-1,-1,15,17,-1,-1,-1,-1],"loss_changes":[1.8916992E1,0E0,8.156108E0,2.7018929E0,7.360959E0,0E0,7.5840344E0,0E0,6.5203E0,2.2872896E0,0E0,0E0,0E0,1.3979955E0,1.3137522E0,0E0,0E0,0E0,0E0],"parents":[2147483647,0,0,2,2,4,4,6,6,8,8,3,3,9,9,13,13,14,14],"right_children":[2,-1,4,12,6,-1,8,-1,10,14,-1,-1,-1,16,18,-1,-1,-1,-1],"split_conditions":[7.7714E-1,1.0302536E0,8.6944E-1,7.1E-4,6.7E1,6.6330296E-1,9.1E-4,5.749277E-1,4E0,3E0,-7.6346093E-1,-1.0914515E0,-3.9381745E-1,5E0,-9.02107E-1,-5.238193E-1,-1.1640532E-1,3.5643193E-1,-8.799445E-2],"split_indices":[8,0,8,10,6,0,10,0,12,3,0,0,0,0,11,0,0,0,0],"split_type":[0,0,0,0,0,0,0,0,0,0,0,0,0,0,0,0,0,0,0],"sum_hessian":[1.4286801E2,1.3526022E1,1.29342E2,2.2611687E1,1.0673031E2,1.1376348E1,9.5353966E1,1.1457789E1,8.389617E1,6.2195152E1,2.1701021E1,1.1734982E1,1.0876704E1,3.4521088E1,2.7674063E1,1.5309357E1,1.9211733E1,1.0967485E1,1.6706577E1],"tree_param":{"num_deleted":"0","num_feature":"15","num_nodes":"19","size_leaf_vector":"1"}},{"base_weights":[8.17988E-2,2.1351951E-1,-3.2249135E-1,3.8272396E-1,-2.073043E-1,1.00982204E-1,5.7884824E-1,2.6197973E-1,1.3727808E0,4.6316215E-1,-5.3708863E-1,-2.0288527E-1,5.533194E-1,-6.0622615E-1,-1.1255009E-2,6.997963E-2,-5.601006E-1],"categories":[],"categories_nodes":[],"categories_segments":[],"categories_sizes":[],"default_left":[0,0,0,0,0,0,0,0,0,0,0,0,0,0,0,0,0],"id":8,"left_children":[1,3,13,5,15,9,7,11,-1,-1,-1,-1,-1,-1,-1,-1,-1],"loss_changes":[7.4168305E0,7.4920588E0,3.0024037E0,4.12704E0,2.9595935E0,7.1349792E0,1.1065566E1,4.2931733E0,0E0,0E0,0E0,0E0,0E0,0E0,0E0,0E0,0E0],"parents":[2147483647,0,0,1,1,3,3,6,6,5,5,7,7,2,2,4,4],"right_children":[2,4,14,6,16,10,8,12,-1,-1,-1,-1,-1,-1,-1,-1,-1],"split_conditions":[9.06762E-1,8.5E1,1.34707E0,1.18966E0,1.35863E0,8.889E-1,3.5088E-2,-1.298013E0,1.3727808E0,4.6316215E-1,-5.3708863E-1,-2.0288527E-1,5.533194E-1,-6.0622615E-1,-1.1255009E-2,6.997963E-2,-5.601006E-1],"split_indices":[11,6,7,7,7,7,11,11,0,0,0,0,0,0,0,0,0],"split_type":[0,0,0,0,0,0,0,0,0,0,0,0,0,0,0,0,0],"sum_hessian":[1.3929971E2,1.0512314E2,3.4176582E1,7.5023445E1,3.0099693E1,3.085584E1,4.4167603E1,3.1605219E1,1.2562384E1,1.97127E1,1.1143141E1,1.2142064E1,1.9463154E1,1.7826048E1,1.6350533E1,1.6816347E1,1.3283345E1],"tree_param":{"num_deleted":"0","num_feature":"15","num_nodes":"17","size_leaf_vector":"1"}},{"base_weights":[-2.1684164E-2,-3.0025885E-1,2.9465416E-1,6.202588E-1,-3.0044654E-1,-6.5868866E-1,-6.8248145E-2,-1.2500892E0,-2.0172566E-1,-4.795203E-1,2.61028E-1,8.316923E-1,1.1002897E-1,4.3248364E-1,1.0876045E0,5.417751E-1,-2.69103E-2],"categories":[],"categories_nodes":[],"categories_segments":[],"categories_sizes":[],"default_left":[0,0,0,0,0,0,0,0,0,0,0,0,0,0,0,0,0],"id":9,"left_children":[1,5,3,11,-1,7,9,-1,-1,-1,15,13,-1,-1,-1,-1,-1],"loss_changes":[1.1489124E1,5.7484217E0,1.1831622E1,4.2305603E0,0E0,7.310999E0,5.7185545E0,0E0,0E0,0E0,1.9051541E0,2.7990112E0,0E0,0E0,0E0,0E0,0E0],"parents":[2147483647,0,0,2,2,1,1,5,5,6,6,3,3,11,11,10,10],"right_children":[2,6,4,12,-1,8,10,-1,-1,-1,16,14,-1,-1,-1,-1,-1],"split_conditions":[5E0,1.23E-3,5.213E1,8.5E1,-3.0044654E-1,-1.52797E-1,7.1E1,-1.2500892E0,-2.0172566E-1,-4.795203E-1,5.019E1,4.267E1,1.1002897E-1,4.3248364E-1,1.0876045E0,5.417751E-1,-2.69103E-2],"split_indices":[0,10,5,6,0,11,6,0,0,0,5,5,0,0,0,0,0],"split_type":[0,0,0,0,0,0,0,0,0,0,0,0,0,0,0,0,0],"sum_hessian":[1.3034666E2,6.935634E1,6.0990326E1,3.9450394E1,2.1539934E1,2.7197783E1,4.2158558E1,1.1819202E1,1.5378579E1,1.877928E1,2.337928E1,2.7848736E1,1.1601658E1,1.0933884E1,1.691485E1,1.1879297E1,1.1499982E1],"tree_param":{"num_deleted":"0","num_feature":"15","num_nodes":"17","size_leaf_vector":"1"}},{"base_weights":[-3.9178073E-2,-1.2599728E-1,8.627863E-1,4.4496813E-1,-2.8284523E-1,7.247139E-2,-5.8366525E-1,-7.717017E-1,-8.636704E-2,-1.0297632E0,-2.8087768E-1,-3.4616706E-1,2.4177413E-1,7.7234316E-1,-1.7315729E-1,-7.612637E-1,-1.300496E0,1.7135587E-1,6.860304E-1],"categories":[],"categories_nodes":[],"categories_segments":[],"categories_sizes":[],"default_left":[0,0,0,0,0,0,0,0,0,0,0,0,0,0,0,0,0,0,0],"id":10,"left_children":[1,3,-1,17,5,11,7,9,-1,15,-1,-1,13,-1,-1,-1,-1,-1,-1],"loss_changes":[9.955022E0,1.040528E1,0E0,1.6250453E0,9.764488E0,2.9603198E0,4.5990295E0,4.4994926E0,0E0,1.6352825E0,0E0,0E0,6.5809593E0,0E0,0E0,0E0,0E0,0E0,0E0],"parents":[2147483647,0,0,1,1,4,4,6,6,7,7,5,5,12,12,9,9,3,3],"right_children":[2,4,-1,18,6,12,8,10,-1,16,-1,-1,14,-1,-1,-1,-1,-1,-1],"split_conditions":[1.975669E0,-1.179348E0,8.627863E-1,5.9E-4,1.19057E0,7.7681E-1,8.36653E-1,1.9928E-1,-8.636704E-2,-7.3491E-2,-2.8087768E-1,-3.4616706E-1,1E0,7.7234316E-1,-1.7315729E-1,-7.612637E-1,-1.300496E0,1.7135587E-1,6.860304E-1],"split_indices":[11,11,0,9,8,8,11,10,0,11,0,0,13,0,0,0,0,0,0],"split_type":[0,0,0,0,0,0,0,0,0,0,0,0,0,0,0,0,0,0,0],"sum_hessian":[1.2735066E2,1.1620651E2,1.1144146E1,2.5000689E1,9.1205826E1,4.1778503E1,4.942732E1,3.5821007E1,1.3606312E1,2.3431608E1,1.2389399E1,1.198038E1,2.9798124E1,1.3100586E1,1.6697538E1,1.1839802E1,1.1591807E1,1.1773024E1,1.3227665E1],"tree_param":{"num_deleted":"0","num_feature":"15","num_nodes":"19","size_leaf_vector":"1"}},{"base_weights":[1.17498614E-1,-1.3155654E-1,4.6189946E-1,7.1346515E-1,-4.7271305E-1,5.741518E-1,-3.5796526E-1,3.7982926E-1,-6.3368237E-1,-1.2168833E0,-3.7023425E-1,1.0919571E0,3.677897E-1,8.324026E-1,-7.7072576E-2,-8.142213E-1,-1.2704709E-2],"categories":[],"categories_nodes":[],"categories_segments":[],"categories_sizes":[],"default_left":[0,0,0,0,0,0,0,0,0,0,0,0,0,0,0,0,0],"id":11,"left_children":[1,5,3,11,-1,-1,7,-1,9,-1,15,-1,13,-1,-1,-1,-1],"loss_changes":[1.171719E1,1.264715E1,1.3490051E1,5.868746E0,0E0,0E0,1.2211355E1,0E0,6.6644135E0,0E0,4.7632947E0,0E0,4.9159184E0,0E0,0E0,0E0,0E0],"parents":[2147483647,0,0,2,2,1,1,6,6,8,8,3,3,12,12,10,10],"right_children":[2,6,4,12,-1,-1,8,-1,10,-1,16,-1,14,-1,-1,-1,-1],"split_conditions":[5.29E1,4.001E1,1.490323E0,6E-4,-4.7271305E-1,5.741518E-1,7.4E1,3.7982926E-1,8.9026E-1,-1.2168833E0,8.2E1,1.0919571E0,5.921E1,8.324026E-1,-7.7072576E-2,-8.142213E-1,-1.2704709E-2],"split_indices":[5,5,11,9,0,0,6,0,7,0,6,0,5,0,0,0,0],"split_type":[0,0,0,0,0,0,0,0,0,0,0,0,0,0,0,0,0],"sum_hessian":[1.3647714E2,7.9160904E1,5.7316242E1,4.518589E1,1.2130354E1,1.9193958E1,5.996694E1,1.628537E1,4.3681576E1,1.3545354E1,3.013622E1,2.1518106E1,2.3667784E1,1.160113E1,1.2066653E1,1.3401411E1,1.673481E1],"tree_param":{"num_deleted":"0","num_feature":"15","num_nodes":"17","size_leaf_vector":"1"}},{"base_weights":[-2.1334001E-1,-4.317257E-2,-4.4403023E-1,3.1868163E-1,-1.7713767E-1,-3.3452472E-1,3.3990654E-1,-8.349375E-1,-1.4511418E-1,6.899404E-2,-5.540515E-1,-8.947279E-1,-3.3522823E-1,-4.0609132E-2,-4.39448E-1,-7.665487E-1,-1.3690187E-1],"categories":[],"categories_nodes":[],"categories_segments":[],"categories_sizes":[],"default_left":[0,0,0,0,0,0,0,0,0,0,0,0,0,0,0,0,0],"id":12,"left_children":[1,3,11,-1,5,7,-1,-1,9,-1,-1,-1,13,-1,15,-1,-1],"loss_changes":[5.299906E0,3.7768648E0,2.7768583E0,0E0,4.6374283E0,4.116034E0,0E0,0E0,2.795593E0,0E0,0E0,0E0,1.4083424E0,0E0,3.351812E0,0E0,0E0],"parents":[2147483647,0,0,1,1,4,4,5,5,8,8,2,2,12,12,14,14],"right_children":[2,4,12,-1,6,8,-1,-1,10,-1,-1,-1,14,-1,16,-1,-1],"split_conditions":[4E0,4.511E1,4.063E1,3.1868163E-1,6.256E1,1.22E-3,3.3990654E-1,-8.349375E-1,5.7E1,6.899404E-2,-5.540515E-1,-8.947279E-1,-8.23529E-1,-4.0609132E-2,1.49E-3,-7.665487E-1,-1.3690187E-1],"split_indices":[3,5,5,0,5,10,0,0,5,0,0,0,11,0,10,0,0],"split_type":[0,0,0,0,0,0,0,0,0,0,0,0,0,0,0,0,0],"sum_hessian":[1.3533893E2,7.796308E1,5.7375847E1,2.1005177E1,5.69579E1,4.3709843E1,1.3248059E1,1.1950141E1,3.1759703E1,2.080918E1,1.0950523E1,1.1090519E1,4.6285328E1,1.2167521E1,3.411781E1,1.6340874E1,1.7776934E1],"tree_param":{"num_deleted":"0","num_feature":"15","num_nodes":"17","size_leaf_vector":"1"}},{"base_weights":[1.604759E-1,6.582575E-1,-5.36525E-2,1.0794207E0,-9.956399E-2,2.7087563E-1,1.9192101E0,-6.8903977E-1,1.4356509E-1,5.732112E-1,-7.549517E-2,2.9032418E-1,-3.8133425E-1,-7.6193795E-2,-6.859587E-1],"categories":[],"categories_nodes":[],"categories_segments":[],"categories_sizes":[],"default_left":[0,0,0,0,0,0,0,0,0,0,0,0,0,0,0],"id":13,"left_children":[1,3,7,5,-1,-1,-1,-1,9,-1,11,-1,13,-1,-1],"loss_changes":[1.2884268E1,1.1629433E1,1.0590166E1,1.5814672E1,0E0,0E0,0E0,0E0,6.072857E0,0E0,4.770711E0,0E0,2.1399112E0,0E0,0E0],"parents":[2147483647,0,0,1,1,3,3,2,2,8,8,10,10,12,12],"right_children":[2,4,8,6,-1,-1,-1,-1,10,-1,12,-1,14,-1,-1],"split_conditions":[1.16E-3,5.556E1,-1.26186E0,4.494E1,-9.956399E-2,2.7087563E-1,1.9192101E0,-6.8903977E-1,5.7E1,5.732112E-1,1.35127E0,2.9032418E-1,1E0,-7.6193795E-2,-6.859587E-1],"split_indices":[10,5,11,5,0,0,0,0,4,0,8,0,13,0,0],"split_type":[0,0,0,0,0,0,0,0,0,0,0,0,0,0,0],"sum_hessian":[1.2070643E2,3.6336006E1,8.437042E1,2.3375288E1,1.2960716E1,1.1934503E1,1.1440785E1,2.0009487E1,6.436094E1,2.1768553E1,4.259239E1,1.9354315E1,2.3238071E1,1.1661908E1,1.1576162E1],"tree_param":{"num_deleted":"0","num_feature":"15","num_nodes":"15","size_leaf_vector":"1"}},{"base_weights":[-1.662761E-1,4.7613895E-1,-2.5556684E-1,-4.219607E-1,1.8019511E-1,-1.1438469E0,-3.0878586E-1,-3.1153305E-2,-6.511957E-1,-3.23438E-1,-1.0918036E0,-5.0723815E-1,1.8951473E-1,4.1858977E-1,-2.1368681E-1,4.3022627E-1,-1.2307566E-1],"categories":[],"categories_nodes":[],"categories_segments":[],"categories_sizes":[],"default_left":[0,0,0,0,0,0,0,0,0,0,0,0,0,0,0,0,0],"id":14,"left_children":[1,-1,3,5,13,-1,7,11,9,-1,-1,-1,15,-1,-1,-1,-1],"loss_changes":[7.363669E0,0E0,8.187914E0,6.630233E0,2.9307323E0,0E0,6.699593E0,4.116046E0,4.5203924E0,0E0,0E0,0E0,2.016331E0,0E0,0E0,0E0,0E0],"parents":[2147483647,0,0,2,2,3,3,6,6,8,8,7,7,4,4,12,12],"right_children":[2,-1,4,6,14,-1,8,12,10,-1,-1,-1,16,-1,-1,-1,-1],"split_conditions":[3.841E1,4.7613895E-1,1.0078E-1,-1.33795E0,5.19118E-1,-1.1438469E0,5.2E-4,7.7789E-1,7.02341E-1,-3.23438E-1,-1.0918036E0,-5.0723815E-1,8.8608E-1,4.1858977E-1,-2.1368681E-1,4.3022627E-1,-1.2307566E-1],"split_indices":[5,0,10,11,11,0,9,8,11,0,0,0,8,0,0,0,0],"split_type":[0,0,0,0,0,0,0,0,0,0,0,0,0,0,0,0,0],"sum_hessian":[1.284358E2,1.5629112E1,1.128067E2,8.168015E1,3.1126547E1,1.1021298E1,7.065885E1,3.9072052E1,3.1586802E1,1.8161366E1,1.3425434E1,1.2408009E1,2.6664043E1,1.9432936E1,1.1693611E1,1.51102085E1,1.1553835E1],"tree_param":{"num_deleted":"0","num_feature":"15","num_nodes":"17","size_leaf_vector":"1"}},{"base_weights":[-1.7478298E-1,-8.2953155E-1,-5.754693E-2,-5.945559E-1,9.826803E-2,2.7213868E-1,-2.6215553E-1,-9.9903606E-2,6.5180856E-1,-6.27307E-1,3.716042E-1,1.0881917E0,3.4168914E-1,8.104769E-2,-6.2016577E-1,-3.990748E-1,-7.8390753E-1],"categories":[],"categories_nodes":[],"categories_segments":[],"categories_sizes":[],"default_left":[0,0,0,0,0,0,0,0,0,0,0,0,0,0,0,0,0],"id":15,"left_children":[1,-1,3,15,5,7,13,9,11,-1,-1,-1,-1,-1,-1,-1,-1],"loss_changes":[9.413549E0,0E0,8.744294E0,8.3384323E-1,5.0673227E0,7.727034E0,3.2422934E0,6.860482E0,3.6179028E0,0E0,0E0,0E0,0E0,0E0,0E0,0E0,0E0],"parents":[2147483647,0,0,2,2,4,4,5,5,7,7,8,8,6,6,3,3],"right_children":[2,-1,4,16,6,8,14,10,12,-1,-1,-1,-1,-1,-1,-1,-1],"split_conditions":[1E0,-8.2953155E-1,4.181E1,3.671E-2,1.8457297E2,5.5E-4,1.80412E-1,8E1,2.05E-3,-6.27307E-1,3.716042E-1,1.0881917E0,3.4168914E-1,8.104769E-2,-6.2016577E-1,-3.990748E-1,-7.8390753E-1],"split_indices":[12,0,5,10,7,9,11,6,10,0,0,0,0,0,0,0,0],"split_type":[0,0,0,0,0,0,0,0,0,0,0,0,0,0,0,0,0],"sum_hessian":[1.2294448E2,1.8623466E1,1.04321014E2,2.3492456E1,8.082856E1,5.4578186E1,2.6250372E1,2.7534796E1,2.704339E1,1.3022132E1,1.4512664E1,1.1184582E1,1.58588085E1,1.3368842E1,1.288153E1,1.1649741E1,1.1842716E1],"tree_param":{"num_deleted":"0","num_feature":"15","num_nodes":"17","size_leaf_vector":"1"}},{"base_weights":[5.221769E-2,3.2912907E-1,-1.8120648E-1,-6.616815E-1,3.353409E-2,-3.0283067E-1,1.0871834E0,6.472309E-1,5.073962E-3,-4.525046E-1,5.110117E-1,-6.237614E-1,8.290555E-2,2.2669567E-1,8.994483E-1],"categories":[],"categories_nodes":[],"categories_segments":[],"categories_sizes":[],"default_left":[0,0,0,0,0,0,0,0,0,0,0,0,0,0,0],"id":16,"left_children":[1,7,3,-1,5,11,-1,13,9,-1,-1,-1,-1,-1,-1],"loss_changes":[8.112897E0,5.9025764E0,7.035394E0,0E0,1.667679E1,4.4229774E0,0E0,3.0363522E0,6.60387E0,0E0,0E0,0E0,0E0,0E0,0E0],"parents":[2147483647,0,0,2,2,4,4,1,1,8,8,5,5,7,7],"right_children":[2,8,4,-1,6,12,-1,14,10,-1,-1,-1,-1,-1,-1],"split_conditions":[5.6E-4,4.981E1,1.35113E0,-6.616815E-1,5.664E1,7.873E-2,1.0871834E0,5.7E1,5.804E1,-4.525046E-1,5.110117E-1,-6.237614E-1,8.290555E-2,2.2669567E-1,8.994483E-1],"split_indices":[9,5,7,0,5,9,0,4,5,0,0,0,0,0,0],"split_type":[0,0,0,0,0,0,0,0,0,0,0,0,0,0,0],"sum_hessian":[1.254258E2,5.7419643E1,6.800616E1,2.1036549E1,4.696961E1,3.5591175E1,1.1378432E1,2.8927116E1,2.8492525E1,1.4933859E1,1.3558667E1,1.9461512E1,1.6129663E1,1.0894568E1,1.8032549E1],"tree_param":{"num_deleted":"0","num_feature":"15","num_nodes":"15","size_leaf_vector":"1"}},{"base_weights":[1.3200149E-1,9.1141E-1,-0E0,-3.5824794E-1,1.9882375E-1,5.354287E-1,-2.862798E-1,-8.857373E-1,2.1277319E-1,7.889754E-1,-1.02227956E-1,-7.949783E-1,1.6360188E-2,4.294432E-1,1.2926651E0],"categories":[],"categories_nodes":[],"categories_segments":[],"categories_sizes":[],"default_left":[0,0,0,0,0,0,0,0,0,0,0,0,0,0,0],"id":17,"left_children":[1,-1,3,11,5,9,7,-1,-1,13,-1,-1,-1,-1,-1],"loss_changes":[1.25814085E1,0E0,7.4491677E0,6.1285033E0,1.0989044E1,6.444064E0,8.254153E0,0E0,0E0,5.100456E0,0E0,0E0,0E0,0E0,0E0],"parents":[2147483647,0,0,2,2,4,4,6,6,5,5,3,3,9,9],"right_children":[2,-1,4,12,6,10,8,-1,-1,14,-1,-1,-1,-1,-1],"split_conditions":[-1.459494E0,9.1141E-1,4.6E-4,4.863E1,5.447E1,7.392E-2,5.5E1,-8.857373E-1,2.1277319E-1,6.7E-4,-1.02227956E-1,-7.949783E-1,1.6360188E-2,4.294432E-1,1.2926651E0],"split_indices":[11,0,9,5,5,9,4,0,0,9,0,0,0,0,0],"split_type":[0,0,0,0,0,0,0,0,0,0,0,0,0,0,0],"sum_hessian":[1.2224541E2,1.7697523E1,1.0454789E2,3.731634E1,6.7231544E1,3.9723003E1,2.7508541E1,1.2517192E1,1.4991349E1,2.8450048E1,1.1272956E1,1.7256186E1,2.0060156E1,1.6646238E1,1.1803812E1],"tree_param":{"num_deleted":"0","num_feature":"15","num_nodes":"15","size_leaf_vector":"1"}},{"base_weights":[-5.6360908E-2,5.321959E-1,-2.6813975E-1,4.0839255E-1,-4.1307354E-1,-5.9327817E-1,1.2341114E-1,1.0864662E-1,1.0185338E0,-4.0967292E-1,-1.2424704E0,1.3932472E-1,-7.103284E-1,-1.034874E0,-2.1558638E-1],"categories":[],"categories_nodes":[],"categories_segments":[],"categories_sizes":[],"default_left":[0,0,0,0,0,0,0,0,0,0,0,0,0,0,0],"id":18,"left_children":[1,7,3,-1,5,9,-1,-1,-1,11,-1,-1,13,-1,-1],"loss_changes":[1.4994044E1,6.5211287E0,8.68364E0,0E0,7.0668764E0,6.462736E0,0E0,0E0,0E0,7.0574207E0,0E0,0E0,4.394039E0,0E0,0E0],"parents":[2147483647,0,0,2,2,4,4,1,1,5,5,9,9,12,12],"right_children":[2,8,4,-1,6,10,-1,-1,-1,12,-1,-1,14,-1,-1],"split_conditions":[9.1E-4,8.5914E-1,4.063E1,4.0839255E-1,9.84874E-1,5.791E1,1.2341114E-1,1.0864662E-1,1.0185338E0,7.6E1,-1.2424704E0,1.3932472E-1,1.850922E2,-1.034874E0,-2.1558638E-1],"split_indices":[10,7,5,0,11,5,0,0,0,6,0,0,7,0,0],"split_type":[0,0,0,0,0,0,0,0,0,0,0,0,0,0,0],"sum_hessian":[1.2032434E2,3.1800165E1,8.852417E1,1.55813465E1,7.2942825E1,5.463887E1,1.8303959E1,1.7035715E1,1.4764449E1,4.264204E1,1.1996831E1,1.5059737E1,2.7582302E1,1.66143E1,1.0968001E1],"tree_param":{"num_deleted":"0","num_feature":"15","num_nodes":"15","size_leaf_vector":"1"}},{"base_weights":[-1.0374703E-1,-3.5405126E-1,5.508535E-2,-7.6909506E-1,2.9499248E-1,1.0451151E0,9.596678E-2,-1.4240989E-1,-1.0728751E0,-5.3956586E-1,2.586148E-1,-2.3769873E-1,3.659613E-1,7.933203E-1,-7.8342535E-2],"categories":[],"categories_nodes":[],"categories_segments":[],"categories_sizes":[],"default_left":[0,0,0,0,0,0,0,0,0,0,0,0,0,0,0],"id":19,"left_children":[1,7,3,-1,5,-1,11,9,-1,-1,-1,-1,13,-1,-1],"loss_changes":[4.995751E0,7.384372E0,1.515433E1,0E0,8.841255E0,0E0,4.240249E0,6.0171533E0,0E0,0E0,0E0,0E0,4.9642305E0,0E0,0E0],"parents":[2147483647,0,0,2,2,4,4,1,1,7,7,6,6,12,12],"right_children":[2,8,4,-1,6,-1,12,10,-1,-1,-1,-1,14,-1,-1],"split_conditions":[1.32E-3,1.17438E0,4.135E1,-7.6909506E-1,4.596E1,1.0451151E0,5.4E1,7.9E1,-1.0728751E0,-5.3956586E-1,2.586148E-1,-2.3769873E-1,1.3815E-1,7.933203E-1,-7.8342535E-2],"split_indices":[10,7,5,0,5,0,5,6,0,0,0,0,10,0,0],"split_type":[0,0,0,0,0,0,0,0,0,0,0,0,0,0,0],"sum_hessian":[1.25435356E2,4.8755745E1,7.667961E1,1.7256002E1,5.942361E1,1.2420156E1,4.7003456E1,3.770721E1,1.1048536E1,1.8976696E1,1.8730513E1,2.0978645E1,2.602481E1,1.3291224E1,1.2733587E1],"tree_param":{"num_deleted":"0","num_feature":"15","num_nodes":"15","size_leaf_vector":"1"}},{"base_weights":[1.3136798E-1,-7.53363E-1,2.5318682E-1,4.3533072E-1,-8.6519994E-2,-4.2496344E-1,3.5658935E-1,1.5008417E-1,6.934965E-1,-4.623518E-1,6.2164605E-1,1.1595936E0,3.8738403E-1],"categories":[],"categories_nodes":[],"categories_segments":[],"categories_sizes":[],"default_left":[0,0,0,0,0,0,0,0,0,0,0,0,0],"id":20,"left_children":[1,-1,3,7,5,-1,-1,9,11,-1,-1,-1,-1],"loss_changes":[1.2745968E1,0E0,6.449758E0,4.9689255E0,5.4454656E0,0E0,0E0,9.330454E0,5.022648E0,0E0,0E0,0E0,0E0],"parents":[2147483647,0,0,2,2,4,4,3,3,7,7,8,8],"right_children":[2,-1,4,8,6,-1,-1,10,12,-1,-1,-1,-1],"split_conditions":[-1.459494E0,-7.53363E-1,8.3E1,4.991E1,1E0,-4.2496344E-1,3.5658935E-1,4E0,1.4E-3,-4.623518E-1,6.2164605E-1,1.1595936E0,3.8738403E-1],"split_indices":[11,0,6,5,13,0,0,3,10,0,0,0,0],"split_type":[0,0,0,0,0,0,0,0,0,0,0,0,0],"sum_hessian":[1.1835201E2,1.4288485E1,1.0406353E2,6.779135E1,3.627218E1,2.0599901E1,1.5672277E1,3.2266304E1,3.5525047E1,1.4011604E1,1.82547E1,1.403286E1,2.149219E1],"tree_param":{"num_deleted":"0","num_feature":"15","num_nodes":"13","size_leaf_vector":"1"}},{"base_weights":[-1.7768455E-1,7.7976656E-1,-3.344434E-1,3.8024995E-1,-4.4184136E-1,-1.0702718E0,-2.5377086E-1,2.9303727E-1,-4.2697468E-1,-1.0955741E0,-2.4858418E-1,-7.5405526E-1,-6.140336E-2,-3.5071865E-1,3.876885E-1],"categories":[],"categories_nodes":[],"categories_segments":[],"categories_sizes":[],"default_left":[0,0,0,0,0,0,0,0,0,0,0,0,0,0,0],"id":21,"left_children":[1,-1,3,-1,5,-1,7,-1,9,-1,11,-1,13,-1,-1],"loss_changes":[1.7927896E1,0E0,7.8888016E0,0E0,1.0520149E1,0E0,6.522806E0,0E0,6.1984615E0,0E0,3.8884137E0,0E0,3.9272668E0,0E0,0E0],"parents":[2147483647,0,0,2,2,4,4,6,6,8,8,10,10,12,12],"right_children":[2,-1,4,-1,6,-1,8,-1,10,-1,12,-1,14,-1,-1],"split_conditions":[3.988E1,7.7976656E-1,-1.365E0,3.8024995E-1,8.3E-4,-1.0702718E0,4.9E-4,2.9303727E-1,4.661E1,-1.0955741E0,-1.9222E-1,-7.5405526E-1,1.7842E-1,-3.5071865E-1,3.876885E-1],"split_indices":[5,0,11,0,10,0,9,0,5,0,11,0,10,0,0],"split_type":[0,0,0,0,0,0,0,0,0,0,0,0,0,0,0],"sum_hessian":[1.19493E2,1.6779837E1,1.0271316E2,1.3381075E1,8.9332085E1,2.0529062E1,6.880302E1,1.651117E1,5.229185E1,1.0967282E1,4.1324566E1,1.1117536E1,3.0207031E1,1.8410109E1,1.1796922E1],"tree_param":{"num_deleted":"0","num_feature":"15","num_nodes":"15","size_leaf_vector":"1"}},{"base_weights":[1.3149142E-1,4.529164E-1,-3.0041218E-1,6.299496E-1,-6.07499E-1,-1.4208846E0,-1.2965328E-1,3.6318657E-1,-6.8205047E-1,7.082597E-1,1.027516E-1,-2.6694456E-1,6.6524535E-1,4.8743907E-1,9.9086714E-1],"categories":[],"categories_nodes":[],"categories_segments":[],"categories_sizes":[],"default_left":[0,0,0,0,0,0,0,0,0,0,0,0,0,0,0],"id":22,"left_children":[1,9,3,-1,5,-1,7,-1,-1,13,11,-1,-1,-1,-1],"loss_changes":[1.6235304E1,5.9735956E0,1.4247337E1,0E0,1.4534454E1,0E0,6.4542418E0,0E0,0E0,2.3709717E0,5.9069405E0,0E0,0E0,0E0,0E0],"parents":[2147483647,0,0,2,2,4,4,6,6,1,1,10,10,9,9],"right_children":[2,10,4,-1,6,-1,8,-1,-1,14,12,-1,-1,-1,-1],"split_conditions":[1.27602E-1,1.35113E0,8E-4,6.299496E-1,1.34003E0,-1.4208846E0,5.747E-2,3.6318657E-1,-6.8205047E-1,8.8969E-1,7.584E-2,-2.6694456E-1,6.6524535E-1,4.8743907E-1,9.9086714E-1],"split_indices":[11,7,10,0,8,0,9,0,0,8,9,0,0,0,0],"split_type":[0,0,0,0,0,0,0,0,0,0,0,0,0,0,0],"sum_hessian":[1.1689247E2,6.705325E1,4.9839214E1,1.2342808E1,3.7496407E1,1.38456745E1,2.3650732E1,1.2475596E1,1.1175137E1,3.872426E1,2.8328999E1,1.7069096E1,1.1259902E1,2.181249E1,1.6911768E1],"tree_param":{"num_deleted":"0","num_feature":"15","num_nodes":"15","size_leaf_vector":"1"}},{"base_weights":[-1.8898246E-1,-1.0930989E0,-4.285634E-2,4.939154E-2,-7.5931793E-1,-5.722029E-2,7.190319E-1,-3.2022116E-1,6.993179E-2,5.7406795E-1,-1.6962132E-1,-6.9726825E-1,1.3473544E-1,7.159459E-2,-5.912574E-1,-2.8615794E-1,4.169527E-1],"categories":[],"categories_nodes":[],"categories_segments":[],"categories_sizes":[],"default_left":[0,0,0,0,0,0,0,0,0,0,0,0,0,0,0,0,0],"id":23,"left_children":[1,-1,3,5,-1,7,-1,11,9,-1,13,-1,-1,15,-1,-1,-1],"loss_changes":[1.6295609E1,0E0,7.053727E0,6.74828E0,0E0,2.7257264E0,0E0,4.573742E0,6.6234093E0,0E0,3.7862024E0,0E0,0E0,2.9159107E0,0E0,0E0,0E0],"parents":[2147483647,0,0,2,2,3,3,5,5,8,8,7,7,10,10,13,13],"right_children":[2,-1,4,6,-1,8,-1,12,10,-1,14,-1,-1,16,-1,-1,-1],"split_conditions":[3.821E1,-1.0930989E0,6.305E1,2.1189413E2,-7.5931793E-1,9.5E-4,7.190319E-1,5.22E1,1.64E-3,5.7406795E-1,3.71681E-1,-6.9726825E-1,1.3473544E-1,1.35184E0,-5.912574E-1,-2.8615794E-1,4.169527E-1],"split_indices":[5,0,5,8,0,10,0,5,10,0,11,0,0,8,0,0,0],"split_type":[0,0,0,0,0,0,0,0,0,0,0,0,0,0,0,0,0],"sum_hessian":[1.2356889E2,1.7155146E1,1.0641375E2,9.425265E1,1.2161108E1,8.128324E1,1.2969401E1,2.65535E1,5.4729744E1,1.7659811E1,3.706993E1,1.4548775E1,1.20047245E1,2.3545969E1,1.3523963E1,1.152797E1,1.2017998E1],"tree_param":{"num_deleted":"0","num_feature":"15","num_nodes":"17","size_leaf_vector":"1"}},{"base_weights":[4.999955E-2,-6.367609E-2,1.0616316E0,1.01328604E-1,-8.105943E-1,-2.5891948E-1,4.5926273E-1,1.0384287E0,1.7165136E-1,4.6466842E-2,-7.2382635E-1,5.849792E-1,-1.621982E-1,-2.8328192E-1,4.3431938E-1],"categories":[],"categories_nodes":[],"categories_segments":[],"categories_sizes":[],"default_left":[0,0,0,0,0,0,0,0,0,0,0,0,0,0,0],"id":24,"left_children":[1,3,-1,5,-1,9,7,-1,11,13,-1,-1,-1,-1,-1],"loss_changes":[1.3148935E1,1.2660324E1,0E0,1.083639E1,0E0,5.957342E0,6.989294E0,0E0,3.9073808E0,3.2314532E0,0E0,0E0,0E0,0E0,0E0],"parents":[2147483647,0,0,1,1,3,3,6,6,5,5,8,8,9,9],"right_children":[2,4,-1,6,-1,10,8,-1,12,14,-1,-1,-1,-1,-1],"split_conditions":[6.295E1,1.8461E-1,1.0616316E0,1.36E-3,-8.105943E-1,7.9E-4,5.5E1,1.0384287E0,1.34181E0,8.5983E-1,-7.2382635E-1,5.849792E-1,-1.621982E-1,-2.8328192E-1,4.3431938E-1],"split_indices":[5,10,0,10,0,10,4,0,8,8,0,0,0,0,0],"split_type":[0,0,0,0,0,0,0,0,0,0,0,0,0,0,0],"sum_hessian":[1.1408432E2,1.0254678E2,1.1537533E1,8.3971375E1,1.857541E1,4.1814445E1,4.215693E1,1.3945693E1,2.8211235E1,2.5208836E1,1.6605612E1,1.2637076E1,1.5574159E1,1.3589099E1,1.1619737E1],"tree_param":{"num_deleted":"0","num_feature":"15","num_nodes":"15","size_leaf_vector":"1"}},{"base_weights":[-1.2866995E-1,6.482413E-1,-2.3667283E-1,-5.852279E-1,2.719712E-1,-2.0406029E-1,8.818328E-1,-1.005805E-1,-9.25469E-1,-1.211793E0,-3.8692117E-1,3.5700434E-1,-5.3061426E-1],"categories":[],"categories_nodes":[],"categories_segments":[],"categories_sizes":[],"default_left":[0,0,0,0,0,0,0,0,0,0,0,0,0],"id":25,"left_children":[1,-1,3,7,5,-1,-1,11,9,-1,-1,-1,-1],"loss_changes":[9.071947E0,0E0,1.6863358E1,9.27787E0,1.1235456E1,0E0,0E0,4.597569E0,5.058504E0,0E0,0E0,0E0,0E0],"parents":[2147483647,0,0,2,2,4,4,3,3,8,8,7,7],"right_children":[2,-1,4,8,6,-1,-1,12,10,-1,-1,-1,-1],"split_conditions":[7.7897E-1,6.482413E-1,3.28276E-1,6.1E-4,2.68E-3,-2.0406029E-1,8.818328E-1,7.9E1,2.1352E-1,-1.211793E0,-3.8692117E-1,3.5700434E-1,-5.3061426E-1],"split_indices":[7,0,11,9,10,0,0,6,10,0,0,0,0],"split_type":[0,0,0,0,0,0,0,0,0,0,0,0,0],"sum_hessian":[1.0821283E2,1.3168581E1,9.504425E1,5.642775E1,3.86165E1,2.166781E1,1.694869E1,2.3314625E1,3.3113125E1,2.1575497E1,1.1537628E1,1.1265993E1,1.2048632E1],"tree_param":{"num_deleted":"0","num_feature":"15","num_nodes":"13","size_leaf_vector":"1"}},{"base_weights":[2.3485748E-1,3.6243516E-1,-5.920528E-1,-5.4953754E-2,5.121941E-1,1.1143174E0,3.0239663E-1,-3.0957296E-2,6.8777287E-1,1.1623755E0,1.427137E-1,-4.7569662E-1,3.0215353E-1,1.7900069E-1,-2.4618414E-1],"categories":[],"categories_nodes":[],"categories_segments":[],"categories_sizes":[],"default_left":[0,0,0,0,0,0,0,0,0,0,0,0,0,0,0],"id":26,"left_children":[1,3,-1,13,5,-1,7,11,9,-1,-1,-1,-1,-1,-1],"loss_changes":[1.1689896E1,6.017473E0,0E0,1.1356525E0,8.894081E0,0E0,6.7648025E0,4.174583E0,6.2733974E0,0E0,0E0,0E0,0E0,0E0,0E0],"parents":[2147483647,0,0,1,1,4,4,6,6,8,8,7,7,3,3],"right_children":[2,4,-1,14,6,-1,8,12,10,-1,-1,-1,-1,-1,-1],"split_conditions":[6.07E1,8.7117E-1,-5.920528E-1,7.7738E-1,4.239E1,1.1143174E0,8E1,5.027E1,5.21E1,1.1623755E0,1.427137E-1,-4.7569662E-1,3.0215353E-1,1.7900069E-1,-2.4618414E-1],"split_indices":[5,8,0,8,5,0,6,5,5,0,0,0,0,0,0],"split_type":[0,0,0,0,0,0,0,0,0,0,0,0,0,0,0],"sum_hessian":[1.1082877E2,9.605013E1,1.4778647E1,2.5317E1,7.073313E1,1.8229132E1,5.2503998E1,2.8120878E1,2.4383121E1,1.2999405E1,1.1383717E1,1.2075109E1,1.6045769E1,1.1323097E1,1.3993901E1],"tree_param":{"num_deleted":"0","num_feature":"15","num_nodes":"15","size_leaf_vector":"1"}},{"base_weights":[-1.231476E-1,2.9479378E-1,-2.5592154E-1,-1.3846067E-1,7.5731564E-1,-6.255442E-1,-8.662729E-2,-1.2677586E0,-1.7239407E-1,2.8103104E-1,-2.7128375E-1,-5.090881E-1,2.3436943E-1,-9.199441E-1,1.4501222E-2],"categories":[],"categories_nodes":[],"categories_segments":[],"categories_sizes":[],"default_left":[0,0,0,0,0,0,0,0,0,0,0,0,0,0,0],"id":27,"left_children":[1,3,5,-1,-1,7,9,-1,-1,-1,11,13,-1,-1,-1],"loss_changes":[6.3165107E0,5.5089073E0,5.3890696E0,0E0,0E0,7.845335E0,4.0302305E0,0E0,0E0,0E0,4.7665887E0,5.8222923E0,0E0,0E0,0E0],"parents":[2147483647,0,0,1,1,2,2,5,5,6,6,10,10,11,11],"right_children":[2,4,6,-1,-1,8,10,-1,-1,-1,12,14,-1,-1,-1],"split_conditions":[8.6773E-1,6.5E-4,4.378E1,-1.3846067E-1,7.5731564E-1,5.7E1,5.062E1,-1.2677586E0,-1.7239407E-1,2.8103104E-1,6.064E1,5E0,2.3436943E-1,-9.199441E-1,1.4501222E-2],"split_indices":[8,10,5,0,0,4,5,0,0,0,5,0,0,0,0],"split_type":[0,0,0,0,0,0,0,0,0,0,0,0,0,0,0],"sum_hessian":[1.1381594E2,2.7387165E1,8.642878E1,1.4115458E1,1.32717085E1,2.7089087E1,5.933969E1,1.1172155E1,1.5916932E1,1.9787735E1,3.9551956E1,2.6937191E1,1.2614765E1,1.5116931E1,1.182026E1],"tree_param":{"num_deleted":"0","num_feature":"15","num_nodes":"15","size_leaf_vector":"1"}},{"base_weights":[-2.6191946E-2,-2.0611729E-1,8.216892E-1,-5.835308E-2,-5.420136E-1,-3.7214273E-1,1.5831225E-1,5.3858984E-1,-1.9773221E-1,-7.647431E-1,-3.335278E-4,-1.9555537E-1,-9.282338E-1],"categories":[],"categories_nodes":[],"categories_segments":[],"categories_sizes":[],"default_left":[0,0,0,0,0,0,0,0,0,0,0,0,0],"id":28,"left_children":[1,3,-1,5,11,9,7,-1,-1,-1,-1,-1,-1],"loss_changes":[1.7685371E1,4.7356386E0,0E0,4.5323024E0,3.8736477E0,3.956194E0,5.336544E0,0E0,0E0,0E0,0E0,0E0,0E0],"parents":[2147483647,0,0,1,1,3,3,6,6,5,5,4,4],"right_children":[2,4,-1,6,12,10,8,-1,-1,-1,-1,-1,-1],"split_conditions":[2.1352E-1,5.447E1,8.216892E-1,-8.01296E-1,5.5E1,1.33E-3,5E0,5.3858984E-1,-1.9773221E-1,-7.647431E-1,-3.335278E-4,-1.9555537E-1,-9.282338E-1],"split_indices":[10,5,0,11,4,10,0,0,0,0,0,0,0],"split_type":[0,0,0,0,0,0,0,0,0,0,0,0,0],"sum_hessian":[1.1600935E2,9.573564E1,2.0273712E1,6.655405E1,2.9181597E1,2.7231417E1,3.9322628E1,1.9047825E1,2.0274801E1,1.3203123E1,1.4028293E1,1.5430101E1,1.3751494E1],"tree_param":{"num_deleted":"0","num_feature":"15","num_nodes":"13","size_leaf_vector":"1"}},{"base_weights":[-2.9469589E-2,1.8053846E-1,-9.249507E-1,-7.883553E-2,7.425511E-1,-4.3073663E-1,1.9406301E-1,4.8238736E-1,-2.1379536E-1,1.12236E0,4.0875533E-1,-7.285693E-1,-2.4246685E-2],"categories":[],"categories_nodes":[],"categories_segments":[],"categories_sizes":[],"default_left":[0,0,0,0,0,0,0,0,0,0,0,0,0],"id":29,"left_children":[1,3,-1,5,9,11,7,-1,-1,-1,-1,-1,-1],"loss_changes":[2.000742E1,1.256516E1,0E0,5.6609282E0,3.402421E0,3.0980382E0,3.9036548E0,0E0,0E0,0E0,0E0,0E0,0E0],"parents":[2147483647,0,0,1,1,3,3,6,6,4,4,5,5],"right_children":[2,4,-1,6,10,12,8,-1,-1,-1,-1,-1,-1],"split_conditions":[7.728E-2,5.561E1,-9.249507E-1,5E0,1.19712E0,1.88E-3,4.722E1,4.8238736E-1,-2.1379536E-1,1.12236E0,4.0875533E-1,-7.285693E-1,-2.4246685E-2],"split_indices":[9,5,0,0,7,10,5,0,0,0,0,0,0],"split_type":[0,0,0,0,0,0,0,0,0,0,0,0,0],"sum_hessian":[1.0625727E2,8.60557E1,2.0201565E1,5.8856102E1,2.7199602E1,2.5747133E1,3.3108967E1,1.9434439E1,1.3674528E1,1.267034E1,1.4529263E1,1.4815063E1,1.093207E1],"tree_param":{"num_deleted":"0","num_feature":"15","num_nodes":"13","size_leaf_vector":"1"}},{"base_weights":[-6.1671477E-2,3.575776E-1,-2.7879268E-1,7.482879E-1,-4.6346074E-1,-5.5674225E-2,-8.636789E-1,2.3423587E-1,-3.5428333E-1,-7.627245E-1,1.2442258E-1,-1.82149E-1,6.625541E-1,4.043313E-1,1.0804092E0],"categories":[],"categories_nodes":[],"categories_segments":[],"categories_sizes":[],"default_left":[0,0,0,0,0,0,0,0,0,0,0,0,0,0,0],"id":30,"left_children":[1,3,5,13,-1,7,-1,11,9,-1,-1,-1,-1,-1,-1],"loss_changes":[9.700124E0,1.1664541E1,9.143349E0,2.7686377E0,0E0,4.4113364E0,0E0,4.614399E0,4.9317684E0,0E0,0E0,0E0,0E0,0E0,0E0],"parents":[2147483647,0,0,1,1,2,2,5,5,8,8,7,7,3,3],"right_children":[2,4,6,14,-1,8,-1,12,10,-1,-1,-1,-1,-1,-1],"split_conditions":[-6.07046E-1,4E0,5.914E1,4.243E-2,-4.6346074E-1,5.7E-4,-8.636789E-1,4.917E1,1.8521829E2,-7.627245E-1,1.2442258E-1,-1.82149E-1,6.625541E-1,4.043313E-1,1.0804092E0],"split_indices":[11,12,5,10,0,9,0,5,7,0,0,0,0,0,0],"split_type":[0,0,0,0,0,0,0,0,0,0,0,0,0,0,0],"sum_hessian":[1.06558075E2,3.6310684E1,7.024739E1,2.4626024E1,1.168466E1,5.0893623E1,1.935377E1,2.5778284E1,2.511534E1,1.3578648E1,1.1536693E1,1.3042943E1,1.2735341E1,1.2151915E1,1.2474109E1],"tree_param":{"num_deleted":"0","num_feature":"15","num_nodes":"15","size_leaf_vector":"1"}},{"base_weights":[6.6573255E-2,2.235998E-1,-5.6374115E-1,4.5224093E-2,1.0658053E0,3.4836364E-1,-3.0061153E-1,1.266258E-1,-8.935913E-1,3.7424322E-2,6.986418E-1],"categories":[],"categories_nodes":[],"categories_segments":[],"categories_sizes":[],"default_left":[0,0,0,0,0,0,0,0,0,0,0],"id":31,"left_children":[1,3,-1,5,-1,9,7,-1,-1,-1,-1],"loss_changes":[1.0820442E1,1.3133113E1,0E0,7.5876665E0,0E0,4.184167E0,8.575321E0,0E0,0E0,0E0,0E0],"parents":[2147483647,0,0,1,1,3,3,6,6,5,5],"right_children":[2,4,-1,6,-1,10,8,-1,-1,-1,-1],"split_conditions":[2.0363E-1,5.841E1,-5.6374115E-1,8E1,1.0658053E0,4.628E1,1.33917E0,1.266258E-1,-8.935913E-1,3.7424322E-2,6.986418E-1],"split_indices":[10,5,0,6,0,5,7,0,0,0,0],"split_type":[0,0,0,0,0,0,0,0,0,0,0],"sum_hessian":[1.09387146E2,8.761233E1,2.177482E1,7.2337585E1,1.5274738E1,3.859009E1,3.3747494E1,1.9594439E1,1.4153055E1,2.0491735E1,1.8098356E1],"tree_param":{"num_deleted":"0","num_feature":"15","num_nodes":"11","size_leaf_vector":"1"}},{"base_weights":[-4.7109857E-2,-4.6553424E-1,4.0557802E-1,-2.356009E-3,-1.6193448E0,1.0845948E0,1.9565049E-1,-2.1507777E-1,6.4157677E-1,2.259007E-1,-4.549942E-1,-3.154081E-1,7.1553427E-1],"categories":[],"categories_nodes":[],"categories_segments":[],"categories_sizes":[],"default_left":[0,0,0,0,0,0,0,0,0,0,0,0,0],"id":32,"left_children":[1,3,5,9,-1,-1,7,-1,-1,11,-1,-1,-1],"loss_changes":[2.1097393E1,3.0902721E1,7.583708E0,4.279747E0,0E0,0E0,7.5018682E0,0E0,0E0,7.291139E0,0E0,0E0,0E0],"parents":[2147483647,0,0,1,1,2,2,6,6,3,3,9,9],"right_children":[2,4,6,10,-1,-1,8,-1,-1,12,-1,-1,-1],"split_conditions":[5.9E-4,5.75E1,4.063E1,1.37E-3,-1.6193448E0,1.0845948E0,5.187E1,-2.1507777E-1,6.4157677E-1,8.5481E-1,-4.549942E-1,-3.154081E-1,7.1553427E-1],"split_indices":[9,5,5,10,0,0,5,0,0,8,0,0,0],"split_type":[0,0,0,0,0,0,0,0,0,0,0,0,0],"sum_hessian":[1.1134663E2,5.7894066E1,5.345256E1,4.1336784E1,1.6557281E1,1.2579565E1,4.0872997E1,2.124806E1,1.9624935E1,2.7443968E1,1.3892817E1,1.3010084E1,1.4433883E1],"tree_param":{"num_deleted":"0","num_feature":"15","num_nodes":"13","size_leaf_vector":"1"}},{"base_weights":[-1.4961392E-1,-2.3348363E-1,5.2967024E-1,-5.698482E-1,-4.4274077E-2,-7.647674E-1,1.6627446E-1,4.4227764E-1,-7.3001987E-1,8.994412E-1,-5.505456E-2,-1.0510068E0,-1.8110268E-1],"categories":[],"categories_nodes":[],"categories_segments":[],"categories_sizes":[],"default_left":[0,0,0,0,0,0,0,0,0,0,0,0,0],"id":33,"left_children":[1,3,-1,11,5,-1,7,9,-1,-1,-1,-1,-1],"loss_changes":[6.0062857E0,5.964527E0,0E0,6.283002E0,9.152565E0,0E0,1.1519411E1,8.127807E0,0E0,0E0,0E0,0E0,0E0],"parents":[2147483647,0,0,1,1,4,4,6,6,7,7,3,3],"right_children":[2,4,-1,12,6,-1,8,10,-1,-1,-1,-1,-1],"split_conditions":[6.295E1,4.6E-4,5.2967024E-1,3E0,-9.70131E-1,-7.647674E-1,1.238619E0,1.8438837E2,-7.3001987E-1,8.994412E-1,-5.505456E-2,-1.0510068E0,-1.8110268E-1],"split_indices":[5,9,0,3,11,0,11,8,0,0,0,0,0],"split_type":[0,0,0,0,0,0,0,0,0,0,0,0,0],"sum_hessian":[1.0552574E2,9.397182E1,1.1553925E1,3.3769226E1,6.0202587E1,1.3635703E1,4.6566883E1,3.5631516E1,1.093537E1,1.8588394E1,1.7043121E1,1.50497E1,1.8719526E1],"tree_param":{"num_deleted":"0","num_feature":"15","num_nodes":"13","size_leaf_vector":"1"}},{"base_weights":[9.996905E-3,5.5453324E-1,-2.0371218E-1,-1.2596219E0,1.2278062E-2,-1.7869034E-1,8.545766E-1,7.6327914E-1,-5.19081E-1,2.0317861E-3,9.305439E-1,-1.088252E0,-2.5290355E-1,2.4569106E-1,-7.0867944E-1],"categories":[],"categories_nodes":[],"categories_segments":[],"categories_sizes":[],"default_left":[0,0,0,0,0,0,0,0,0,0,0,0,0,0,0],"id":34,"left_children":[1,9,3,-1,5,7,-1,-1,11,-1,-1,-1,13,-1,-1],"loss_changes":[1.158869E1,5.8081455E0,1.632291E1,0E0,9.5564375E0,1.5489339E1,0E0,0E0,5.3408785E0,0E0,0E0,0E0,5.525501E0,0E0,0E0],"parents":[2147483647,0,0,2,2,4,4,5,5,1,1,8,8,12,12],"right_children":[2,10,4,-1,6,8,-1,-1,12,-1,-1,-1,14,-1,-1],"split_conditions":[8.8865E-1,6E-4,1.18156E0,-1.2596219E0,8.675E-2,2E-3,8.545766E-1,7.6327914E-1,4.451E1,2.0317861E-3,9.305439E-1,-1.088252E0,5.335E1,2.4569106E-1,-7.0867944E-1],"split_indices":[7,10,7,0,9,10,0,0,5,0,0,0,5,0,0],"split_type":[0,0,0,0,0,0,0,0,0,0,0,0,0,0,0],"sum_hessian":[9.9475136E1,2.8066626E1,7.140851E1,1.2136922E1,5.9271587E1,4.82992E1,1.0972389E1,1.2795084E1,3.5504116E1,1.1400446E1,1.666618E1,1.12677E1,2.4236416E1,1.1548979E1,1.2687436E1],"tree_param":{"num_deleted":"0","num_feature":"15","num_nodes":"15","size_leaf_vector":"1"}},{"base_weights":[-8.6373396E-2,3.909463E-1,-3.5576987E-1,-6.261082E-2,1.0152315E0,-1.1449041E-2,-6.736965E-1,-2.9049027E-1,3.2267308E-1,-1.0820591E0,-4.6268937E-1],"categories":[],"categories_nodes":[],"categories_segments":[],"categories_sizes":[],"default_left":[0,0,0,0,0,0,0,0,0,0,0],"id":35,"left_children":[1,3,5,-1,-1,7,9,-1,-1,-1,-1],"loss_changes":[1.2643708E1,1.0061886E1,6.8660207E0,0E0,0E0,2.8204088E0,2.7655716E0,0E0,0E0,0E0,0E0],"parents":[2147483647,0,0,1,1,2,2,5,5,6,6],"right_children":[2,4,6,-1,-1,8,10,-1,-1,-1,-1],"split_conditions":[4.511E1,8.1E1,5E0,-6.261082E-2,1.0152315E0,1.35653E0,5.1E-4,-2.9049027E-1,3.2267308E-1,-1.0820591E0,-4.6268937E-1],"split_indices":[5,6,0,0,0,7,9,0,0,0,0],"split_type":[0,0,0,0,0,0,0,0,0,0,0],"sum_hessian":[9.830715E1,3.542828E1,6.287887E1,2.0501705E1,1.4926576E1,3.023391E1,3.264496E1,1.6520105E1,1.3713805E1,1.1059205E1,2.1585754E1],"tree_param":{"num_deleted":"0","num_feature":"15","num_nodes":"11","size_leaf_vector":"1"}},{"base_weights":[2.144176E-1,8.68319E-2,8.447687E-1,2.0300806E-1,-6.535971E-1,5.3969026E-1,-1.3102797E-1,-8.086893E-1,1.660591E-1,8.622554E-1,-3.462235E-1,2.2381575E-1,9.682262E-1],"categories":[],"categories_nodes":[],"categories_segments":[],"categories_sizes":[],"default_left":[0,0,0,0,0,0,0,0,0,0,0,0,0],"id":36,"left_children":[1,3,-1,5,-1,11,7,-1,9,-1,-1,-1,-1],"loss_changes":[8.245403E0,7.351815E0,0E0,8.336817E0,0E0,4.960803E0,7.4937944E0,0E0,9.217499E0,0E0,0E0,0E0,0E0],"parents":[2147483647,0,0,1,1,3,3,6,6,8,8,5,5],"right_children":[2,4,-1,6,-1,12,8,-1,10,-1,-1,-1,-1],"split_conditions":[8.7E1,2.1330502E2,8.447687E-1,1E0,-6.535971E-1,7.9E1,4.564E1,-8.086893E-1,5.46E1,8.622554E-1,-3.462235E-1,2.2381575E-1,9.682262E-1],"split_indices":[6,7,0,13,0,6,5,0,5,0,0,0,0],"split_type":[0,0,0,0,0,0,0,0,0,0,0,0,0],"sum_hessian":[1.0283755E2,8.557484E1,1.7262707E1,7.4008766E1,1.1566073E1,3.6894806E1,3.711396E1,1.1332649E1,2.578131E1,1.0947519E1,1.483379E1,2.1287258E1,1.5607548E1],"tree_param":{"num_deleted":"0","num_feature":"15","num_nodes":"13","size_leaf_vector":"1"}},{"base_weights":[-4.8189523E-4,2.3368898E-1,-4.1910568E-1,-1.3306423E0,7.436713E-2,-8.509254E-2,6.2913704E-1,1.7310527E-1,1.2168573E0,2.3343313E-1,-4.4464317E-1,4.0512958E-1,-2.9929298E-1],"categories":[],"categories_nodes":[],"categories_segments":[],"categories_sizes":[],"default_left":[0,0,0,0,0,0,0,0,0,0,0,0,0],"id":37,"left_children":[1,5,3,-1,11,9,7,-1,-1,-1,-1,-1,-1],"loss_changes":[1.0193219E1,8.411984E0,1.6824108E1,0E0,2.9963524E0,4.2275743E0,7.937909E0,0E0,0E0,0E0,0E0,0E0,0E0],"parents":[2147483647,0,0,2,2,1,1,6,6,5,5,4,4],"right_children":[2,6,4,-1,12,10,8,-1,-1,-1,-1,-1,-1],"split_conditions":[8.3E1,1.34896E0,4.541E1,-1.3306423E0,2E0,7.6E1,7.7E1,1.7310527E-1,1.2168573E0,2.3343313E-1,-4.4464317E-1,4.0512958E-1,-2.9929298E-1],"split_indices":[6,8,5,0,3,6,6,0,0,0,0,0,0],"split_type":[0,0,0,0,0,0,0,0,0,0,0,0,0],"sum_hessian":[1.0390355E2,6.659337E1,3.7310177E1,1.31157E1,2.4194477E1,3.683853E1,2.9754839E1,1.6790056E1,1.2964782E1,1.9496103E1,1.734243E1,1.287186E1,1.1322618E1],"tree_param":{"num_deleted":"0","num_feature":"15","num_nodes":"13","size_leaf_vector":"1"}},{"base_weights":[-1.6858722E-1,-5.189826E-1,1.996564E-1,9.5313E-1,-1.3442993E-1,5.604841E-1,-6.2847537E-1,-8.2730526E-1,-1.4278336E-1,-4.2229792E-1,-1.2834421E0,-5.147265E-1,2.0388602E-1],"categories":[],"categories_nodes":[],"categories_segments":[],"categories_sizes":[],"default_left":[0,0,0,0,0,0,0,0,0,0,0,0,0],"id":38,"left_children":[1,7,3,-1,5,-1,-1,9,11,-1,-1,-1,-1],"loss_changes":[1.2740981E1,5.841216E0,1.2126717E1,0E0,1.1437825E1,0E0,0E0,5.0760803E0,2.9556878E0,0E0,0E0,0E0,0E0],"parents":[2147483647,0,0,2,2,4,4,1,1,7,7,8,8],"right_children":[2,8,4,-1,6,-1,-1,10,12,-1,-1,-1,-1],"split_conditions":[1E0,2.72727E-1,-9.11722E-1,9.5313E-1,1.17496E0,5.604841E-1,-6.2847537E-1,7.8E1,5.7E-4,-4.2229792E-1,-1.2834421E0,-5.147265E-1,2.0388602E-1],"split_indices":[13,11,11,0,7,0,0,6,9,0,0,0,0],"split_type":[0,0,0,0,0,0,0,0,0,0,0,0,0],"sum_hessian":[9.865282E1,5.058648E1,4.8066334E1,1.4782906E1,3.328343E1,1.3806627E1,1.9476799E1,2.7752996E1,2.2833485E1,1.4745319E1,1.3007677E1,1.1049892E1,1.1783592E1],"tree_param":{"num_deleted":"0","num_feature":"15","num_nodes":"13","size_leaf_vector":"1"}},{"base_weights":[5.7206854E-2,8.125811E-1,-1.4429381E-1,-5.988583E-1,1.9510964E-1,1.2808548E-1,-1.0110205E0,-4.091928E-2,7.506349E-1,-4.420408E-1,2.970852E-1],"categories":[],"categories_nodes":[],"categories_segments":[],"categories_sizes":[],"default_left":[0,0,0,0,0,0,0,0,0,0,0],"id":39,"left_children":[1,-1,3,5,7,-1,-1,9,-1,-1,-1],"loss_changes":[1.4528105E1,0E0,1.1618992E1,9.672313E0,5.6639132E0,0E0,0E0,4.098695E0,0E0,0E0,0E0],"parents":[2147483647,0,0,2,2,3,3,4,4,7,7],"right_children":[2,-1,4,6,8,-1,-1,10,-1,-1,-1],"split_conditions":[8.1E-4,8.125811E-1,-3.06245E-1,1E0,6E0,1.2808548E-1,-1.0110205E0,3E0,7.506349E-1,-4.420408E-1,2.970852E-1],"split_indices":[10,0,11,13,0,0,0,12,0,0,0],"split_type":[0,0,0,0,0,0,0,0,0,0,0],"sum_hessian":[9.5306366E1,2.0089766E1,7.52166E1,3.218328E1,4.3033318E1,1.1624325E1,2.0558958E1,3.0175737E1,1.2857581E1,1.383431E1,1.6341429E1],"tree_param":{"num_deleted":"0","num_feature":"15","num_nodes":"11","size_leaf_vector":"1"}},{"base_weights":[-6.939173E-3,5.897894E-1,-3.241295E-1,-7.368772E-1,7.4496426E-2,-2.940196E-1,7.5992996E-1,1.21245526E-1,8.9558065E-1,-1.1382854E0,-3.6574402E-1,-6.612797E-1,8.550545E-2],"categories":[],"categories_nodes":[],"categories_segments":[],"categories_sizes":[],"default_left":[0,0,0,0,0,0,0,0,0,0,0,0,0],"id":40,"left_children":[1,7,3,9,5,11,-1,-1,-1,-1,-1,-1,-1],"loss_changes":[1.9606348E1,5.119586E0,1.1155692E1,4.913143E0,8.707831E0,3.1334925E0,0E0,0E0,0E0,0E0,0E0,0E0,0E0],"parents":[2147483647,0,0,2,2,4,4,1,1,3,3,5,5],"right_children":[2,8,4,10,6,12,-1,-1,-1,-1,-1,-1,-1],"split_conditions":[4.571E1,7.7E1,2.09E-3,5.645E1,8.2E1,5.528E1,7.5992996E-1,1.21245526E-1,8.9558065E-1,-1.1382854E0,-3.6574402E-1,-6.612797E-1,8.550545E-2],"split_indices":[5,6,10,5,6,5,0,0,0,0,0,0,0],"split_type":[0,0,0,0,0,0,0,0,0,0,0,0,0],"sum_hessian":[1.0359739E2,3.592154E1,6.767585E1,3.327694E1,3.4398907E1,2.2350388E1,1.2048521E1,1.4227996E1,2.1693542E1,1.593825E1,1.733869E1,1.13901005E1,1.0960286E1],"tree_param":{"num_deleted":"0","num_feature":"15","num_nodes":"13","size_leaf_vector":"1"}},{"base_weights":[-7.543493E-2,2.9428545E-1,-4.4650593E-1,-1.0918643E0,-1.011523E-1,3.7003413E-1,-7.4643904E-1,4.9011916E-1,-2.9742938E-1,-4.757371E-2,8.942177E-1],"categories":[],"categories_nodes":[],"categories_segments":[],"categories_sizes":[],"default_left":[0,0,0,0,0,0,0,0,0,0,0],"id":41,"left_children":[1,7,3,-1,5,-1,-1,9,-1,-1,-1],"loss_changes":[1.3719317E1,5.805818E0,1.1094337E1,0E0,9.9156885E0,0E0,0E0,8.201405E0,0E0,0E0,0E0],"parents":[2147483647,0,0,2,2,4,4,1,1,7,7],"right_children":[2,8,4,-1,6,-1,-1,10,-1,-1,-1],"split_conditions":[8E1,1.7109E-1,8.4E1,-1.0918643E0,6.7E-4,3.7003413E-1,-7.4643904E-1,7.2E1,-2.9742938E-1,-4.757371E-2,8.942177E-1],"split_indices":[6,10,6,0,9,0,0,6,0,0,0],"split_type":[0,0,0,0,0,0,0,0,0,0,0],"sum_hessian":[9.994463E1,5.0028168E1,4.991647E1,1.7363155E1,3.2553314E1,1.8793743E1,1.3759571E1,3.7624187E1,1.2403978E1,1.6119745E1,2.1504444E1],"tree_param":{"num_deleted":"0","num_feature":"15","num_nodes":"11","size_leaf_vector":"1"}},{"base_weights":[-1.1557664E-1,-7.329715E-1,1.2485984E-1,4.315416E-1,-4.9721822E-1,-1.4801651E0,-2.4785942E-1,-5.3927645E-2,6.623482E-1,1.2325026E0,2.5506368E-1,-9.4732356E-1,-8.860717E-2],"categories":[],"categories_nodes":[],"categories_segments":[],"categories_sizes":[],"default_left":[0,0,0,0,0,0,0,0,0,0,0,0,0],"id":42,"left_children":[1,5,3,7,11,-1,-1,-1,9,-1,-1,-1,-1],"loss_changes":[1.5022725E1,1.02298975E1,1.3876438E1,5.4794207E0,4.38348E0,0E0,0E0,0E0,7.637247E0,0E0,0E0,0E0,0E0],"parents":[2147483647,0,0,2,2,1,1,3,3,8,8,4,4],"right_children":[2,6,4,8,12,-1,-1,-1,10,-1,-1,-1,-1],"split_conditions":[1.06E-3,4.697E1,6.5E1,4.428E1,4.868E1,-1.4801651E0,-2.4785942E-1,-5.3927645E-2,1.3529E0,1.2325026E0,2.5506368E-1,-9.4732356E-1,-8.860717E-2],"split_indices":[10,5,4,5,5,0,0,0,8,0,0,0,0],"split_type":[0,0,0,0,0,0,0,0,0,0,0,0,0],"sum_hessian":[1.01068726E2,2.8352036E1,7.271669E1,4.8737137E1,2.3979555E1,1.1128489E1,1.7223547E1,1.5670008E1,3.306713E1,1.3739733E1,1.9327398E1,1.1370573E1,1.2608982E1],"tree_param":{"num_deleted":"0","num_feature":"15","num_nodes":"13","size_leaf_vector":"1"}},{"base_weights":[1.8588273E-1,6.3450146E-1,-5.313575E-2,1.4613187E0,-1.4080043E-1,-2.9982516E-1,3.5923657E-1,1.7931685E-1,-8.29955E-1,8.459747E-1,-5.5766497E-2],"categories":[],"categories_nodes":[],"categories_segments":[],"categories_sizes":[],"default_left":[0,0,0,0,0,0,0,0,0,0,0],"id":43,"left_children":[1,3,5,-1,-1,7,9,-1,-1,-1,-1],"loss_changes":[1.0419603E1,2.1682621E1,6.436107E0,0E0,0E0,1.0087448E1,4.7986917E0,0E0,0E0,0E0,0E0],"parents":[2147483647,0,0,1,1,2,2,5,5,6,6],"right_children":[2,4,6,-1,-1,8,10,-1,-1,-1,-1],"split_conditions":[1.17752E0,1E0,1.8549857E2,1.4613187E0,-1.4080043E-1,1.80412E-1,8.355E-2,1.7931685E-1,-8.29955E-1,8.459747E-1,-5.5766497E-2],"split_indices":[8,13,8,0,0,11,9,0,0,0,0],"split_type":[0,0,0,0,0,0,0,0,0,0,0],"sum_hessian":[9.70079E1,3.3751244E1,6.3256653E1,1.6344297E1,1.7406944E1,3.962285E1,2.3633804E1,2.0789974E1,1.8832874E1,1.0900651E1,1.2733153E1],"tree_param":{"num_deleted":"0","num_feature":"15","num_nodes":"11","size_leaf_vector":"1"}},{"base_weights":[8.526444E-3,-5.6029433E-1,3.288336E-1,-2.414381E-1,9.955583E-1,-1.1978678E0,3.541488E-2,1.807032E0,4.7528678E-1,-5.576097E-1,2.1437094E-1],"categories":[],"categories_nodes":[],"categories_segments":[],"categories_sizes":[],"default_left":[0,0,0,0,0,0,0,0,0,0,0],"id":44,"left_children":[1,5,3,9,7,-1,-1,-1,-1,-1,-1],"loss_changes":[1.8082993E1,1.3605107E1,2.418522E1,4.9453163E0,1.2305576E1,0E0,0E0,0E0,0E0,0E0,0E0],"parents":[2147483647,0,0,2,2,1,1,4,4,3,3],"right_children":[2,6,4,10,8,-1,-1,-1,-1,-1,-1],"split_conditions":[1.17022E0,1E0,5E0,5.811E-2,3.43E-3,-1.1978678E0,3.541488E-2,1.807032E0,4.7528678E-1,-5.576097E-1,2.1437094E-1],"split_indices":[7,13,0,9,10,0,0,0,0,0,0],"split_type":[0,0,0,0,0,0,0,0,0,0,0],"sum_hessian":[9.925751E1,3.5723324E1,6.3534184E1,3.422667E1,2.930751E1,1.727092E1,1.8452404E1,1.1416459E1,1.7891052E1,2.024224E1,1.3984429E1],"tree_param":{"num_deleted":"0","num_feature":"15","num_nodes":"11","size_leaf_vector":"1"}}]},"name":"gbtree"},"learner_model_param":{"base_score":"4.292284E-1","boost_from_average":"1","num_class":"0","num_feature":"15","num_target":"1"},"objective":{"name":"binary:logistic","reg_loss_param":{"scale_pos_weight":"1"}}},"version":[2,1,4]}