{"learner":{"attributes":{},"feature_names":["category","market_type","indicator","trend_dir","score","rsi","body","ema50","ema200","atr","dist","relative_momentum","symbol_enc","side_enc","raw_market_type_enc"],"feature_types":["float","float","float","float","float","float","float","float","float","float","float","float","float","float","float"],"gradient_booster":{"model":{"gbtree_model_param":{"num_parallel_tree":"1","num_trees":"4"},"iteration_indptr":[0,1,2,3,4],"tree_info":[0,0,0,0],"trees":[{"base_weights":[3.5368735E-3,-9.703416E-4,4.460557E-2,-4.7984056E-4,1.425223E-1,3.572281E-1,4.2398375E-2,3.0967643E-4,1.7211857E-3,1.2544713E-3,-5.9089056E-5],"categories":[],"categories_nodes":[],"categories_segments":[],"categories_sizes":[],"default_left":[0,0,0,0,0,0,0,0,0,0,0],"id":0,"left_children":[1,-1,3,-1,5,7,9,-1,-1,-1,-1],"loss_changes":[5.734983E0,0E0,7.551413E0,0E0,4.92302E0,5.3363876E0,4.848142E0,0E0,0E0,0E0,0E0],"parents":[2147483647,0,0,2,2,4,4,5,5,6,6],"right_children":[2,-1,4,-1,6,8,10,-1,-1,-1,-1],"split_conditions":[3.621E1,-9.703416E-4,1.02E-3,-4.7984056E-4,1.86E-3,1.41E-3,4.001E1,3.0967643E-4,1.7211857E-3,1.2544713E-3,-5.9089056E-5],"split_indices":[5,0,10,0,10,10,5,0,0,0,0],"split_type":[0,0,0,0,0,0,0,0,0,0,0],"sum_hessian":[3.5379907E2,3.1584831E1,3.2221423E2,9.401996E1,2.2819427E2,7.027013E1,1.5792415E2,4.3092484E1,2.7177645E1,1.7628742E1,1.4029541E2],"tree_param":{"num_deleted":"0","num_feature":"15","num_nodes":"11","size_leaf_vector":"1"}},{"base_weights":[-6.2026447E-3,4.9829047E-2,-8.911989E-4,-1.7439921E-1,3.3726497E-4,-3.850278E-1,1.902907E-4,4.0175155E-4,-5.530206E-1,-1.2188324E-5,-2.7136167E-3],"categories":[],"categories_nodes":[],"categories_segments":[],"categories_sizes":[],"default_left":[0,0,0,0,0,0,0,0,0,0,0],"id":1,"left_children":[1,3,-1,5,-1,7,-1,-1,9,-1,-1],"loss_changes":[7.215799E0,6.0794168E0,0E0,4.7268085E0,0E0,4.6698146E0,0E0,0E0,1.0758624E1,0E0,0E0],"parents":[2147483647,0,0,1,1,3,3,5,5,8,8],"right_children":[2,4,-1,6,-1,8,-1,-1,10,-1,-1],"split_conditions":[1.61399E0,9.4E-4,-8.911989E-4,1E0,3.3726497E-4,7.7744E-1,1.902907E-4,4.0175155E-4,-4.87282E-1,-1.2188324E-5,-2.7136167E-3],"split_indices":[11,10,0,13,0,7,0,0,11,0,0],"split_type":[0,0,0,0,0,0,0,0,0,0,0],"sum_hessian":[3.6555075E2,3.1682632E2,4.8724445E1,8.5443825E1,2.313825E2,4.5537167E1,3.9906654E1,1.0772272E1,3.4764896E1,1.8361677E1,1.640322E1],"tree_param":{"num_deleted":"0","num_feature":"15","num_nodes":"11","size_leaf_vector":"1"}},{"base_weights":[-1.0052424E-2,8.230631E-2,-8.0558105E-4,-1.21065736E-1,2.9428312E-1,-5.3608743E-4,1.1877741E-3,4.725103E-1,2.4418533E-4,-3.6225482E-4,1.5740582E-3],"categories":[],"categories_nodes":[],"categories_segments":[],"categories_sizes":[],"default_left":[0,0,0,0,0,0,0,0,0,0,0],"id":2,"left_children":[1,3,-1,5,7,-1,-1,9,-1,-1,-1],"loss_changes":[1.0607016E1,1.2434391E1,0E0,8.300331E0,4.8296146E0,0E0,0E0,7.1051846E0,0E0,0E0,0E0],"parents":[2147483647,0,0,1,1,3,3,4,4,7,7],"right_children":[2,4,-1,6,8,-1,-1,10,-1,-1,-1],"split_conditions":[1.029443E0,4.841E1,-8.0558105E-4,4.11671E-1,2E0,-5.3608743E-4,1.1877741E-3,8.6942E-1,2.4418533E-4,-3.6225482E-4,1.5740582E-3],"split_indices":[11,5,0,11,3,0,0,8,0,0,0],"split_type":[0,0,0,0,0,0,0,0,0,0,0],"sum_hessian":[3.6579446E2,2.832887E2,8.250577E1,1.4519246E2,1.3809624E2,1.2731927E2,1.7873194E1,7.05191E1,6.757714E1,1.3956529E1,5.656257E1],"tree_param":{"num_deleted":"0","num_feature":"15","num_nodes":"11","size_leaf_vector":"1"}},{"base_weights":[-2.6729546E-2,2.8192213E-1,-5.1268853E-2,-8.820344E-4,1.5614071E-3,-1.2305313E-3,-2.0965805E-2,1.213344E-3,-3.9301183E-2,-7.817731E-4,8.520089E-7],"categories":[],"categories_nodes":[],"categories_segments":[],"categories_sizes":[],"default_left":[0,0,0,0,0,0,0,0,0,0,0],"id":3,"left_children":[1,3,5,-1,-1,-1,7,-1,9,-1,-1],"loss_changes":[2.828615E0,6.476568E0,4.5146494E0,0E0,0E0,0E0,3.0360186E0,0E0,3.38313E0,0E0,0E0],"parents":[2147483647,0,0,1,1,2,2,6,6,8,8],"right_children":[2,4,6,-1,-1,-1,8,-1,10,-1,-1],"split_conditions":[7.7594E-1,7.6944E-1,7.7849E-1,-8.820344E-4,1.5614071E-3,-1.2305313E-3,2.3E-4,1.213344E-3,8.7059E-1,-7.817731E-4,8.520089E-7],"split_indices":[7,8,8,0,0,0,9,0,7,0,0],"split_type":[0,0,0,0,0,0,0,0,0,0,0],"sum_hessian":[3.6530334E2,2.4727331E1,3.40576E2,8.568896E0,1.6158436E1,1.9340351E1,3.2123566E2,8.812908E0,3.1242273E2,3.745697E1,2.7496576E2],"tree_param":{"num_deleted":"0","num_feature":"15","num_nodes":"11","size_leaf_vector":"1"}}]},"name":"gbtree"},"learner_model_param":{"base_score":"4.281922E-1","boost_from_average":"1","num_class":"0","num_feature":"15","num_target":"1"},"objective":{"name":"binary:logistic","reg_loss_param":{"scale_pos_weight":"1"}}},"version":[2,1,4]}