{"learner":{"attributes":{},"feature_names":["symbol_id","category","market_type","indicator","trend_dir","score","rsi","body","ema50","ema200","atr","dist","relative_momentum","side_enc","raw_market_type_enc"],"feature_types":["float","float","float","float","float","float","float","float","float","float","float","float","float","float","float"],"gradient_booster":{"model":{"gbtree_model_param":{"num_parallel_tree":"1","num_trees":"7"},"iteration_indptr":[0,1,2,3,4,5,6,7],"tree_info":[0,0,0,0,0,0,0],"trees":[{"base_weights":[2.999791E-4,-5.76832E-2,1.2276598E0,1.7146845E0,-9.3662746E-2,-0E0,2.0146766E0,-3.174522E-2,-1.0145077E0,1.0254701E0,-1.4496095E0,-7.6200634E-2,1.03358515E-1,-1.6057102E-1,3.0708835E-1,-2.3746532E-1,9.641912E-1,-1.04876734E-1,-9.221521E-1,-1.870364E-1,8.7905115E-1,1.9477688E0,-7.6200634E-2,-3.225141E-1,4.2891702E-1,3.5596285E-2,-7.156743E-1,-8.249139E-1,1.03358515E-1,-1.4273502E-1,1.2959756E0,1.21564925E-1,-0E0,-7.227017E-2,1.03358515E-1,-1.297011E-1,6.668625E-1,-1.0847318E0,9.912331E-1,1.2715441E0,-7.6200634E-2,1.6153082E0,-4.6356043E-1,1.7625539E-1,-1.0762168E0,1.7146845E0,-8.2464576E-1,3.3547264E-1,-5.580371E-1,1.033517E0,-1.1034374E0,-8.774873E-2,4.8888603E-1,-7.2856545E-2,-1.3572825E0,-1.2664716E0,-3.907473E-1,3.681936E-2,-1.3312674E0,1.3384345E0,-4.5976588E-1,-8.9232457E-1,1.0254701E0,6.280009E-1,-8.9744854E-1,9.483174E-2,5.845144E-1,9.641912E-1,-6.579409E-2,-3.264746E-1,1.4292498E0,1.03358515E-1,-5.3114973E-2,-1.0080807E0,6.9496685E-1,1.1419835E-1,-6.579409E-2,-1.7129386E-2,1.2325509E-1,1.20406374E-1,1.2857692E-1,-8.416446E-2,-0E0,1.1892092E-1,-1.7129386E-2,-1.7129386E-2,1.1892092E-1,5.2667554E-2,-8.646543E-2,-1.7129386E-2,1.16947494E-1,1.4832853E0,-3.264746E-1,-1.7129386E-2,1.1419835E-1,-0E0,1.1010423E-1,-0E0,1.5333532E0,-8.21605E-2,5.2667554E-2,-6.579409E-2,1.0254701E0,1.0254701E0,-6.579409E-2,1.8543317E0,-1.7129386E-2,-1.7129386E-2,1.21564925E-1,5.2667554E-2,-8.073443E-2,-7.763315E-2,-0E0,-6.579409E-2,9.0151474E-2,-8.073443E-2,1.6732076E-2,-1.2419641E0,5.2667554E-2,5.3885484E-1,-2.380155E-1,-2.1516131E-1,8.2001007E-1,1.4948527E0,2.941781E-1,1.21564925E-1,1.2857692E-1,-6.579409E-2,6.0833293E-1,-7.6200634E-2,2.1922402E-1,-5.3114973E-2,8.7905115E-1,-1.0188181E-1,8.299479E-2,9.0151474E-2,-5.3114973E-2,-1.7129386E-2,1.7146845E0,-1.7129386E-2,1.1892092E-1,5.2667554E-2,-1.1965562E0,1.03358515E-1,-1.7129386E-2,1.03358515E-1,-1.7129386E-2,1.03358515E-1,-1.7129386E-2,1.03358515E-1,-1.7129386E-2,-7.227017E-2,1.8510804E-1,-8.819874E-2,-0E0,-5.3114973E-2,1.0254701E0,1.03358515E-1,-1.7129386E-2,-5.3114973E-2,1.0254701E0,-1.7129386E-2,1.03358515E-1,1.23890445E-1,-0E0,-0E0,-1.4887199E0,-8.887455E-2,-0E0,-8.327273E-2,-0E0,-1.0188181E-1,9.0151474E-2,-6.579409E-2,5.7418066E-1,-6.579409E-2,5.7418066E-1,6.9496685E-1,-5.3114973E-2,-0E0,1.03358515E-1,-6.579409E-2,9.0151474E-2,-7.6292135E-2,-0E0,5.2667554E-2,-6.579409E-2,5.2667554E-2,-6.579409E-2,9.0151474E-2,-1.7129386E-2,9.0151474E-2,-1.7129386E-2],"categories":[],"categories_nodes":[],"categories_segments":[],"categories_sizes":[],"default_left":[0,0,0,0,0,0,0,0,0,0,0,0,0,0,0,0,0,0,0,0,0,0,0,0,0,0,0,0,0,0,0,0,0,0,0,0,0,0,0,0,0,0,0,0,0,0,0,0,0,0,0,0,0,0,0,0,0,0,0,0,0,0,0,0,0,0,0,0,0,0,0,0,0,0,0,0,0,0,0,0,0,0,0,0,0,0,0,0,0,0,0,0,0,0,0,0,0,0,0,0,0,0,0,0,0,0,0,0,0,0,0,0,0,0,0,0,0,0,0,0,0,0,0,0,0,0,0,0,0,0,0,0,0,0,0,0,0,0,0,0,0,0,0,0,0,0,0,0,0,0,0,0,0,0,0,0,0,0,0,0,0,0,0,0,0,0,0,0,0,0,0,0,0,0,0,0,0,0,0,0,0,0,0,0,0,0,0,0,0,0,0,0,0],"id":0,"left_children":[1,3,5,83,7,11,163,13,9,143,153,-1,-1,15,35,17,69,19,53,23,21,77,-1,25,29,47,27,55,-1,63,31,-1,33,-1,-1,41,37,99,39,65,-1,89,43,45,117,85,115,119,49,95,51,-1,71,73,165,111,57,59,87,137,61,81,145,91,141,-1,67,97,-1,185,79,-1,-1,109,75,-1,-1,-1,-1,-1,155,-1,101,-1,-1,-1,-1,-1,-1,-1,-1,93,187,-1,-1,-1,-1,103,105,-1,-1,-1,147,149,-1,107,-1,-1,-1,-1,-1,-1,113,-1,-1,-1,135,183,-1,121,129,151,123,125,127,-1,159,-1,131,-1,177,-1,133,173,-1,-1,-1,-1,139,-1,-1,-1,169,-1,-1,-1,-1,-1,-1,-1,-1,-1,171,-1,-1,-1,157,-1,-1,-1,161,-1,-1,-1,-1,-1,167,-1,-1,-1,-1,175,-1,-1,189,-1,191,179,-1,181,-1,-1,-1,-1,-1,-1,-1,-1,-1,-1,-1,-1,-1],"loss_changes":[8.43104E0,6.335975E0,5.7938147E0,2.5570564E0,5.6836724E0,5.1760798E0,1.4909792E0,4.293556E0,5.786845E0,1.7145853E0,1.6790333E0,0E0,0E0,6.0589194E0,4.374214E0,5.869111E0,3.0065613E0,4.4425354E0,3.4771013E0,4.44177E0,1.0364235E1,2.8485184E0,0E0,6.4759483E0,4.962384E0,3.9922223E0,5.871338E0,3.4449015E0,0E0,3.2165911E0,4.5642614E0,0E0,4.4979897E0,0E0,0E0,6.429728E0,8.54652E0,2.1758735E0,8.650616E0,3.0569286E0,0E0,2.4336748E0,4.206591E0,7.451291E0,1.9338279E0,2.5570564E0,1.9959074E0,1.9146612E0,6.380822E0,2.2661777E0,5.0061975E0,0E0,2.9233391E0,2.9197247E0,1.4730158E0,2.02176E0,4.8249006E0,5.019033E0,2.4835773E0,1.8450603E0,3.2609777E0,2.6155133E0,1.7145853E0,2.3890004E0,1.7386005E0,0E0,3.437111E0,2.2440882E0,0E0,1.2506382E0,2.7515287E0,0E0,0E0,2.080798E0,5.651572E0,0E0,0E0,0E0,0E0,0E0,1.5056704E0,0E0,2.1489654E0,0E0,0E0,0E0,0E0,0E0,0E0,0E0,0E0,2.2706604E0,1.2506382E0,0E0,0E0,0E0,0E0,2.1489654E0,2.1163387E0,0E0,0E0,0E0,1.7145853E0,1.7145853E0,0E0,2.7313461E0,0E0,0E0,0E0,0E0,0E0,0E0,2.5111516E0,0E0,0E0,0E0,1.8919859E0,1.3083496E0,0E0,2.7268317E0,2.3557317E0,1.698851E0,2.591908E0,2.9652004E0,2.3559227E0,0E0,1.5056704E0,0E0,1.9766682E0,0E0,1.3173089E0,0E0,3.1351562E0,1.3380414E0,0E0,0E0,0E0,0E0,2.5570564E0,0E0,0E0,0E0,1.366627E0,0E0,0E0,0E0,0E0,0E0,0E0,0E0,0E0,0E0,1.3527855E0,0E0,0E0,0E0,1.7145853E0,0E0,0E0,0E0,1.7145853E0,0E0,0E0,0E0,0E0,0E0,1.7278938E0,0E0,0E0,0E0,0E0,1.3380414E0,0E0,0E0,1.1842109E0,0E0,1.1842109E0,1.7833602E0,0E0,2.5111516E0,0E0,0E0,0E0,0E0,0E0,0E0,0E0,0E0,0E0,0E0,0E0,0E0,0E0],"parents":[2147483647,0,0,1,1,2,2,4,4,8,8,5,5,7,7,13,13,15,15,17,17,20,20,19,19,23,23,26,26,24,24,30,30,32,32,14,14,36,36,38,38,35,35,42,42,43,43,25,25,48,48,50,50,18,18,27,27,56,56,57,57,60,60,29,29,39,39,66,66,16,16,52,52,53,53,74,74,21,21,70,70,61,61,3,3,45,45,58,58,41,41,63,63,91,91,49,49,67,67,37,37,82,82,97,97,98,98,105,105,73,73,55,55,112,112,46,46,44,44,47,47,119,119,122,122,123,123,124,124,120,120,128,128,132,132,116,116,59,59,138,138,64,64,9,9,62,62,102,102,103,103,121,121,10,10,80,80,156,156,126,126,160,160,6,6,54,54,166,166,142,142,152,152,133,133,171,171,130,130,177,177,179,179,117,117,69,69,92,92,174,174,176,176],"right_children":[2,4,6,84,8,12,164,14,10,144,154,-1,-1,16,36,18,70,20,54,24,22,78,-1,26,30,48,28,56,-1,64,32,-1,34,-1,-1,42,38,100,40,66,-1,90,44,46,118,86,116,120,50,96,52,-1,72,74,166,112,58,60,88,138,62,82,146,92,142,-1,68,98,-1,186,80,-1,-1,110,76,-1,-1,-1,-1,-1,156,-1,102,-1,-1,-1,-1,-1,-1,-1,-1,94,188,-1,-1,-1,-1,104,106,-1,-1,-1,148,150,-1,108,-1,-1,-1,-1,-1,-1,114,-1,-1,-1,136,184,-1,122,130,152,124,126,128,-1,160,-1,132,-1,178,-1,134,174,-1,-1,-1,-1,140,-1,-1,-1,170,-1,-1,-1,-1,-1,-1,-1,-1,-1,172,-1,-1,-1,158,-1,-1,-1,162,-1,-1,-1,-1,-1,168,-1,-1,-1,-1,176,-1,-1,190,-1,192,180,-1,182,-1,-1,-1,-1,-1,-1,-1,-1,-1,-1,-1,-1,-1],"split_conditions":[9.2E1,1.9E-4,2.9E-4,6.066E1,1.984512E0,3E0,1.256216E0,8.4E1,7E1,1.834602E2,9.097E-2,-7.6200634E-2,1.03358515E-1,1.661538E0,1E0,6.146E1,8.7245E-1,2.9238E-1,1E0,8.57808E-1,8.501E-2,-2.573373E0,-7.6200634E-2,1.35178E0,1.36878E0,5.082E1,5.982E1,5.284E-2,1.03358515E-1,1.204918E0,5.233E-2,1.21564925E-1,2.1438681E2,-7.227017E-2,1.03358515E-1,6E-4,3.613E1,9.1E1,1.266166E0,3E0,-7.6200634E-2,3.216E1,8.7E1,-4.19162E-1,5.697E1,6.4E-4,8.6E1,1.16701E0,-9.35733E-1,-1.662011E0,1.16791E0,-8.774873E-2,7.8E1,4.942E-2,2.4E-4,4.13686E-1,2.1407718E2,7.1E1,3.477E1,1.8483002E2,5E0,4.575E1,5.5E1,6E0,3.884E1,9.483174E-2,1.25859E-1,3E0,-6.579409E-2,6.5E-4,6.4E-4,1.03358515E-1,-5.3114973E-2,-1.101368E0,2.1519957E2,1.1419835E-1,-6.579409E-2,-1.7129386E-2,1.2325509E-1,1.20406374E-1,1.1701E0,-8.416446E-2,8.1E1,1.1892092E-1,-1.7129386E-2,-1.7129386E-2,1.1892092E-1,5.2667554E-2,-8.646543E-2,-1.7129386E-2,1.16947494E-1,6.1E1,3.286E1,-1.7129386E-2,1.1419835E-1,-0E0,1.1010423E-1,8.6E1,8.892E-2,-8.21605E-2,5.2667554E-2,-6.579409E-2,1.7459E-1,1.17328E0,-6.579409E-2,7.2E-4,-1.7129386E-2,-1.7129386E-2,1.21564925E-1,5.2667554E-2,-8.073443E-2,-7.763315E-2,7.2E1,-6.579409E-2,9.0151474E-2,-8.073443E-2,1.35736E0,2.1483759E2,5.2667554E-2,2.3E-4,3.894E1,-1.815648E0,2.9E-4,1.09E-3,3E-4,1.21564925E-1,8.7453E-1,-6.579409E-2,8.7356E-1,-7.6200634E-2,4.739E1,-5.3114973E-2,3.518E1,4E0,8.299479E-2,9.0151474E-2,-5.3114973E-2,-1.7129386E-2,-2.741459E0,-1.7129386E-2,1.1892092E-1,5.2667554E-2,1.540453E0,1.03358515E-1,-1.7129386E-2,1.03358515E-1,-1.7129386E-2,1.03358515E-1,-1.7129386E-2,1.03358515E-1,-1.7129386E-2,-7.227017E-2,4.829E1,-8.819874E-2,-0E0,-5.3114973E-2,2.1413739E2,1.03358515E-1,-1.7129386E-2,-5.3114973E-2,1.18E-3,-1.7129386E-2,1.03358515E-1,1.23890445E-1,-0E0,-0E0,9.172E-2,-8.887455E-2,-0E0,-8.327273E-2,-0E0,1E0,9.0151474E-2,-6.579409E-2,7.8E1,-6.579409E-2,8.1E1,2.04E-3,-5.3114973E-2,4.36E1,1.03358515E-1,-6.579409E-2,9.0151474E-2,-7.6292135E-2,-0E0,5.2667554E-2,-6.579409E-2,5.2667554E-2,-6.579409E-2,9.0151474E-2,-1.7129386E-2,9.0151474E-2,-1.7129386E-2],"split_indices":[7,11,10,6,12,0,12,7,7,8,10,0,0,12,13,6,8,11,13,12,10,12,0,8,9,6,6,10,0,12,10,0,8,0,0,11,6,7,12,4,0,6,7,12,6,11,7,8,12,12,8,0,7,10,10,12,8,7,6,8,0,6,5,1,6,0,12,0,0,11,10,0,0,12,8,0,0,0,0,0,8,0,7,0,0,0,0,0,0,0,0,7,6,0,0,0,0,7,10,0,0,0,11,8,0,11,0,0,0,0,0,0,7,0,0,0,8,9,0,10,6,12,10,11,10,0,9,0,8,0,6,0,6,1,0,0,0,0,12,0,0,0,12,0,0,0,0,0,0,0,0,0,6,0,0,0,8,0,0,0,11,0,0,0,0,0,10,0,0,0,0,13,0,0,7,0,7,11,0,6,0,0,0,0,0,0,0,0,0,0,0,0,0],"split_type":[0,0,0,0,0,0,0,0,0,0,0,0,0,0,0,0,0,0,0,0,0,0,0,0,0,0,0,0,0,0,0,0,0,0,0,0,0,0,0,0,0,0,0,0,0,0,0,0,0,0,0,0,0,0,0,0,0,0,0,0,0,0,0,0,0,0,0,0,0,0,0,0,0,0,0,0,0,0,0,0,0,0,0,0,0,0,0,0,0,0,0,0,0,0,0,0,0,0,0,0,0,0,0,0,0,0,0,0,0,0,0,0,0,0,0,0,0,0,0,0,0,0,0,0,0,0,0,0,0,0,0,0,0,0,0,0,0,0,0,0,0,0,0,0,0,0,0,0,0,0,0,0,0,0,0,0,0,0,0,0,0,0,0,0,0,0,0,0,0,0,0,0,0,0,0,0,0,0,0,0,0,0,0,0,0,0,0,0,0,0,0,0,0],"sum_hessian":[1.1300379E2,1.0766885E2,5.3349433E0,1.9399793E0,1.05728874E2,1.9399793E0,3.3949637E0,9.942394E1,6.3049326E0,9.6998966E-1,5.3349433E0,1.2124871E0,7.274922E-1,7.274922E1,2.6674715E1,6.838427E1,4.3649535E0,5.7714386E1,1.0669887E1,5.359193E1,4.122456E0,2.9099689E0,1.2124871E0,4.4377026E1,9.214902E0,2.2794758E1,2.158227E1,2.0854778E1,7.274922E-1,5.3349433E0,3.8799586E0,2.1824768E0,1.6974819E0,9.6998966E-1,7.274922E-1,1.1639875E1,1.503484E1,2.1824768E0,1.2852363E1,1.1639875E1,1.2124871E0,1.6974819E0,9.942394E0,4.607451E0,5.3349433E0,1.9399793E0,2.6674716E0,1.55198345E1,7.2749224E0,1.6974819E0,5.5774407E0,4.3649535E0,1.2124871E0,3.8799586E0,6.7899275E0,9.942394E0,1.0912384E1,7.2749224E0,3.6374612E0,2.1824768E0,5.092446E0,4.122456E0,9.6998966E-1,2.4249742E0,2.9099689E0,6.54743E0,5.092446E0,4.3649535E0,7.274922E-1,9.6998966E-1,3.3949637E0,7.274922E-1,4.8499483E-1,1.9399793E0,1.9399793E0,1.2124871E0,7.274922E-1,2.4249741E-1,2.6674716E0,1.9399793E0,1.4549844E0,2.4249742E0,1.6974819E0,1.6974819E0,2.4249741E-1,2.4249741E-1,1.6974819E0,2.4249741E-1,3.3949637E0,2.4249741E-1,1.4549844E0,1.4549844E0,9.6998966E-1,2.4249741E-1,1.2124871E0,7.274922E-1,9.6998966E-1,1.6974819E0,2.6674716E0,1.9399793E0,2.4249741E-1,7.274922E-1,9.6998966E-1,9.6998966E-1,7.274922E-1,2.4249742E0,2.4249741E-1,2.4249741E-1,2.1824768E0,2.4249741E-1,1.6974819E0,8.729907E0,1.2124871E0,7.274922E-1,4.8499483E-1,1.6974819E0,9.6998966E-1,5.092446E0,2.4249741E-1,1.1882373E1,3.6374612E0,2.9099689E0,8.9724045E0,3.6374612E0,5.3349433E0,2.1824768E0,1.4549844E0,7.274922E-1,4.607451E0,1.2124871E0,2.4249742E0,4.8499483E-1,4.122456E0,1.4549844E0,2.6674716E0,4.8499483E-1,4.8499483E-1,2.4249741E-1,1.9399793E0,2.4249741E-1,1.6974819E0,2.4249741E-1,2.6674716E0,7.274922E-1,2.4249741E-1,7.274922E-1,2.4249741E-1,7.274922E-1,2.4249741E-1,7.274922E-1,2.4249741E-1,9.6998966E-1,1.9399793E0,4.8499484E0,4.8499483E-1,4.8499483E-1,9.6998966E-1,7.274922E-1,2.4249741E-1,4.8499483E-1,9.6998966E-1,2.4249741E-1,7.274922E-1,2.9099689E0,4.8499483E-1,4.8499483E-1,6.3049326E0,5.8199377E0,4.8499483E-1,2.1824768E0,4.8499483E-1,1.4549844E0,4.8499483E-1,7.274922E-1,7.274922E-1,7.274922E-1,7.274922E-1,1.9399793E0,4.8499483E-1,1.2124871E0,7.274922E-1,7.274922E-1,4.8499483E-1,4.607451E0,4.8499483E-1,2.4249741E-1,7.274922E-1,2.4249741E-1,7.274922E-1,4.8499483E-1,2.4249741E-1,4.8499483E-1,2.4249741E-1],"tree_param":{"num_deleted":"0","num_feature":"15","num_nodes":"193","size_leaf_vector":"1"}},{"base_weights":[9.2241436E-4,6.008169E-1,-8.551385E-2,1.1641967E0,-2.6703572E-1,-9.3217754E-1,-0E0,3.5571218E-1,2.0217588E0,-1.3910903E-1,3.9882967E-1,-0E0,1.2318211E0,1.6163907E0,-6.352364E-1,-5.035624E-1,9.1057986E-2,3.498438E-1,-4.18015E-1,-0E0,-7.9396315E-2,-7.682335E-2,1.1519789E0,1.2170548E-1,3.0359477E-1,2.3870675E-1,1.1378158E-1,2.8746706E-1,-8.9070207E-1,-3.122137E-1,1.2731133E0,-6.27758E-2,1.7760612E0,8.0745734E-2,-1.0076236E0,-2.672488E-1,1.05905056E-1,-1.276516E0,8.351601E-2,9.535247E-2,-6.350637E-1,-6.578531E-1,3.9924622E-1,1.5697081E0,-4.7303882E-1,8.972636E-2,-9.562374E-1,8.2297504E-2,-1.3424419E0,-0E0,1.0926321E-1,-2.7569938E-1,4.7864974E-1,7.024563E-1,-4.201171E-1,5.3339773E-1,-7.675929E-2,1.0885473E-1,-3.5072505E-1,-7.588405E-2,8.330156E-2,-4.7255406E-1,-8.534617E-2,6.575492E-1,-8.2036155E-1,3.9609477E-1,-7.8370076E-1,-7.0350125E-2,1.2937592E0,-1.2936708E0,4.5421377E-1,-1.3332318E-2,1.2076843E-1,-5.6754464E-1,1.0129089E0,2.7985483E-2,-1.2940099E0,1.3997092E0,-2.8489554E-2,-2.9643592E-1,8.530047E-1,-7.547486E-2,9.489162E-2,1.1610962E-1,5.995212E-1,-8.2327284E-2,-0E0,-8.546851E-2,5.2667554E-2,-1.3545781E-2,1.0740199E-1,-4.9769786E-1,8.680943E-2,4.2272022E-1,-9.83188E-1,1.419136E0,-6.232126E-2,-7.22603E-2,2.821418E-2,-2.2863666E-2,1.1146123E-1,-1.0599644E-1,8.5208E-1,1.1293796E-1,-1.3332318E-2,1.3694769E0,2.5395972E-1,-8.928155E-1,1.0972781E0,1.9171333E0,5.0102487E-2,-6.7891575E-2,9.597358E-2,-1.3545781E-2,1.1621723E-1,4.5356438E-1,-1.060951E0,1.0041885E-1,-5.3985752E-2,-3.7310684E-1,-1.2932669E0,-2.2095656E-2,-1.0141853E0,-2.684556E-1,1.0359178E-1,-7.361179E-2,5.8663976E-1,-8.4095635E-2,4.6449486E-2,6.045139E-1,-5.511609E-1,1.0349847E-1,-3.9276963E-1,9.1400665E-1,-8.360539E-1,-1.3340813E0,-0E0,7.8933495E-1,-6.9311224E-2,-4.9955744E-2,1.0601337E-1,-8.553397E-2,4.7948092E-2,4.6820518E-2,-8.0351174E-2,1.007713E0,-6.2363684E-2,-0E0,1.6244453E0,1.1229774E-1,-1.37308E-2,9.085355E-2,-2.200118E-2,1.045307E-1,-2.2320531E-2,4.596635E-2,-7.711229E-2,-8.569764E-2,-7.942624E-2,9.072666E-2,-7.106022E-2,9.633138E-2,-2.103849E-2,-1.3001964E-2,1.0039549E-1,4.729128E-2,-7.3542476E-2,-1.3545781E-2,8.328673E-2,-8.37001E-2,-0E0,1.20688885E-1,-0E0,-8.443448E-2,-0E0,4.582186E-2,-6.822222E-2,-8.946055E-1,5.7924625E-2,-7.7208996E-2,4.5885153E-2,2.47307E-2,-7.98612E-1,-7.6508515E-2,4.6820518E-2,8.9577645E-2,-0E0,-1.3478339E-2,8.884896E-2,-0E0,1.2418343E0,-1.2980763E-2,1.04348905E-1],"categories":[],"categories_nodes":[],"categories_segments":[],"categories_sizes":[],"default_left":[0,0,0,0,0,0,0,0,0,0,0,0,0,0,0,0,0,0,0,0,0,0,0,0,0,0,0,0,0,0,0,0,0,0,0,0,0,0,0,0,0,0,0,0,0,0,0,0,0,0,0,0,0,0,0,0,0,0,0,0,0,0,0,0,0,0,0,0,0,0,0,0,0,0,0,0,0,0,0,0,0,0,0,0,0,0,0,0,0,0,0,0,0,0,0,0,0,0,0,0,0,0,0,0,0,0,0,0,0,0,0,0,0,0,0,0,0,0,0,0,0,0,0,0,0,0,0,0,0,0,0,0,0,0,0,0,0,0,0,0,0,0,0,0,0,0,0,0,0,0,0,0,0,0,0,0,0,0,0,0,0,0,0,0,0,0,0,0,0,0,0,0,0,0,0,0,0,0,0,0,0,0,0,0,0,0,0,0,0,0,0,0,0],"id":1,"left_children":[1,3,5,7,63,19,9,49,71,15,11,27,13,23,165,41,17,25,33,21,-1,-1,167,-1,77,51,-1,29,75,91,31,-1,89,35,37,39,-1,157,-1,-1,45,61,43,103,177,-1,47,-1,173,55,-1,65,53,79,115,57,-1,-1,59,-1,-1,73,-1,189,85,67,69,-1,151,169,185,-1,-1,119,163,-1,87,113,-1,81,83,-1,-1,-1,101,-1,145,-1,-1,-1,-1,93,-1,95,97,99,-1,-1,-1,-1,-1,181,105,-1,-1,109,107,155,147,171,111,-1,-1,-1,-1,117,143,-1,-1,121,127,123,125,129,-1,-1,187,-1,-1,131,133,-1,175,161,135,141,137,139,-1,-1,-1,-1,-1,-1,-1,153,-1,-1,149,-1,-1,-1,-1,-1,-1,-1,-1,-1,159,-1,-1,-1,-1,-1,-1,-1,-1,-1,-1,-1,-1,-1,-1,-1,-1,-1,-1,179,-1,-1,-1,-1,183,-1,-1,-1,-1,-1,-1,-1,191,-1,-1],"loss_changes":[6.286189E0,7.8006706E0,7.6542664E0,5.810192E0,3.0445051E0,5.110037E0,5.221649E0,3.3916833E0,2.7682743E0,5.8827024E0,8.292256E0,4.301695E0,6.113065E0,4.79768E0,1.5398633E0,3.861763E0,5.4405813E0,4.6540103E0,4.2915726E0,5.5619354E0,0E0,0E0,1.5028541E0,0E0,2.4950912E0,3.33495E0,0E0,7.6375694E0,2.6174614E0,2.3177629E0,6.233043E0,0E0,2.3439913E0,5.174618E0,4.421145E0,3.997249E0,0E0,1.659833E0,0E0,0E0,3.5448358E0,3.2993727E0,4.1066446E0,2.2381606E0,1.2296214E0,0E0,4.38238E0,0E0,1.3929725E0,3.3197744E0,0E0,2.8615146E0,3.8176394E0,2.4599586E0,2.1169233E0,4.4151125E0,0E0,0E0,3.424452E0,0E0,0E0,2.6642756E0,0E0,1.0632734E0,2.4569068E0,4.8675947E0,3.3429587E0,0E0,1.8827493E0,1.4376445E0,1.1311588E0,0E0,0E0,2.1021256E0,1.5878338E0,0E0,2.430705E0,2.1356668E0,0E0,3.7747328E0,3.461361E0,0E0,0E0,0E0,2.289823E0,0E0,1.9858804E0,0E0,0E0,0E0,0E0,3.32696E0,0E0,3.5763304E0,2.8407426E0,2.3104105E0,0E0,0E0,0E0,0E0,0E0,1.1713494E0,2.175621E0,0E0,0E0,2.5352545E0,4.3401766E0,1.7991306E0,1.9671695E0,1.396842E0,3.5722132E0,0E0,0E0,0E0,0E0,2.8399644E0,2.0169394E0,0E0,0E0,3.093346E0,2.2857957E0,4.3427386E0,3.0782628E0,2.2690048E0,0E0,0E0,1.1256356E0,0E0,0E0,3.1048338E0,3.02672E0,0E0,1.2349185E0,1.6079712E0,2.5041966E0,2.3778114E0,2.5234544E0,3.337929E0,0E0,0E0,0E0,0E0,0E0,0E0,0E0,1.8191922E0,0E0,0E0,2.2876458E0,0E0,0E0,0E0,0E0,0E0,0E0,0E0,0E0,0E0,3.1103287E0,0E0,0E0,0E0,0E0,0E0,0E0,0E0,0E0,0E0,0E0,0E0,0E0,0E0,0E0,0E0,0E0,0E0,0E0,1.8006989E0,0E0,0E0,0E0,0E0,1.7199662E0,0E0,0E0,0E0,0E0,0E0,0E0,0E0,1.8286933E0,0E0,0E0],"parents":[2147483647,0,0,1,1,2,2,3,3,6,6,10,10,12,12,9,9,16,16,5,5,19,19,13,13,17,17,11,11,27,27,30,30,18,18,33,33,34,34,35,35,15,15,42,42,40,40,46,46,7,7,25,25,52,52,49,49,55,55,58,58,41,41,4,4,51,51,65,65,66,66,8,8,61,61,28,28,24,24,53,53,79,79,80,80,64,64,76,76,32,32,29,29,91,91,93,93,94,94,95,95,84,84,43,43,102,102,106,106,105,105,110,110,77,77,54,54,115,115,73,73,119,119,121,121,122,122,120,120,123,123,129,129,130,130,134,134,136,136,137,137,135,135,116,116,86,86,108,108,148,148,68,68,145,145,107,107,37,37,158,158,133,133,74,74,14,14,22,22,69,69,109,109,48,48,132,132,44,44,177,177,101,101,182,182,70,70,126,126,63,63,190,190],"right_children":[2,4,6,8,64,20,10,50,72,16,12,28,14,24,166,42,18,26,34,22,-1,-1,168,-1,78,52,-1,30,76,92,32,-1,90,36,38,40,-1,158,-1,-1,46,62,44,104,178,-1,48,-1,174,56,-1,66,54,80,116,58,-1,-1,60,-1,-1,74,-1,190,86,68,70,-1,152,170,186,-1,-1,120,164,-1,88,114,-1,82,84,-1,-1,-1,102,-1,146,-1,-1,-1,-1,94,-1,96,98,100,-1,-1,-1,-1,-1,182,106,-1,-1,110,108,156,148,172,112,-1,-1,-1,-1,118,144,-1,-1,122,128,124,126,130,-1,-1,188,-1,-1,132,134,-1,176,162,136,142,138,140,-1,-1,-1,-1,-1,-1,-1,154,-1,-1,150,-1,-1,-1,-1,-1,-1,-1,-1,-1,160,-1,-1,-1,-1,-1,-1,-1,-1,-1,-1,-1,-1,-1,-1,-1,-1,-1,-1,180,-1,-1,-1,-1,184,-1,-1,-1,-1,-1,-1,-1,192,-1,-1],"split_conditions":[6.3E-4,8.7757E-1,-1.986696E0,7.9041E-1,3.3E-4,3.92E1,8.5E1,1.540453E0,6.1E1,5.5E-4,6E0,1.479E-1,2.3017E-1,8.98649E-1,-8.96552E-1,1.500133E0,1.8652E-1,2.1438681E2,6.6351E-2,3.347E1,-7.9396315E-2,-7.682335E-2,2E0,1.2170548E-1,5.14E1,4.133E1,1.1378158E-1,1.16833E0,4.92E1,2.480186E0,3.653E1,-6.27758E-2,2E0,-1.91483E-1,1.0383E-1,3.675E1,1.05905056E-1,1.661538E0,8.351601E-2,9.535247E-2,5.5E1,6.098E1,1.772407E0,8.2E1,6.386E1,8.972636E-2,1.843837E2,8.2297504E-2,9.764E-2,3.21839E-1,1.0926321E-1,1.35977E0,1.513514E0,6.3E1,5.429E1,1E0,-7.675929E-2,1.0885473E-1,7.8894E-1,-7.588405E-2,8.330156E-2,5.851E1,-8.534617E-2,8.1E1,1E0,1.69E-3,3.0345E-2,-7.0350125E-2,4.083E1,5.529E-2,4.493E-2,-1.3332318E-2,1.2076843E-1,5.174E1,7.88E-1,2.7985483E-2,9.172E-2,3.983E1,-2.8489554E-2,5.767E1,-1.101368E0,-7.547486E-2,9.489162E-2,1.1610962E-1,-4.54575E-1,-8.2327284E-2,5.718E1,-8.546851E-2,5.2667554E-2,-1.3545781E-2,1.0740199E-1,8.8E1,8.680943E-2,5.827E1,9.6E1,7.9041E-1,-6.232126E-2,-7.22603E-2,2.821418E-2,-2.2863666E-2,1.1146123E-1,-7.94996E-1,1.8483002E2,1.1293796E-1,-1.3332318E-2,5.429E1,1.8623582E2,4.276E1,-6.9307E-2,1.194539E0,6.066E1,-6.7891575E-2,9.597358E-2,-1.3545781E-2,1.1621723E-1,8.3E1,6.5E1,1.0041885E-1,-5.3985752E-2,8.8306E-1,1.83E-3,8.7992E-1,1.38916E0,8.3E-4,1.0359178E-1,-7.361179E-2,5.5E1,-8.4095635E-2,4.6449486E-2,7.9009E-1,-1.108276E0,1.0349847E-1,3E0,8.7564E-1,1.09263E-1,2.85E-3,6E0,4.19E1,-6.9311224E-2,-4.9955744E-2,1.0601337E-1,-8.553397E-2,4.7948092E-2,4.6820518E-2,-8.0351174E-2,6E0,-6.2363684E-2,-0E0,8E1,1.1229774E-1,-1.37308E-2,9.085355E-2,-2.200118E-2,1.045307E-1,-2.2320531E-2,4.596635E-2,-7.711229E-2,-8.569764E-2,5.5E1,9.072666E-2,-7.106022E-2,9.633138E-2,-2.103849E-2,-1.3001964E-2,1.0039549E-1,4.729128E-2,-7.3542476E-2,-1.3545781E-2,8.328673E-2,-8.37001E-2,-0E0,1.20688885E-1,-0E0,-8.443448E-2,-0E0,4.582186E-2,-6.822222E-2,1.38038E0,5.7924625E-2,-7.7208996E-2,4.5885153E-2,2.47307E-2,6E0,-7.6508515E-2,4.6820518E-2,8.9577645E-2,-0E0,-1.3478339E-2,8.884896E-2,-0E0,2E0,-1.2980763E-2,1.04348905E-1],"split_indices":[11,8,12,9,11,6,7,12,7,10,1,11,11,12,12,12,11,8,12,6,0,0,0,0,6,6,0,9,6,12,6,0,1,12,10,6,0,12,0,0,5,6,12,7,6,0,8,0,10,12,0,9,12,7,6,13,0,0,9,0,0,6,0,7,13,11,12,0,6,10,11,0,0,6,8,0,10,6,0,6,12,0,0,0,12,0,6,0,0,0,0,7,0,6,7,8,0,0,0,0,0,12,8,0,0,6,8,6,12,12,6,0,0,0,0,7,7,0,0,9,11,9,8,11,0,0,5,0,0,9,12,0,0,8,12,11,1,6,0,0,0,0,0,0,0,1,0,0,7,0,0,0,0,0,0,0,0,0,5,0,0,0,0,0,0,0,0,0,0,0,0,0,0,0,0,0,0,8,0,0,0,0,1,0,0,0,0,0,0,0,1,0,0],"split_type":[0,0,0,0,0,0,0,0,0,0,0,0,0,0,0,0,0,0,0,0,0,0,0,0,0,0,0,0,0,0,0,0,0,0,0,0,0,0,0,0,0,0,0,0,0,0,0,0,0,0,0,0,0,0,0,0,0,0,0,0,0,0,0,0,0,0,0,0,0,0,0,0,0,0,0,0,0,0,0,0,0,0,0,0,0,0,0,0,0,0,0,0,0,0,0,0,0,0,0,0,0,0,0,0,0,0,0,0,0,0,0,0,0,0,0,0,0,0,0,0,0,0,0,0,0,0,0,0,0,0,0,0,0,0,0,0,0,0,0,0,0,0,0,0,0,0,0,0,0,0,0,0,0,0,0,0,0,0,0,0,0,0,0,0,0,0,0,0,0,0,0,0,0,0,0,0,0,0,0,0,0,0,0,0,0,0,0,0,0,0,0,0,0],"sum_hessian":[1.1791097E2,1.5314316E1,1.0259666E2,9.51217E0,5.8021455E0,9.650814E0,9.294585E1,5.1097374E0,4.402433E0,6.847285E1,2.4473E1,1.64618E1,8.011199E0,6.7918015E0,1.2193979E0,2.7049591E1,4.1423256E1,2.789672E1,1.3526534E1,3.391243E0,6.2595706E0,1.4404353E0,1.9508076E0,4.4044266E0,2.3873746E0,2.6432777E1,1.463943E0,1.2349542E1,4.1122584E0,7.47907E0,4.870471E0,7.172297E-1,4.153241E0,7.03469E0,6.4918447E0,5.8009987E0,1.233691E0,5.999372E0,4.924724E-1,7.401983E-1,5.0608006E0,2.3418533E1,3.6310575E0,1.7047201E0,1.9263374E0,4.846979E-1,4.5761023E0,4.9362803E-1,4.0824747E0,4.139454E0,9.7028327E-1,7.969404E0,1.8463373E1,1.5079943E1,3.3834314E0,2.9272501E0,1.2122039E0,1.2252574E0,1.7019928E0,1.2093263E0,4.9266648E-1,1.9814392E1,3.6041412E0,1.9475932E0,3.8545523E0,3.1539145E0,4.81549E0,9.6113026E-1,2.192784E0,3.5985544E0,1.2169352E0,2.387536E-1,4.163679E0,1.8844606E1,9.697859E-1,7.322797E-1,3.379979E0,1.1936873E0,1.1936873E0,1.6853975E0,1.3394545E1,1.2067204E0,4.7867715E-1,1.9571393E0,1.1437406E1,2.1681273E0,1.6864251E0,3.1374815E0,2.4249741E-1,2.3898214E-1,3.9142592E0,6.9903364E0,4.8873362E-1,2.180225E0,4.8101115E0,1.4647257E0,7.154991E-1,4.0780616E0,7.3205006E-1,2.4676675E-1,1.217959E0,2.673965E0,8.76344E0,1.4659665E0,2.387536E-1,4.388315E0,4.375125E0,1.6877013E0,2.6874237E0,2.9175668E0,1.4707487E0,7.313988E-1,7.3934984E-1,2.3898214E-1,9.547052E-1,1.21645E0,2.1669815E0,7.3134315E-1,4.8510692E-1,1.5246577E1,3.5980294E0,1.0198971E1,5.0476065E0,9.215104E0,9.8386693E-1,4.3230195E0,7.24587E-1,3.351592E0,2.4643736E-1,1.9628404E0,7.2522635E0,9.8391545E-1,9.78925E-1,9.844266E-1,6.2678366E0,3.8556914E0,2.4121454E0,1.4558986E0,9.5624673E-1,4.7812337E-1,9.777753E-1,3.6100948E0,2.4559668E-1,2.462362E-1,1.9207451E0,9.70767E-1,7.156581E-1,7.27364E-1,1.9600598E0,1.7208812E0,2.3917852E-1,1.9465479E0,2.462362E-1,7.2432965E-1,2.4643736E-1,2.4669215E-1,1.4410092E0,4.5507193E0,1.4486526E0,4.8425913E-1,9.6439356E-1,7.388299E-1,2.4559668E-1,2.3839587E-1,7.3139E-1,2.4597433E-1,9.734236E-1,2.3898214E-1,1.7118255E0,3.113283E0,4.8527145E-1,2.4321754E0,4.853915E-1,3.5902638E0,4.9221054E-1,2.4676675E-1,7.3215824E-1,1.6879647E0,2.3837274E-1,1.4412305E0,2.4673417E-1,1.2163724E0,1.4575927E0,1.2113565E0,2.462362E-1,4.8491746E-1,7.3201776E-1,2.3891014E-1,4.8567688E-1,7.2743857E-1,1.2201546E0,2.3837274E-1,9.817819E-1],"tree_param":{"num_deleted":"0","num_feature":"15","num_nodes":"193","size_leaf_vector":"1"}},{"base_weights":[9.245833E-2,8.515368E-3,6.704511E-1,9.743614E-2,6.3220784E-2,-6.756871E-1,7.888755E-2,1.106049E0,-1.1953338E0,1.0786912E-1,-5.0933942E-2,4.8093325E-1,-1.5768485E-2,-3.2507902E-1,1.4385308E-1,1.3897608E-1,-6.657923E-1,-7.126266E-2,5.976281E-1,7.191853E-2,1.1765693E0,-4.6392877E-2,1.7006887E0,8.8215643E-1,-7.915674E-1,-8.9297545E-1,7.682429E-2,1.3187452E-1,-1.0197743E0,6.7835647E-1,2.8550515E-3,-8.270555E-2,1.3112944E-1,-1.0286357E0,2.1983321E-1,-7.292451E-2,2.9194045E-1,1.185312E0,1.4883512E-1,1.1806654E0,-0E0,-5.281739E-2,1.5132754E0,-4.2100754E-1,6.0982245E-1,-0E0,1.0459202E-1,9.022728E-1,-8.453377E-1,1.1928077E0,-6.4239264E-1,-7.964905E-2,7.9668656E-2,5.392944E-1,-4.4229642E-1,1.5349597E-1,1.0832288E-1,1.3235676E0,-1.9148816E-1,1.7324017E-1,1.0787813E-1,9.3602814E-2,-2.9121587E-2,3.017159E-1,1.1558127E0,-0E0,1.5860156E0,1.6164256E0,-2.6408909E-2,8.579745E-2,-6.641399E-2,1.0761789E-1,-1.852599E-2,-0E0,-7.868752E-2,-7.3468104E-2,9.4838315E-1,-2.7941963E-2,1.0624859E-1,-6.852001E-2,2.1433792E-1,3.052749E-1,-8.9083725E-1,-1.176618E-1,5.7317424E-1,6.4095265E-1,-9.2889977E-1,1.4569411E0,2.0943098E-1,1.0235186E-1,-5.918588E-2,1.1130922E0,-6.792417E-2,-3.3623788E-1,1.7501708E0,-1.2878553E0,2.588503E-2,1.1330503E-1,-1.9497098E-2,-2.0644842E-1,6.784102E-1,1.0970401E-1,-0E0,-9.0116864E-1,2.9220255E-2,9.0896495E-2,-5.2534586E-1,5.464987E-1,-8.034284E-2,-8.265968E-2,4.074588E-2,-7.654221E-2,1.3799854E-1,9.301064E-2,-2.1264706E-2,-5.245426E-1,8.3347134E-2,-7.959537E-2,3.4606025E-1,1.0221204E-1,-0E0,-3.4074074E-1,8.922109E-2,-7.8208745E-2,4.7518633E-2,9.72582E-2,-8.897011E-3,-1.057989E-2,9.997852E-2,-6.646052E-2,1.4185111E-1,5.145003E-2,-9.4938457E-1,1.1462793E0,-0E0,-9.980249E-1,3.0636954E-1,1.5397289E0,-2.5309014E-1,-1.9385817E-2,1.0809409E-1,4.6933073E-1,-9.794222E-1,1.0538464E-1,-6.028707E-2,-7.73158E-2,6.317119E-2,-1.8758418E-2,9.959478E-2,-1.6324058E-2,9.1783404E-2,-5.033799E-2,1.0058228E0,-1.8130647E-2,1.0247217E-1,-1.0490738E0,3.9975762E-2,9.1193765E-2,-1.1637375E-2,-7.755278E-2,-0E0,-7.047505E-2,-0E0,1.10197045E-1,-0E0,-6.8733975E-2,-0E0,4.142058E-2,-6.350746E-2,-6.368273E-2,4.049698E-2,-7.711862E-2,-0E0,-1.000349E-2,8.288934E-2,-0E0,-7.4455485E-2,-7.4870324E-1,-8.383848E-2,-8.8871896E-1,8.222142E-2,-1.1039011E0,-2.6276222E-1,4.584214E-1,-7.322893E-2,-7.1657486E-2,3.5385482E-2,-4.8043266E-2,1.2525579E0,-1.821148E-2,1.07067965E-1,8.949466E-2,-5.1198334E-2],"categories":[],"categories_nodes":[],"categories_segments":[],"categories_sizes":[],"default_left":[0,0,0,0,0,0,0,0,0,0,0,0,0,0,0,0,0,0,0,0,0,0,0,0,0,0,0,0,0,0,0,0,0,0,0,0,0,0,0,0,0,0,0,0,0,0,0,0,0,0,0,0,0,0,0,0,0,0,0,0,0,0,0,0,0,0,0,0,0,0,0,0,0,0,0,0,0,0,0,0,0,0,0,0,0,0,0,0,0,0,0,0,0,0,0,0,0,0,0,0,0,0,0,0,0,0,0,0,0,0,0,0,0,0,0,0,0,0,0,0,0,0,0,0,0,0,0,0,0,0,0,0,0,0,0,0,0,0,0,0,0,0,0,0,0,0,0,0,0,0,0,0,0,0,0,0,0,0,0,0,0,0,0,0,0,0,0,0,0,0,0,0,0,0,0,0,0,0,0,0,0,0,0,0,0,0,0,0,0,0,0,0,0],"id":2,"left_children":[1,5,3,-1,43,7,11,9,161,-1,-1,17,13,15,19,53,23,-1,63,27,21,-1,163,149,25,131,-1,29,123,39,31,-1,33,159,35,-1,37,59,79,41,-1,-1,113,47,45,49,-1,157,155,127,51,-1,-1,55,73,57,-1,77,115,61,-1,-1,-1,65,67,129,71,125,69,-1,-1,-1,-1,75,-1,-1,119,-1,-1,-1,81,83,175,85,87,91,95,89,99,-1,-1,93,-1,167,97,109,-1,-1,-1,103,101,-1,105,107,-1,-1,111,173,-1,-1,-1,-1,151,-1,-1,117,-1,-1,121,-1,-1,169,-1,-1,-1,-1,-1,-1,-1,-1,133,-1,177,147,135,171,137,139,141,-1,-1,143,145,-1,-1,-1,-1,-1,-1,-1,-1,-1,153,-1,-1,165,-1,-1,-1,-1,-1,-1,-1,-1,-1,-1,-1,-1,-1,-1,-1,-1,-1,-1,-1,-1,-1,179,-1,181,-1,185,183,187,-1,-1,191,-1,189,-1,-1,-1,-1],"loss_changes":[5.5783386E0,4.8573117E0,9.4446335E0,0E0,2.6488657E0,8.71685E0,3.7923546E0,3.9807756E0,1.1428795E0,0E0,0E0,3.7412357E0,3.850158E0,4.4187064E0,3.2960172E0,2.589515E0,3.078267E0,0E0,2.4719577E0,2.7866743E0,3.455741E0,0E0,1.1042233E0,1.440541E0,3.194561E0,1.5168228E0,0E0,2.938466E0,1.9594126E0,2.7780645E0,6.7708893E0,0E0,3.2540898E0,1.1702216E0,3.2798562E0,0E0,3.499051E0,2.4964676E0,2.1541166E0,3.5515728E0,0E0,0E0,2.085475E0,2.7284079E0,3.8134532E0,2.6791325E0,0E0,1.3690872E0,1.3718209E0,1.6844912E0,3.8957937E0,0E0,0E0,3.141343E0,2.2900918E0,2.6452053E0,0E0,2.2621508E0,2.0678394E0,2.573455E0,0E0,0E0,0E0,4.5560865E0,3.6922216E0,1.6297272E0,2.302875E0,1.954277E0,2.7302961E0,0E0,0E0,0E0,0E0,3.3847365E0,0E0,0E0,2.031434E0,0E0,0E0,0E0,2.4231896E0,2.9041162E0,9.567828E-1,5.6221166E0,4.3792357E0,3.9510012E0,2.5778697E0,4.9660234E0,2.336455E0,0E0,0E0,3.8950524E0,0E0,1.0661267E0,2.5660906E0,2.1439452E0,0E0,0E0,0E0,3.0130568E0,5.627818E0,0E0,2.9619393E0,2.9584498E0,0E0,0E0,2.1360025E0,9.892564E-1,0E0,0E0,0E0,0E0,1.4061267E0,0E0,0E0,3.384052E0,0E0,0E0,1.9943031E0,0E0,0E0,1.0585344E0,0E0,0E0,0E0,0E0,0E0,0E0,0E0,0E0,1.4685394E0,0E0,9.2114353E-1,1.8059047E0,2.4845831E0,1.0219606E0,4.4339986E0,2.2888966E0,2.1843746E0,0E0,0E0,4.3067174E0,2.1855493E0,0E0,0E0,0E0,0E0,0E0,0E0,0E0,0E0,0E0,1.7065277E0,0E0,0E0,1.0848114E0,0E0,0E0,0E0,0E0,0E0,0E0,0E0,0E0,0E0,0E0,0E0,0E0,0E0,0E0,0E0,0E0,0E0,0E0,0E0,0E0,0E0,3.3337479E0,0E0,9.6675396E-1,0E0,2.297655E0,2.764726E0,1.9765276E0,0E0,0E0,1.8334073E0,0E0,1.9866949E0,0E0,0E0,0E0,0E0],"parents":[2147483647,0,0,2,2,1,1,5,5,7,7,6,6,12,12,13,13,11,11,14,14,20,20,16,16,24,24,19,19,27,27,30,30,32,32,34,34,36,36,29,29,39,39,4,4,44,44,43,43,45,45,50,50,15,15,53,53,55,55,37,37,59,59,18,18,63,63,64,64,68,68,66,66,54,54,73,73,57,57,38,38,80,80,81,81,83,83,84,84,87,87,85,85,91,91,86,86,94,94,88,88,100,100,99,99,102,102,103,103,95,95,106,106,42,42,58,58,115,115,76,76,118,118,28,28,67,67,49,49,65,65,25,25,130,130,134,134,136,136,137,137,138,138,141,141,142,142,133,133,23,23,112,112,152,152,48,48,47,47,33,33,8,8,22,22,155,155,93,93,121,121,135,135,107,107,82,82,132,132,177,177,179,179,182,182,181,181,183,183,188,188,186,186],"right_children":[2,6,4,-1,44,8,12,10,162,-1,-1,18,14,16,20,54,24,-1,64,28,22,-1,164,150,26,132,-1,30,124,40,32,-1,34,160,36,-1,38,60,80,42,-1,-1,114,48,46,50,-1,158,156,128,52,-1,-1,56,74,58,-1,78,116,62,-1,-1,-1,66,68,130,72,126,70,-1,-1,-1,-1,76,-1,-1,120,-1,-1,-1,82,84,176,86,88,92,96,90,100,-1,-1,94,-1,168,98,110,-1,-1,-1,104,102,-1,106,108,-1,-1,112,174,-1,-1,-1,-1,152,-1,-1,118,-1,-1,122,-1,-1,170,-1,-1,-1,-1,-1,-1,-1,-1,134,-1,178,148,136,172,138,140,142,-1,-1,144,146,-1,-1,-1,-1,-1,-1,-1,-1,-1,154,-1,-1,166,-1,-1,-1,-1,-1,-1,-1,-1,-1,-1,-1,-1,-1,-1,-1,-1,-1,-1,-1,-1,-1,180,-1,182,-1,186,184,188,-1,-1,192,-1,190,-1,-1,-1,-1],"split_conditions":[8.9E1,-1.942931E0,4E0,9.743614E-2,3E0,8.7383E-1,7E1,-2.190476E0,5.429E1,1.0786912E-1,-5.0933942E-2,3.508E1,5E0,9.3333E-2,2.9238E-1,4.493E-2,1.8E-4,-7.126266E-2,5.15E-2,2.201878E0,5.284E-2,-4.6392877E-2,2.1505064E2,8E1,1.019E-1,2.1E-4,7.682429E-2,8.1E-4,7.426E-2,8.3E1,9.1E-4,-8.270555E-2,7.6E1,5E0,2.2E-4,-7.292451E-2,3E-4,2.6E-4,8.7356E-1,5.3E-4,-0E0,-5.281739E-2,8.8468E-1,9.5E-4,1.70745E-1,4.258E1,1.0459202E-1,5E0,3.56E-3,3.391E1,5.697E1,-7.964905E-2,7.9668656E-2,1.36139E0,2.1376503E2,2.7E-4,1.0832288E-1,7.8843E-1,1.34E-3,7.9124E-1,1.0787813E-1,9.3602814E-2,-2.9121587E-2,1.540453E0,2.1502313E2,4.19E1,1.834602E2,6.856E1,8.412E-2,8.579745E-2,-6.641399E-2,1.0761789E-1,-1.852599E-2,5.354E-2,-7.868752E-2,-7.3468104E-2,7.8E1,-2.7941963E-2,1.0624859E-1,-6.852001E-2,9.097E-2,4.538E1,6E0,1.35977E0,4.944E1,3.56E-3,6.49652E-1,1.513514E0,7.1E-4,1.0235186E-1,-5.918588E-2,1.16274E0,-6.792417E-2,8.2E1,4.208E1,5.675E-2,2.588503E-2,1.1330503E-1,-1.9497098E-2,1.35524E0,1.8483907E2,1.0970401E-1,1.36E-1,5.104E1,2.9220255E-2,9.0896495E-2,2.3197E-1,5.082E1,-8.034284E-2,-8.265968E-2,4.074588E-2,-7.654221E-2,7.426E-2,9.301064E-2,-2.1264706E-2,7.7E1,8.3347134E-2,-7.959537E-2,3.781E1,1.0221204E-1,-0E0,8.3E1,8.922109E-2,-7.8208745E-2,4.7518633E-2,9.72582E-2,-8.897011E-3,-1.057989E-2,9.997852E-2,-6.646052E-2,-1.03079E0,5.145003E-2,1.8607721E2,-1.488274E0,-4.19162E-1,5.958E1,5.096E1,6.1E1,6.4E1,-1.9385817E-2,1.0809409E-1,4E0,6.8E1,1.0538464E-1,-6.028707E-2,-7.73158E-2,6.317119E-2,-1.8758418E-2,9.959478E-2,-1.6324058E-2,9.1783404E-2,-5.033799E-2,5E1,-1.8130647E-2,1.0247217E-1,6E0,3.9975762E-2,9.1193765E-2,-1.1637375E-2,-7.755278E-2,-0E0,-7.047505E-2,-0E0,1.10197045E-1,-0E0,-6.8733975E-2,-0E0,4.142058E-2,-6.350746E-2,-6.368273E-2,4.049698E-2,-7.711862E-2,-0E0,-1.000349E-2,8.288934E-2,-0E0,-7.4455485E-2,1.8455658E2,-8.383848E-2,1.446667E0,8.222142E-2,6.9E-4,1.772407E0,3.8E-4,-7.322893E-2,-7.1657486E-2,2E0,-4.8043266E-2,7.3E1,-1.821148E-2,1.07067965E-1,8.949466E-2,-5.1198334E-2],"split_indices":[7,12,4,0,0,8,7,12,6,0,0,6,1,12,11,11,11,0,10,12,10,0,8,7,10,10,0,11,10,7,11,0,7,0,10,0,10,10,8,11,0,0,8,11,12,6,0,1,11,6,6,0,0,8,8,10,0,8,11,8,0,0,0,12,9,6,8,6,10,0,0,0,0,10,0,0,7,0,0,0,10,6,1,9,6,11,12,12,10,0,0,9,0,7,6,10,0,0,0,9,8,0,11,6,0,0,11,6,0,0,0,0,10,0,0,7,0,0,6,0,0,7,0,0,0,0,0,0,0,0,12,0,9,12,12,6,6,7,7,0,0,0,7,0,0,0,0,0,0,0,0,0,6,0,0,1,0,0,0,0,0,0,0,0,0,0,0,0,0,0,0,0,0,0,0,0,0,9,0,12,0,10,12,11,0,0,0,0,7,0,0,0,0],"split_type":[0,0,0,0,0,0,0,0,0,0,0,0,0,0,0,0,0,0,0,0,0,0,0,0,0,0,0,0,0,0,0,0,0,0,0,0,0,0,0,0,0,0,0,0,0,0,0,0,0,0,0,0,0,0,0,0,0,0,0,0,0,0,0,0,0,0,0,0,0,0,0,0,0,0,0,0,0,0,0,0,0,0,0,0,0,0,0,0,0,0,0,0,0,0,0,0,0,0,0,0,0,0,0,0,0,0,0,0,0,0,0,0,0,0,0,0,0,0,0,0,0,0,0,0,0,0,0,0,0,0,0,0,0,0,0,0,0,0,0,0,0,0,0,0,0,0,0,0,0,0,0,0,0,0,0,0,0,0,0,0,0,0,0,0,0,0,0,0,0,0,0,0,0,0,0,0,0,0,0,0,0,0,0,0,0,0,0,0,0,0,0,0,0],"sum_hessian":[1.1957117E2,1.049251E2,1.4646065E1,4.9156456E0,9.730419E0,9.331089E0,9.559401E1,1.9581571E0,7.3729324E0,1.4790795E0,4.7907746E-1,1.8864819E1,7.6729195E1,2.6814085E1,4.9915108E1,1.0947669E1,1.5866416E1,9.643211E-1,1.7900497E1,4.698463E1,2.9304795E0,4.6873248E-1,2.4617472E0,9.855688E-1,1.4880847E1,1.4383072E1,4.9777538E-1,4.48428E1,2.1418302E0,8.059174E0,3.6783627E1,2.6270452E0,3.415658E1,2.146524E0,3.2010056E1,1.1902148E0,3.0819841E1,3.9155247E0,2.6904318E1,4.639049E0,3.4201248E0,4.8185414E-1,4.157195E0,4.8421774E0,4.8882422E0,3.3993661E0,1.4888761E0,9.811085E-1,3.861069E0,1.2247419E0,2.1746242E0,1.6787833E0,4.9584097E-1,6.819907E0,4.127762E0,5.5931854E0,1.2267221E0,1.477538E0,4.1156473E0,1.9307534E0,1.9847715E0,7.4158025E-1,1.1891731E0,1.2106381E1,5.7941155E0,9.877589E0,2.2287917E0,4.364738E0,1.4293776E0,4.900276E-1,9.393499E-1,1.9850961E0,2.436957E-1,2.6814868E0,1.4462751E0,9.697106E-1,1.7117764E0,2.4906866E-1,1.2284693E0,9.503689E-1,2.5953949E1,2.4270817E1,1.6831317E0,8.939111E0,1.5331706E1,4.41156E0,4.5275507E0,4.187207E0,1.1144499E1,3.6934984E0,4.9370894E-1,3.6783378E0,7.33222E-1,9.68137E-1,2.7102008E0,3.7955604E0,7.3199016E-1,2.4657311E0,2.4446979E-1,5.5401616E0,5.604337E0,1.9789044E0,3.6254327E0,3.095864E0,2.4442976E0,7.449377E-1,2.880495E0,7.2697103E-1,2.368893E0,3.5466704E0,2.4889004E-1,1.4332583E0,1.4472368E0,3.9114437E0,2.4575144E-1,3.6239374E0,4.9170983E-1,1.9113014E0,1.712636E0,9.85442E-1,7.2633433E-1,9.65778E-1,7.4685806E-1,1.895985E0,2.4584523E-1,4.1311774E0,2.3356059E-1,2.3562714E-1,9.8911476E-1,9.400331E-1,8.937556E0,2.4335769E-1,1.4139714E1,1.2334944E0,7.704062E0,1.9266363E0,5.7774253E0,1.9752095E0,3.802216E0,2.4438359E-1,1.7308259E0,1.682326E0,2.11989E0,9.7538567E-1,7.069403E-1,1.8861665E0,2.3372363E-1,2.4388544E-1,9.89609E-1,2.417617E-1,7.438071E-1,4.776946E-1,9.6954215E-1,2.4336661E-1,7.2617555E-1,3.6119475E0,2.4912137E-1,7.442416E-1,2.3686692E-1,1.665997E0,4.8052692E-1,6.8846917E0,4.882406E-1,1.9777397E0,4.8400736E-1,3.1309948E0,4.8095277E-1,2.4866672E-1,7.194703E-1,7.168104E-1,2.4896756E-1,1.4378746E0,4.887618E-1,2.3493199E-1,4.9203908E-1,4.8399878E-1,1.1991329E0,1.1041995E1,3.0977192E0,1.0549123E1,4.92872E-1,7.446104E0,3.103019E0,1.6928848E0,1.4101342E0,6.4807825E0,9.653216E-1,4.7309428E-1,1.2197905E0,2.4343455E-1,9.763559E-1,4.858126E-1,4.79509E-1],"tree_param":{"num_deleted":"0","num_feature":"15","num_nodes":"193","size_leaf_vector":"1"}},{"base_weights":[-9.656797E-2,-8.848924E-1,-1.6841678E-2,1.3997257E-1,-1.3135738E0,-4.1525986E-2,9.9537194E-2,1.9521397E-1,-2.515658E-1,6.424122E-2,1.4711251E0,2.0686674E-1,-4.548155E-1,-1.8469523E-1,1.1418408E0,-5.2557234E-2,9.204676E-1,1.7068813E0,-8.519069E-1,3.4106928E-1,-8.738379E-1,-8.503032E-1,-1.8157874E-1,1.1248282E0,-3.7469488E-1,-7.085099E-2,6.8713963E-1,-4.7765768E-1,1.3864455E0,-1.4888918E-1,-1.1527635E0,-6.5086246E-1,3.266402E-1,-1.283165E0,4.8882398E-1,7.986692E-3,1.0275339E-1,9.820982E-2,-3.1253552E-1,1.4008394E0,-2.9073378E-1,1.6822423E-1,-7.66472E-2,-1.0100994E0,3.029026E-1,2.6649449E-2,-1.2003392E0,7.8569405E-2,-6.283033E-1,-0E0,1.0628094E-1,-1.1182122E0,-0E0,9.830368E-2,-4.306327E-1,1.5175014E0,-0E0,-6.763365E-1,8.625344E-2,-0E0,1.7976627E0,7.5720024E-1,-6.807761E-2,-2.1328515E-1,3.27036E-1,1.5421199E0,1.353643E-2,-7.9113066E-1,4.684019E-1,1.4117904E0,-2.0914264E-1,-9.233256E-1,2.580915E-1,-2.6558417E-1,1.08367905E-1,5.8141065E-1,-7.348511E-2,-6.7484364E-2,9.2092615E-1,-0E0,1.0991707E-1,1.1332617E0,-4.804687E-2,-6.894379E-2,6.1024797E-1,1.4669961E0,-0E0,8.400938E-2,-6.528607E-2,-0E0,-7.8427844E-2,-7.075349E-2,7.1797574E-1,-0E0,-1.3263402E0,1.9106302E0,-1.36662405E-2,-5.3128866E-3,1.14945434E-1,-1.4426416E0,4.8974592E-2,1.09246075E-1,-6.277885E-3,9.863741E-2,-0E0,1.0945616E0,-6.997087E-2,-8.152012E-2,-0E0,5.2939546E-1,-7.3520385E-2,-0E0,-1.2700837E0,3.758314E-2,-7.233104E-2,-7.339445E-2,5.6778395E-1,1.504734E0,-6.7716795E-1,-1.443244E-2,1.0486025E-1,1.7059684E0,-1.1087762E-2,1.0905602E0,-5.442174E-2,-5.812607E-3,1.0511713E-1,-1.8916808E-2,9.599457E-2,-9.2199715E-3,1.5884169E0,8.126778E-2,-6.1277866E-1,4.4863686E-2,-7.557214E-2,-7.336074E-2,3.549277E-2,-0E0,-8.191722E-2,-8.687796E-2,-0E0,4.0261168E-2,-7.450392E-2,-7.465974E-2,-0E0,-6.808545E-3,9.156588E-2,-6.481255E-2,3.610563E-1,8.524345E-1,-5.6706168E-2,3.521464E-2,-7.0170365E-2,1.2979786E0,-0E0,-1.0071221E-2,9.955038E-2,-1.2599684E-1,-1.2837987E0,-7.0882946E-2,9.794956E-1,9.457946E-2,-5.581792E-3,8.7461576E-2,-0E0,-0E0,-8.1296116E-2,-7.667085E-2,-0E0,-5.5845096E-3,8.485399E-2,4.3628454E-1,1.11564666E-1,-4.7024462E-2,9.149501E-2,-0E0,1.6313727E0,1.1129199E-1,3.912834E-1,8.430184E-2,-4.3709047E-2,-2.2729019E-2,7.48584E-2,-6.1509907E-3,7.887391E-2,-5.7995323E-2,3.6354642E-2,-7.563763E-2,-0E0,-0E0,1.01991676E-1,-8.258312E-2,-1.7223934E-2],"categories":[],"categories_nodes":[],"categories_segments":[],"categories_sizes":[],"default_left":[0,0,0,0,0,0,0,0,0,0,0,0,0,0,0,0,0,0,0,0,0,0,0,0,0,0,0,0,0,0,0,0,0,0,0,0,0,0,0,0,0,0,0,0,0,0,0,0,0,0,0,0,0,0,0,0,0,0,0,0,0,0,0,0,0,0,0,0,0,0,0,0,0,0,0,0,0,0,0,0,0,0,0,0,0,0,0,0,0,0,0,0,0,0,0,0,0,0,0,0,0,0,0,0,0,0,0,0,0,0,0,0,0,0,0,0,0,0,0,0,0,0,0,0,0,0,0,0,0,0,0,0,0,0,0,0,0,0,0,0,0,0,0,0,0,0,0,0,0,0,0,0,0,0,0,0,0,0,0,0,0,0,0,0,0,0,0,0,0,0,0,0,0,0,0,0,0,0,0,0,0,0,0,0,0,0,0,0,0,0,0,0,0],"id":3,"left_children":[1,3,5,61,167,7,-1,9,11,15,59,13,21,19,55,47,17,95,135,25,111,43,23,49,29,-1,27,109,129,31,191,33,35,99,37,39,-1,-1,147,125,41,83,-1,45,123,57,93,63,51,-1,-1,107,53,-1,143,121,-1,141,-1,-1,101,153,-1,71,65,79,67,89,69,73,113,157,75,185,-1,77,-1,-1,81,-1,-1,85,-1,-1,103,175,87,-1,-1,91,-1,-1,163,-1,187,97,-1,-1,-1,139,-1,-1,-1,-1,105,127,-1,-1,-1,183,-1,131,137,115,-1,-1,117,119,133,-1,-1,189,-1,145,-1,-1,-1,-1,-1,-1,171,-1,151,-1,-1,-1,-1,-1,-1,-1,-1,-1,-1,-1,149,-1,-1,-1,181,169,-1,-1,-1,155,-1,-1,-1,159,165,-1,161,-1,-1,-1,-1,-1,-1,-1,-1,-1,-1,173,-1,-1,-1,-1,177,-1,179,-1,-1,-1,-1,-1,-1,-1,-1,-1,-1,-1,-1,-1,-1],"loss_changes":[7.268612E0,5.0817413E0,4.4354916E0,2.3925362E0,1.1935349E0,5.4142075E0,0E0,7.8931255E0,5.509794E0,4.872871E0,2.4393454E0,6.6917877E0,4.070753E0,4.543192E0,2.573547E0,3.204474E0,8.458792E0,2.2276478E0,1.5260429E0,3.5665169E0,1.9379945E0,3.223733E0,5.988034E0,3.018545E0,3.3860815E0,0E0,4.8846006E0,2.012814E0,1.6333947E0,4.2174807E0,8.000493E-1,6.553931E0,3.6330078E0,2.2275887E0,3.6288502E0,3.4003754E0,0E0,0E0,1.2950594E0,1.8200762E0,3.4175482E0,2.3076272E0,0E0,3.2433586E0,1.8403426E0,2.5250618E0,2.2750416E0,2.3708727E0,2.7765272E0,0E0,0E0,2.1355848E0,2.9511397E0,0E0,1.4441948E0,1.8558111E0,0E0,1.4715097E0,0E0,0E0,2.2085266E0,1.2495351E0,0E0,4.9737196E0,6.338606E0,3.0854073E0,5.221981E0,2.285644E0,6.5149784E0,4.74627E0,1.9257917E0,1.2402806E0,4.0786843E0,8.7807983E-1,0E0,4.3068523E0,0E0,0E0,2.4562635E0,0E0,0E0,2.2922273E0,0E0,0E0,2.1584897E0,9.453964E-1,2.3210177E0,0E0,0E0,2.437049E0,0E0,0E0,1.2400403E0,0E0,8.522816E-1,2.3607197E0,0E0,0E0,0E0,1.4753304E0,0E0,0E0,0E0,0E0,3.1422973E0,1.7182266E0,0E0,0E0,0E0,8.927345E-1,0E0,1.6190577E0,1.4836321E0,2.8557718E0,0E0,0E0,4.056757E0,2.093207E0,1.563856E0,0E0,0E0,8.263159E-1,0E0,1.4359689E0,0E0,0E0,0E0,0E0,0E0,0E0,1.0387049E0,0E0,1.2802205E0,0E0,0E0,0E0,0E0,0E0,0E0,0E0,0E0,0E0,0E0,0E0,1.2882612E0,0E0,0E0,0E0,9.4209784E-1,1.1698644E0,0E0,0E0,0E0,1.7544768E0,0E0,0E0,0E0,2.9620607E0,1.1941934E0,0E0,1.3649268E0,0E0,0E0,0E0,0E0,0E0,0E0,0E0,0E0,0E0,0E0,2.3241534E0,0E0,0E0,0E0,0E0,1.2544632E0,0E0,1.9959855E0,0E0,0E0,0E0,0E0,0E0,0E0,0E0,0E0,0E0,0E0,0E0,0E0,0E0,0E0],"parents":[2147483647,0,0,1,1,2,2,5,5,7,7,8,8,11,11,9,9,16,16,13,13,12,12,22,22,19,19,26,26,24,24,29,29,31,31,32,32,34,34,35,35,40,40,21,21,43,43,15,15,23,23,48,48,52,52,14,14,45,45,10,10,3,3,47,47,64,64,66,66,68,68,63,63,69,69,72,72,75,75,65,65,78,78,41,41,81,81,86,86,67,67,89,89,46,46,17,17,95,95,33,33,60,60,84,84,104,104,51,51,27,27,20,20,70,70,113,113,116,116,117,117,55,55,44,44,39,39,105,105,28,28,111,111,118,118,18,18,112,112,99,99,57,57,54,54,123,123,38,38,144,144,132,132,61,61,153,153,71,71,157,157,160,160,92,92,158,158,4,4,149,149,130,130,171,171,85,85,176,176,178,178,148,148,109,109,73,73,94,94,121,121,30,30],"right_children":[2,4,6,62,168,8,-1,10,12,16,60,14,22,20,56,48,18,96,136,26,112,44,24,50,30,-1,28,110,130,32,192,34,36,100,38,40,-1,-1,148,126,42,84,-1,46,124,58,94,64,52,-1,-1,108,54,-1,144,122,-1,142,-1,-1,102,154,-1,72,66,80,68,90,70,74,114,158,76,186,-1,78,-1,-1,82,-1,-1,86,-1,-1,104,176,88,-1,-1,92,-1,-1,164,-1,188,98,-1,-1,-1,140,-1,-1,-1,-1,106,128,-1,-1,-1,184,-1,132,138,116,-1,-1,118,120,134,-1,-1,190,-1,146,-1,-1,-1,-1,-1,-1,172,-1,152,-1,-1,-1,-1,-1,-1,-1,-1,-1,-1,-1,150,-1,-1,-1,182,170,-1,-1,-1,156,-1,-1,-1,160,166,-1,162,-1,-1,-1,-1,-1,-1,-1,-1,-1,-1,174,-1,-1,-1,-1,178,-1,180,-1,-1,-1,-1,-1,-1,-1,-1,-1,-1,-1,-1,-1,-1],"split_conditions":[-1.942931E0,1.04E-3,1.0383E-1,5.7E1,9.1E1,4.946E1,9.9537194E-2,4.855E1,3E-4,6.391E-2,6.3E1,1.540453E0,1.37079E0,1.25859E-1,1.18E-3,7.4E-4,6.02591E-1,4.754E1,4.61E1,-1.51153E0,2E0,8.6E1,1.8375314E2,1.44E-3,1.284404E0,-7.085099E-2,7.8911E-1,7.8698E-1,5.026E1,2E0,2.3663E-1,2.9238E-1,6.073E1,1.179447E0,3.4719E-1,7.3E1,1.0275339E-1,9.820982E-2,7.4E1,4.96E1,1.7902E-1,5.705E-2,-7.66472E-2,-1.009548E0,1.93E-3,-1.331823E0,4.6E-4,5.7E1,4.133E1,-0E0,1.0628094E-1,1.862683E2,7.7E1,9.830368E-2,5.605E-2,8.9E1,-0E0,5.385E1,8.625344E-2,-0E0,8.8E1,4.208E1,-6.807761E-2,8E1,2E0,8.7254E-1,-5.83333E-1,-1.227783E0,4.336E1,6.5E1,4E0,-1.262745E0,8.8E1,1.16791E0,1.08367905E-1,3.275E1,-7.348511E-2,-6.7484364E-2,1.179447E0,-0E0,1.0991707E-1,4.446E1,-4.804687E-2,-6.894379E-2,8.2E1,2.3E-4,7E-4,8.400938E-2,-6.528607E-2,1.2E-3,-7.8427844E-2,-7.075349E-2,8.6E1,-0E0,7.1E-4,-1.927869E0,-1.36662405E-2,-5.3128866E-3,1.14945434E-1,2.1459457E2,4.8974592E-2,1.09246075E-1,-6.277885E-3,9.863741E-2,-7.8212E-2,5.233E-2,-6.997087E-2,-8.152012E-2,-0E0,6.2E1,-7.3520385E-2,8.1E-4,3.77242E-1,4.494E1,-7.233104E-2,-7.339445E-2,2.16E-3,7.1E-4,5.7E-4,-1.443244E-2,1.0486025E-1,7.8629E-1,-1.1087762E-2,6E0,-5.442174E-2,-5.812607E-3,1.0511713E-1,-1.8916808E-2,9.599457E-2,-9.2199715E-3,3E0,8.126778E-2,3E0,4.4863686E-2,-7.557214E-2,-7.336074E-2,3.549277E-2,-0E0,-8.191722E-2,-8.687796E-2,-0E0,4.0261168E-2,-7.450392E-2,-7.465974E-2,3.11111E-1,-6.808545E-3,9.156588E-2,-6.481255E-2,5.689E1,7.8E1,-5.6706168E-2,3.521464E-2,-7.0170365E-2,3.518E1,-0E0,-1.0071221E-2,9.955038E-2,-1.515924E0,7.8863E-1,-7.0882946E-2,4E0,9.457946E-2,-5.581792E-3,8.7461576E-2,-0E0,-0E0,-8.1296116E-2,-7.667085E-2,-0E0,-5.5845096E-3,8.485399E-2,5.812E1,1.11564666E-1,-4.7024462E-2,9.149501E-2,-0E0,5.6E-4,1.1129199E-1,2E0,8.430184E-2,-4.3709047E-2,-2.2729019E-2,7.48584E-2,-6.1509907E-3,7.887391E-2,-5.7995323E-2,3.6354642E-2,-7.563763E-2,-0E0,-0E0,1.01991676E-1,-8.258312E-2,-1.7223934E-2],"split_indices":[12,11,10,5,7,6,0,6,10,10,7,12,8,12,11,10,12,6,6,12,4,7,8,11,12,0,9,8,6,4,11,11,6,12,11,7,0,0,7,6,11,11,0,12,11,12,11,5,6,0,0,8,7,0,10,7,0,6,0,0,7,6,0,7,4,8,12,12,6,7,0,12,7,8,0,6,0,0,12,0,0,6,0,0,7,11,11,0,0,11,0,0,7,0,10,12,0,0,0,8,0,0,0,0,12,10,0,0,0,7,0,11,12,6,0,0,11,11,10,0,0,8,0,1,0,0,0,0,0,0,0,0,0,0,0,0,0,0,0,0,0,0,0,0,12,0,0,0,6,7,0,0,0,6,0,0,0,12,8,0,4,0,0,0,0,0,0,0,0,0,0,6,0,0,0,0,10,0,0,0,0,0,0,0,0,0,0,0,0,0,0,0,0],"split_type":[0,0,0,0,0,0,0,0,0,0,0,0,0,0,0,0,0,0,0,0,0,0,0,0,0,0,0,0,0,0,0,0,0,0,0,0,0,0,0,0,0,0,0,0,0,0,0,0,0,0,0,0,0,0,0,0,0,0,0,0,0,0,0,0,0,0,0,0,0,0,0,0,0,0,0,0,0,0,0,0,0,0,0,0,0,0,0,0,0,0,0,0,0,0,0,0,0,0,0,0,0,0,0,0,0,0,0,0,0,0,0,0,0,0,0,0,0,0,0,0,0,0,0,0,0,0,0,0,0,0,0,0,0,0,0,0,0,0,0,0,0,0,0,0,0,0,0,0,0,0,0,0,0,0,0,0,0,0,0,0,0,0,0,0,0,0,0,0,0,0,0,0,0,0,0,0,0,0,0,0,0,0,0,0,0,0,0,0,0,0,0,0,0],"sum_hessian":[1.2036647E2,1.0655254E1,1.0971121E2,2.919748E0,7.7355056E0,1.0846712E2,1.244097E0,5.0254845E1,5.8212273E1,4.5831223E1,4.423622E0,1.738246E1,4.082981E1,1.2014965E1,5.367496E0,4.0008408E1,5.8228135E0,4.162708E0,1.6601058E0,6.5499425E0,5.465022E0,1.6171091E1,2.4658722E1,2.942418E0,2.1716303E1,9.600071E-1,5.589936E0,1.9225992E0,3.6673362E0,1.7179886E1,4.536418E0,8.69121E0,8.488676E0,5.774344E0,2.9168658E0,7.250143E0,1.2385331E0,1.2438763E0,1.6729895E0,1.4614333E0,5.7887096E0,3.9164517E0,1.8722578E0,1.4456591E1,1.7144997E0,1.9754276E0,1.2481163E1,3.2135086E1,7.873324E0,1.208296E0,1.7341222E0,4.6916037E0,3.1817205E0,7.3455095E-1,2.4471693E0,4.147264E0,1.2202318E0,1.2266839E0,7.487437E-1,7.133132E-1,3.7103088E0,2.1958644E0,7.238836E-1,1.4168172E1,1.7966913E1,3.4518938E0,1.4515019E1,4.974321E0,9.540698E0,4.181824E0,5.358874E0,5.924055E0,8.244117E0,9.462142E-1,3.2356098E0,7.05101E0,1.1931063E0,9.432379E-1,6.1077724E0,7.22178E-1,2.7297158E0,5.6364098E0,4.713628E-1,7.3435354E-1,3.1820982E0,4.4201202E0,1.2162894E0,4.9153212E-1,7.2475725E-1,2.4177794E0,2.5565417E0,9.580695E-1,1.45971E0,9.693775E-1,1.15117855E1,3.9235976E0,2.3911017E-1,2.2881174E-1,3.6947858E0,5.5293655E0,2.4497873E-1,3.4801753E0,2.3013349E-1,9.8783076E-1,2.1942675E0,1.2384924E0,9.55775E-1,3.518057E0,1.1735464E0,7.2615033E-1,1.1964489E0,1.6879084E0,3.7771137E0,4.1733656E0,1.1855086E0,9.695606E-1,3.2038047E0,1.9766792E0,1.2271256E0,2.399089E-1,1.7367703E0,3.9110358E0,2.362284E-1,1.2298158E0,4.846838E-1,2.2949994E-1,1.2319334E0,2.4401313E-1,9.944793E-1,2.339658E-1,3.4333706E0,4.945119E-1,1.1933966E0,2.472427E-1,9.798829E-1,1.4101663E0,2.4993953E-1,4.756376E-1,3.301476E0,5.0352793E0,4.940859E-1,2.4903856E-1,9.776453E-1,9.783008E-1,1.4688686E0,2.3084731E-1,9.9896854E-1,9.2757404E-1,7.4541545E-1,9.7831774E-1,4.9055088E-1,2.4995911E-1,9.4343746E-1,1.4748864E0,7.2097814E-1,2.3501436E-1,1.239872E0,2.1383028E0,3.7857525E0,1.1748847E0,9.634181E-1,7.3423505E-1,2.2918308E-1,7.4596757E-1,7.137424E-1,4.9632406E-1,3.2894285E0,7.2438717E0,4.916341E-1,2.291868E-1,7.4913096E-1,1.2139138E0,2.2194567E0,4.6918297E-1,7.4473083E-1,4.9472153E-1,3.9253988E0,2.715253E0,1.2101456E0,7.4965954E-1,4.604861E-1,2.466866E-1,4.9872887E-1,2.2996143E-1,4.961889E-1,6.9635916E-1,2.4985504E-1,1.0804685E1,7.0710087E-1,4.7647583E-1,3.4345598E0,2.8497932E0,1.6866245E0],"tree_param":{"num_deleted":"0","num_feature":"15","num_nodes":"193","size_leaf_vector":"1"}},{"base_weights":[1.7108897E-2,1.0830104E-1,-3.166444E-1,5.92149E-2,1.1538742E0,-5.0675327E-1,5.514447E-1,1.0253349E-1,-3.0022782E-1,-9.2504424E-1,8.688762E-3,-4.9509385E-1,1.3562652E-1,-9.4968766E-1,6.9913656E-1,-5.734332E-2,3.9927924E-1,-5.119624E-1,2.0530976E-1,4.0788564E-1,-4.622992E-2,-6.0882723E-1,4.9998018E-1,-9.879258E-1,4.768762E-1,7.813135E-2,-5.7969604E-2,8.0103286E-2,-0E0,3.3098277E-1,1.0144644E0,5.39584E-1,-3.3632505E-1,1.0992294E-1,1.0171807E0,1.2193797E0,-2.8821546E-1,1.4422058E0,-0E0,7.5619644E-1,-7.3582083E-1,-7.437903E-2,6.0934583E-3,-4.7967684E-2,1.1630467E0,-0E0,-8.00578E-2,8.586358E-2,-6.582486E-2,-8.7951595E-1,3.2550734E-1,-6.219292E-2,1.0340315E0,-0E0,1.0490513E-1,1.4428059E0,-1.6412925E-2,-0E0,1.0062613E-1,-1.2788634E-1,-7.311709E-2,5.115218E-1,-6.853593E-2,-7.455944E-2,-3.149044E-2,6.273949E-1,-7.5443804E-1,-5.187919E-1,1.3171977E0,-6.6188835E-2,4.2369384E-1,-0E0,9.521425E-2,-6.541961E-3,1.03017785E-1,1.0968451E-1,-0E0,-1.0918335E-2,8.797705E-2,-1.4500967E-2,1.5464959E0,2.9766964E-2,-7.4467205E-2,6.792447E-2,-9.8516154E-1,-7.842456E-2,-0E0,9.8979294E-2,-6.484149E-1,-2.5374597E-1,3.257567E-1,6.932818E-1,-1.5000346E-1,-7.3992413E-1,3.6470383E-1,-2.961757E-1,1.4657485E0,7.121916E-2,-9.065865E-1,-7.602066E-2,6.0013972E-2,-1.1716619E-2,1.0582404E-1,2.0118643E-1,-8.5107243E-1,-2.7948843E-2,8.978372E-1,-0E0,9.695032E-2,8.6709954E-2,-6.390036E-2,-9.790887E-1,2.679808E-2,9.3675107E-1,-0E0,1.2063513E0,-0E0,-0E0,-7.991578E-2,9.602838E-1,-7.7278954E-1,2.280111E-2,-5.877559E-2,-6.2890776E-2,8.62706E-1,4.9792203E-1,9.667714E-2,1.3359551E0,-1.3548616E-1,7.103779E-2,-6.790812E-2,-9.910857E-3,1.0215038E-1,-7.423876E-2,4.05218E-2,-4.4109236E-2,7.959598E-2,-9.9187887E-1,4.1851427E-2,-1.6956703E-1,-6.631313E-2,9.290673E-1,-9.162166E-1,-7.487543E-2,4.3467738E-2,-5.1353917E-2,7.30041E-2,-8.7286735E-1,6.0044955E-2,-0E0,-7.8207515E-2,7.378287E-2,-5.112923E-2,-1.0802934E0,3.5595305E-2,-0E0,-8.3474904E-2,6.990646E-2,-6.397083E-2,9.1997E-2,-8.765208E-3,-1.323479E-2,8.891599E-2,-4.829742E-3,9.247098E-2,4.2459395E-2,-6.609727E-2,-6.1114607E-3,1.3226839E0,-2.1480068E-3,1.5060806E0,1.06264725E-1,-0E0,-0E0,8.091295E-2,7.255399E-2,-6.1611746E-2,6.711927E-2,-6.634409E-3,-4.713241E-2,6.781036E-2,9.9461645E-2,5.8228385E-1,-1.1351834E-2,8.844526E-2,5.455323E-2,-6.468846E-2,9.278014E-1,-5.497089E-2,8.9935176E-2,-4.7282763E-3,-1.5322349E-2,-7.848958E-2],"categories":[],"categories_nodes":[],"categories_segments":[],"categories_sizes":[],"default_left":[0,0,0,0,0,0,0,0,0,0,0,0,0,0,0,0,0,0,0,0,0,0,0,0,0,0,0,0,0,0,0,0,0,0,0,0,0,0,0,0,0,0,0,0,0,0,0,0,0,0,0,0,0,0,0,0,0,0,0,0,0,0,0,0,0,0,0,0,0,0,0,0,0,0,0,0,0,0,0,0,0,0,0,0,0,0,0,0,0,0,0,0,0,0,0,0,0,0,0,0,0,0,0,0,0,0,0,0,0,0,0,0,0,0,0,0,0,0,0,0,0,0,0,0,0,0,0,0,0,0,0,0,0,0,0,0,0,0,0,0,0,0,0,0,0,0,0,0,0,0,0,0,0,0,0,0,0,0,0,0,0,0,0,0,0,0,0,0,0,0,0,0,0,0,0,0,0,0,0,0,0,0,0,0,0,0,0,0,0,0,0,0,0],"id":4,"left_children":[1,3,5,11,167,9,7,-1,185,137,15,13,17,59,55,-1,27,23,19,21,41,147,29,45,25,-1,-1,-1,39,31,43,33,49,35,37,53,63,79,61,71,81,-1,87,-1,177,47,-1,-1,-1,153,51,-1,57,-1,-1,73,-1,-1,-1,69,-1,173,-1,-1,65,67,83,165,75,-1,77,-1,-1,-1,-1,-1,179,-1,-1,-1,181,135,-1,-1,85,-1,145,89,121,93,91,113,103,111,95,97,101,-1,99,-1,-1,-1,-1,105,117,-1,107,109,-1,-1,-1,191,-1,115,119,125,123,-1,-1,163,133,-1,-1,-1,161,127,-1,131,129,-1,-1,-1,-1,-1,-1,-1,-1,139,-1,141,-1,159,143,-1,-1,-1,-1,149,-1,151,-1,-1,-1,155,-1,157,-1,-1,-1,-1,-1,-1,-1,-1,-1,-1,-1,-1,169,-1,171,-1,-1,175,-1,-1,-1,-1,-1,-1,-1,-1,183,-1,-1,187,-1,189,-1,-1,-1,-1,-1],"loss_changes":[3.5535092E0,4.435384E0,4.078033E0,3.7094316E0,1.2413244E0,4.7520676E0,5.281397E0,0E0,1.1415403E0,1.421711E0,3.5097961E0,5.757391E0,3.5084052E0,2.067215E0,2.3882077E0,0E0,3.2723503E0,3.6201706E0,3.8215373E0,3.806672E0,2.6540895E0,1.3557838E0,2.8421316E0,2.598506E0,3.3954864E0,0E0,0E0,0E0,2.67941E0,4.111205E0,2.6188698E0,4.2423296E0,2.543204E0,5.717086E0,4.7325954E0,2.409449E0,1.994895E0,1.7491665E0,2.0517893E0,1.8787878E0,1.7209762E0,0E0,1.6610203E0,0E0,1.2033424E0,3.3362522E0,0E0,0E0,0E0,1.350935E0,2.8018525E0,0E0,2.2247424E0,0E0,0E0,1.8422883E0,0E0,0E0,0E0,1.989469E0,0E0,1.2042325E0,0E0,0E0,3.5710657E0,3.1543455E0,1.6856747E0,1.265229E0,1.8408961E0,0E0,1.7570139E0,0E0,0E0,0E0,0E0,0E0,1.1910579E0,0E0,0E0,0E0,1.186533E0,1.4248686E0,0E0,0E0,1.9439149E0,0E0,1.3967041E0,2.183437E0,1.7848592E0,3.136248E0,3.153751E0,1.8496857E0,1.9500904E0,1.9139848E0,3.3907557E0,2.2551367E0,2.01093E0,0E0,2.041635E0,0E0,0E0,0E0,0E0,2.3306043E0,1.787639E0,0E0,2.0713964E0,2.3344016E0,0E0,0E0,0E0,1.1168165E0,0E0,1.9003453E0,1.7858518E0,1.6405077E0,1.7460947E0,0E0,0E0,1.31604E0,1.556728E0,0E0,0E0,0E0,1.3395479E0,1.9550157E0,0E0,1.8151073E0,2.387989E0,0E0,0E0,0E0,0E0,0E0,0E0,0E0,0E0,1.7409859E0,0E0,2.3748567E0,0E0,1.3508549E0,1.7435713E0,0E0,0E0,0E0,0E0,1.7748122E0,0E0,1.4118973E0,0E0,0E0,0E0,1.4938154E0,0E0,1.9034358E0,0E0,0E0,0E0,0E0,0E0,0E0,0E0,0E0,0E0,0E0,0E0,0E0,1.407908E0,0E0,1.7954454E0,0E0,0E0,1.8840854E0,0E0,0E0,0E0,0E0,0E0,0E0,0E0,0E0,2.1038392E0,0E0,0E0,1.3736415E0,0E0,1.2639805E0,0E0,0E0,0E0,0E0,0E0],"parents":[2147483647,0,0,1,1,2,2,6,6,5,5,3,3,11,11,10,10,12,12,18,18,19,19,17,17,24,24,16,16,22,22,29,29,31,31,33,33,34,34,28,28,20,20,30,30,23,23,45,45,32,32,50,50,35,35,14,14,52,52,13,13,38,38,36,36,64,64,65,65,59,59,39,39,55,55,68,68,70,70,37,37,40,40,66,66,84,84,42,42,87,87,90,90,89,89,94,94,95,95,98,98,96,96,92,92,103,103,106,106,107,107,93,93,91,91,113,113,104,104,114,114,88,88,116,116,115,115,125,125,128,128,127,127,120,120,81,81,9,9,137,137,139,139,142,142,86,86,21,21,147,147,149,149,49,49,153,153,155,155,141,141,124,124,119,119,67,67,4,4,168,168,170,170,61,61,173,173,44,44,76,76,80,80,182,182,8,8,185,185,187,187,111,111],"right_children":[2,4,6,12,168,10,8,-1,186,138,16,14,18,60,56,-1,28,24,20,22,42,148,30,46,26,-1,-1,-1,40,32,44,34,50,36,38,54,64,80,62,72,82,-1,88,-1,178,48,-1,-1,-1,154,52,-1,58,-1,-1,74,-1,-1,-1,70,-1,174,-1,-1,66,68,84,166,76,-1,78,-1,-1,-1,-1,-1,180,-1,-1,-1,182,136,-1,-1,86,-1,146,90,122,94,92,114,104,112,96,98,102,-1,100,-1,-1,-1,-1,106,118,-1,108,110,-1,-1,-1,192,-1,116,120,126,124,-1,-1,164,134,-1,-1,-1,162,128,-1,132,130,-1,-1,-1,-1,-1,-1,-1,-1,140,-1,142,-1,160,144,-1,-1,-1,-1,150,-1,152,-1,-1,-1,156,-1,158,-1,-1,-1,-1,-1,-1,-1,-1,-1,-1,-1,-1,170,-1,172,-1,-1,176,-1,-1,-1,-1,-1,-1,-1,-1,184,-1,-1,188,-1,190,-1,-1,-1,-1,-1],"split_conditions":[5.938E1,5.805E1,8.7E1,3.529E1,2E0,3.74E-3,3.42508E-1,1.0253349E-1,1.772407E0,1.38647E0,6.073E1,5E0,-1.942931E0,-1.331823E0,9.3333E-2,-5.734332E-2,1.991E-1,8.7E1,4.949E1,7.894E-1,6.3E1,1.399979E0,4.683E1,4E0,-2.295652E0,7.813135E-2,-5.7969604E-2,8.0103286E-2,6.407E1,4.446E1,2.2E-4,8.2E1,1E0,7E1,6.8E-4,1.8545757E2,8.833E-1,2.1E-4,1.98425E-1,2.8736E-1,-1.69082E-1,-7.437903E-2,2.145698E2,-4.7967684E-2,8.8E1,1.16565E0,-8.00578E-2,8.586358E-2,-6.582486E-2,9.6E1,4.487E1,-6.219292E-2,7.2E1,-0E0,1.0490513E-1,2E0,-1.6412925E-2,-0E0,1.0062613E-1,5.5E1,-7.311709E-2,5.482E-2,-6.853593E-2,-7.455944E-2,1.37815E0,-1.309094E0,-1.515924E0,7.1E1,6.4E-4,-6.6188835E-2,-1.733513E0,-0E0,9.521425E-2,-6.541961E-3,1.03017785E-1,1.0968451E-1,4E0,-1.0918335E-2,8.797705E-2,-1.4500967E-2,1.8E-3,6.522E1,-7.4467205E-2,6.792447E-2,3.0345E-2,-7.842456E-2,7.5E1,4E0,7E1,5E-4,1E0,8.6E1,1.8427505E2,1.65E-3,5.373E1,1.1607E0,5.2E-4,7.121916E-2,1.38545E0,-7.602066E-2,6.0013972E-2,-1.1716619E-2,1.0582404E-1,7.9176E-1,7.5E1,-2.7948843E-2,5E0,7.2E1,9.695032E-2,8.6709954E-2,-6.390036E-2,7.1E-4,2.679808E-2,5.643E1,7.9479E-1,5.236E1,1.8471468E2,-0E0,-7.991578E-2,8.8E1,5.697E1,2.280111E-2,-5.877559E-2,-6.2890776E-2,6.8E1,1.8525487E2,9.667714E-2,7.8812E-1,9.214E-2,7.103779E-2,-6.790812E-2,-9.910857E-3,1.0215038E-1,-7.423876E-2,4.05218E-2,-4.4109236E-2,7.959598E-2,4.6E-4,4.1851427E-2,2.4E-4,-6.631313E-2,7.9E1,5.1E-4,-7.487543E-2,4.3467738E-2,-5.1353917E-2,7.30041E-2,4.314E1,6.0044955E-2,7.8836E-1,-7.8207515E-2,7.378287E-2,-5.112923E-2,-3.8817E-1,3.5595305E-2,3E0,-8.3474904E-2,6.990646E-2,-6.397083E-2,9.1997E-2,-8.765208E-3,-1.323479E-2,8.891599E-2,-4.829742E-3,9.247098E-2,4.2459395E-2,-6.609727E-2,-6.1114607E-3,7.8423E-1,-2.1480068E-3,1.8530566E2,1.06264725E-1,-0E0,3.786E1,8.091295E-2,7.255399E-2,-6.1611746E-2,6.711927E-2,-6.634409E-3,-4.713241E-2,6.781036E-2,9.9461645E-2,2.27E-3,-1.1351834E-2,8.844526E-2,9.1E1,-6.468846E-2,6E0,-5.497089E-2,8.9935176E-2,-4.7282763E-3,-1.5322349E-2,-7.848958E-2],"split_indices":[6,6,7,6,0,11,12,0,12,8,6,0,12,12,12,0,11,7,6,8,7,12,6,4,12,0,0,0,6,6,10,7,13,7,10,8,8,11,12,11,12,0,8,0,7,8,0,0,0,7,6,0,7,0,0,1,0,0,0,5,0,10,0,0,8,12,12,7,10,0,12,0,0,0,0,0,1,0,0,0,11,6,0,0,12,0,7,0,7,10,13,7,8,11,6,8,10,0,9,0,0,0,0,9,7,0,1,7,0,0,0,11,0,6,8,6,8,0,0,7,6,0,0,0,7,9,0,9,11,0,0,0,0,0,0,0,0,11,0,10,0,7,10,0,0,0,0,6,0,9,0,0,0,12,0,0,0,0,0,0,0,0,0,0,0,0,0,0,8,0,8,0,0,6,0,0,0,0,0,0,0,0,11,0,0,7,0,1,0,0,0,0,0],"split_type":[0,0,0,0,0,0,0,0,0,0,0,0,0,0,0,0,0,0,0,0,0,0,0,0,0,0,0,0,0,0,0,0,0,0,0,0,0,0,0,0,0,0,0,0,0,0,0,0,0,0,0,0,0,0,0,0,0,0,0,0,0,0,0,0,0,0,0,0,0,0,0,0,0,0,0,0,0,0,0,0,0,0,0,0,0,0,0,0,0,0,0,0,0,0,0,0,0,0,0,0,0,0,0,0,0,0,0,0,0,0,0,0,0,0,0,0,0,0,0,0,0,0,0,0,0,0,0,0,0,0,0,0,0,0,0,0,0,0,0,0,0,0,0,0,0,0,0,0,0,0,0,0,0,0,0,0,0,0,0,0,0,0,0,0,0,0,0,0,0,0,0,0,0,0,0,0,0,0,0,0,0,0,0,0,0,0,0,0,0,0,0,0,0],"sum_hessian":[1.1896749E2,9.4225006E1,2.4742483E1,9.032272E1,3.902287E0,2.0616442E1,4.1260414E0,1.741421E0,2.3846202E0,1.1724679E1,8.891764E0,1.0405379E1,7.991734E1,7.7397723E0,2.665607E0,2.1449554E0,6.746808E0,7.2909203E0,7.262642E1,4.0947666E1,3.1678757E1,3.0935411E0,3.7854126E1,5.147075E0,2.1438453E0,1.4517888E0,6.920565E-1,1.9653926E0,4.7814155E0,2.9003387E1,8.850738E0,2.2475845E1,6.527541E0,1.2209116E1,1.026673E1,3.431471E0,8.777645E0,7.371698E0,2.895032E0,2.198348E0,2.5830672E0,1.4194374E0,3.025932E1,4.7306398E-1,8.377674E0,1.6748757E0,3.4721994E0,7.458466E-1,9.2902917E-1,3.855008E0,2.6725333E0,7.119659E-1,1.9605674E0,1.4446933E0,1.9867779E0,1.7138247E0,9.517823E-1,7.2510356E-1,1.2354639E0,2.8178527E0,4.92192E0,1.9600149E0,9.35017E-1,1.4112978E0,7.366347E0,3.6166742E0,3.7496727E0,1.1811393E0,2.4355347E0,1.1355999E0,1.6822529E0,1.2023715E0,9.959767E-1,2.3048991E-1,1.4833349E0,1.4649762E0,9.705585E-1,9.3756306E-1,7.4468976E-1,2.3997903E-1,7.131719E0,9.5069027E-1,1.6323769E0,2.2918308E-1,3.5204897E0,2.5420148E0,9.7847486E-1,2.695595E1,3.30337E0,9.978455E0,1.6977495E1,9.963953E0,7.0135417E0,5.8829427E0,4.0955114E0,2.3818507E0,1.7136608E0,4.9899882E-1,1.882852E0,1.6462761E0,2.3657581E-1,2.3695794E-1,1.4767029E0,4.369424E0,2.644118E0,1.9218833E0,2.4475405E0,1.2029417E0,1.2445987E0,4.8885894E-1,7.140827E-1,5.1560054E0,7.2693735E-1,7.5558586E0,2.4080946E0,5.853358E0,1.7025005E0,9.597896E-1,1.6843284E0,9.7031033E-1,1.4377842E0,7.4022055E-1,2.5631495E0,7.168576E-1,9.856428E-1,2.9083562E0,2.9450016E0,1.4659517E0,1.4424046E0,4.9871624E-1,9.436884E-1,2.3481902E-1,1.2311326E0,1.1888243E0,2.4895996E-1,4.6083105E-1,4.8985922E-1,1.1476165E1,2.4851424E-1,2.8567927E0,8.619372E0,9.750508E-1,1.8817418E0,1.6338662E0,2.4787562E-1,4.8027724E-1,4.9819762E-1,2.8569927E0,2.3654856E-1,9.778253E-1,1.8791674E0,4.9762118E-1,4.802041E-1,3.6050763E0,2.4993137E-1,1.2189876E0,2.3860888E0,4.987256E-1,7.2026205E-1,7.416568E-1,2.3339407E-1,2.3864852E-1,7.4699426E-1,2.2813894E-1,7.421714E-1,2.4828622E-1,9.328531E-1,2.299077E-1,3.6723793E0,2.2428179E-1,3.4480975E0,2.4861808E0,9.6191657E-1,1.2104913E0,7.495236E-1,4.9812266E-1,7.123686E-1,8.147059E0,2.3061413E-1,4.7082943E-1,4.9972916E-1,5.2003226E0,1.9313965E0,9.325809E-1,9.988156E-1,1.4580227E0,9.2659754E-1,9.741845E-1,4.838382E-1,7.461878E-1,2.279967E-1,2.3774924E0,2.7785132E0],"tree_param":{"num_deleted":"0","num_feature":"15","num_nodes":"193","size_leaf_vector":"1"}},{"base_weights":[3.160384E-2,-7.8664616E-2,5.513895E-1,4.5262578E-1,-2.2415188E-1,3.4251618E-1,-4.058518E-1,-7.9203695E-2,-3.0496755E-1,-0E0,1.1721381E0,6.576406E-1,-8.0330527E-1,2.1906199E-1,1.4188132E0,-6.5435797E-1,-3.3574045E-2,1.1017933E0,-3.4732613E-1,-5.108577E-1,2.7137315E-1,1.2107407E0,2.4232735E-1,-2.316756E-1,1.7836084E0,-4.348072E-3,8.590432E-2,3.6582458E-1,-8.405404E-1,7.3724943E-1,-6.1562516E-2,1.0050701E-1,1.7363633E-1,-7.431066E-2,1.467761E-1,-7.899874E-2,-2.3180445E-1,3.1478816E-1,-7.316092E-2,-0E0,1.2314459E0,-6.275996E-1,8.434957E-2,9.383275E-2,-1.906415E-1,3.4974676E-1,-6.744437E-1,1.0648283E-1,2.4949247E-1,-7.242518E-1,9.609078E-2,3.9171815E-1,-6.360318E-2,-3.4501582E-1,9.3429327E-1,-9.670177E-1,7.232317E-2,-7.130073E-1,6.78782E-2,-1.5616417E-2,1.0659913E-1,-0E0,-9.929793E-1,-2.0625107E-1,8.9941904E-2,7.5385824E-2,1.4446865E-2,-6.831568E-1,4.0913883E-1,-1.1517953E0,6.843881E-2,9.455572E-1,-2.0143862E-1,9.163576E-1,-9.522094E-1,1.2720318E0,-4.1372478E-2,1.0938073E0,-5.544903E-1,5.372708E-1,-7.2915904E-2,5.7614196E-2,-7.587451E-2,-4.6367448E-2,8.7711535E-2,1.2564938E0,-0E0,1.03258654E-1,-3.393694E-2,-4.0115854E-1,5.438524E-1,1.2088866E0,-5.498266E-1,-7.4943714E-2,-0E0,5.618394E-1,-8.216192E-1,-6.2954605E-2,8.013711E-2,8.266938E-2,-2.5628892E-1,-7.031174E-2,8.2800135E-2,-0E0,1.6377954E0,-6.518904E-3,1.0456506E-1,6.0825035E-2,-2.6892313E-1,6.453189E-2,-6.9150084E-1,-7.7409826E-2,-0E0,3.6176074E-2,-7.66719E-2,4.4311028E-2,-7.3352486E-2,3.3715934E-2,-6.624061E-2,-0E0,1.5175508E0,-9.273445E-3,1.0179844E-1,-0E0,9.423665E-2,-1.7186386E-3,1.5288961E0,-1.1359229E0,-4.995992E-1,-9.12285E-1,1.0761242E-2,9.338556E-2,-2.421234E-1,-1.3673377E0,2.178312E-2,-7.294092E-2,-7.436721E-2,-7.932574E-1,6.1016E-1,-4.85053E-2,7.170392E-2,3.7138787E-1,-6.550266E-2,1.2163523E0,-5.425331E-2,-0E0,-8.009535E-2,-6.5202564E-2,4.8436817E-2,1.06100835E-1,6.372323E-1,-4.6739623E-2,6.7047246E-2,-0E0,-7.991244E-2,3.1063247E-2,-7.5340584E-2,-2.8963925E-3,1.4819794E0,-6.783038E-2,4.3221015E-2,-1.000005E0,4.2863663E-2,8.799092E-2,-2.0079643E-3,1.1391436E0,-1.9316228E-2,-0E0,1.5143095E0,1.0087122E-1,-0E0,-4.2431828E-2,6.8483055E-2,-6.474664E-2,2.752242E-2,9.9567845E-2,-0E0,-0E0,-8.183896E-2,-0E0,-7.2604984E-2,-7.461736E-2,-0E0,7.909746E-2,-3.8272731E-3,-6.4329475E-2,-0E0,-0E0,9.334589E-2,-5.9123263E-2,2.78465E-2,7.2984174E-2,-1.8330038E-2],"categories":[],"categories_nodes":[],"categories_segments":[],"categories_sizes":[],"default_left":[0,0,0,0,0,0,0,0,0,0,0,0,0,0,0,0,0,0,0,0,0,0,0,0,0,0,0,0,0,0,0,0,0,0,0,0,0,0,0,0,0,0,0,0,0,0,0,0,0,0,0,0,0,0,0,0,0,0,0,0,0,0,0,0,0,0,0,0,0,0,0,0,0,0,0,0,0,0,0,0,0,0,0,0,0,0,0,0,0,0,0,0,0,0,0,0,0,0,0,0,0,0,0,0,0,0,0,0,0,0,0,0,0,0,0,0,0,0,0,0,0,0,0,0,0,0,0,0,0,0,0,0,0,0,0,0,0,0,0,0,0,0,0,0,0,0,0,0,0,0,0,0,0,0,0,0,0,0,0,0,0,0,0,0,0,0,0,0,0,0,0,0,0,0,0,0,0,0,0,0,0,0,0,0,0,0,0,0,0,0,0,0,0],"id":5,"left_children":[1,3,21,11,5,9,7,-1,15,17,31,13,111,65,125,57,19,119,61,27,29,23,25,117,59,33,-1,77,35,39,45,-1,99,-1,85,-1,37,43,-1,41,47,79,-1,-1,189,53,51,-1,49,155,-1,83,-1,55,165,113,-1,127,-1,-1,-1,63,185,81,-1,-1,67,69,71,153,-1,75,73,163,181,103,-1,123,173,183,-1,107,-1,-1,-1,87,89,-1,-1,93,91,157,159,-1,95,97,115,-1,-1,-1,101,-1,-1,-1,105,-1,-1,-1,109,-1,161,-1,171,-1,-1,-1,-1,-1,-1,-1,121,-1,-1,-1,-1,-1,149,133,129,135,131,-1,137,177,-1,-1,141,145,139,-1,-1,143,-1,187,-1,147,-1,-1,-1,-1,151,-1,-1,-1,-1,-1,-1,-1,175,-1,-1,179,-1,-1,-1,167,-1,-1,169,-1,-1,-1,-1,-1,-1,-1,-1,-1,-1,-1,-1,-1,-1,-1,-1,-1,-1,-1,-1,-1,191,-1,-1],"loss_changes":[6.893482E0,7.38273E0,3.813447E0,5.1787257E0,7.872286E0,5.309208E0,5.61265E0,0E0,4.837468E0,4.75403E0,3.020887E0,5.345449E0,1.7287998E0,2.2968323E0,1.4807158E0,2.3946924E0,4.5381017E0,1.5842178E0,2.3293629E0,3.7369297E0,3.0581625E0,5.7982836E0,5.408912E0,1.6310607E0,2.3909721E0,2.9447894E0,0E0,2.281547E0,2.9260998E0,2.782806E0,2.6995015E0,0E0,1.8357959E0,0E0,2.1347563E0,0E0,3.3905966E0,2.779389E0,0E0,3.3943098E0,2.664073E0,2.2457001E0,0E0,0E0,7.80287E-1,2.570552E0,2.6442015E0,0E0,3.6956975E0,1.3685083E0,0E0,2.165015E0,0E0,2.4399698E0,1.1744559E0,1.6818163E0,0E0,1.4628172E0,0E0,0E0,0E0,2.346714E0,8.2338E-1,2.1761036E0,0E0,0E0,2.683403E0,3.0408993E0,2.4555655E0,1.3927021E0,0E0,2.3524508E0,2.4473555E0,1.1958511E0,9.8283887E-1,1.8042665E0,0E0,1.5005021E0,1.0531287E0,8.7361634E-1,0E0,1.7817463E0,0E0,0E0,0E0,2.288105E0,2.0061653E0,0E0,0E0,2.2616062E0,2.9042668E0,1.3276789E0,1.3251463E0,0E0,1.8893182E0,4.0030255E0,1.6529807E0,0E0,0E0,0E0,3.075839E0,0E0,0E0,0E0,2.0186577E0,0E0,0E0,0E0,1.7443272E0,0E0,1.2595472E0,0E0,1.1238406E0,0E0,0E0,0E0,0E0,0E0,0E0,0E0,1.9451938E0,0E0,0E0,0E0,0E0,0E0,1.4048815E0,2.8044176E0,3.5392234E0,2.763279E0,3.335971E0,0E0,2.6798902E0,9.850149E-1,0E0,0E0,1.9638844E0,1.9531481E0,2.2747226E0,0E0,0E0,2.6355884E0,0E0,7.910745E-1,0E0,1.8672451E0,0E0,0E0,0E0,0E0,2.151313E0,0E0,0E0,0E0,0E0,0E0,0E0,0E0,1.0149975E0,0E0,0E0,9.839649E-1,0E0,0E0,0E0,1.5990033E0,0E0,0E0,1.2415428E0,0E0,0E0,0E0,0E0,0E0,0E0,0E0,0E0,0E0,0E0,0E0,0E0,0E0,0E0,0E0,0E0,0E0,0E0,0E0,0E0,0E0,1.0577316E0,0E0,0E0],"parents":[2147483647,0,0,1,1,4,4,6,6,5,5,3,3,11,11,8,8,9,9,16,16,2,2,21,21,22,22,19,19,20,20,10,10,25,25,28,28,36,36,29,29,39,39,37,37,30,30,40,40,48,48,46,46,45,45,53,53,15,15,24,24,18,18,61,61,13,13,66,66,67,67,68,68,72,72,71,71,27,27,41,41,63,63,51,51,34,34,85,85,86,86,90,90,89,89,94,94,95,95,32,32,100,100,75,75,104,104,81,81,108,108,12,12,55,55,96,96,23,23,17,17,120,120,77,77,14,14,57,57,128,128,130,130,127,127,129,129,132,132,138,138,136,136,141,141,137,137,145,145,126,126,150,150,69,69,49,49,91,91,92,92,110,110,73,73,54,54,165,165,168,168,112,112,78,78,158,158,133,133,161,161,74,74,79,79,62,62,143,143,44,44,190,190],"right_children":[2,4,22,12,6,10,8,-1,16,18,32,14,112,66,126,58,20,120,62,28,30,24,26,118,60,34,-1,78,36,40,46,-1,100,-1,86,-1,38,44,-1,42,48,80,-1,-1,190,54,52,-1,50,156,-1,84,-1,56,166,114,-1,128,-1,-1,-1,64,186,82,-1,-1,68,70,72,154,-1,76,74,164,182,104,-1,124,174,184,-1,108,-1,-1,-1,88,90,-1,-1,94,92,158,160,-1,96,98,116,-1,-1,-1,102,-1,-1,-1,106,-1,-1,-1,110,-1,162,-1,172,-1,-1,-1,-1,-1,-1,-1,122,-1,-1,-1,-1,-1,150,134,130,136,132,-1,138,178,-1,-1,142,146,140,-1,-1,144,-1,188,-1,148,-1,-1,-1,-1,152,-1,-1,-1,-1,-1,-1,-1,176,-1,-1,180,-1,-1,-1,168,-1,-1,170,-1,-1,-1,-1,-1,-1,-1,-1,-1,-1,-1,-1,-1,-1,-1,-1,-1,-1,-1,-1,-1,192,-1,-1],"split_conditions":[8.8E1,7E1,4.235E1,2.1441573E2,2.9E-4,2.6E-4,8.8376E-1,-7.9203695E-2,5E0,3.9E-4,6E0,1.38038E0,6.6E1,6.4E-4,-2.741459E0,9.969E-2,-3.49272E-1,7.8829E-1,7.9274E-1,1.17607E0,2.64E-3,3.391E1,6.082E1,3E0,7.88E-1,8.9E-4,8.590432E-2,-1.065744E0,1.849981E2,2E0,8.2E1,1.0050701E-1,-9.24893E-1,-7.431066E-2,7.9479E-1,-7.899874E-2,8.501E-2,-1.462085E0,-7.316092E-2,8.6E1,1.37815E0,1.58E-3,8.434957E-2,9.383275E-2,4.575E1,6E0,1.09263E-1,1.0648283E-1,1.38647E0,4.9E-4,9.609078E-2,1.7702E-1,-6.360318E-2,1.117172E0,8.922E-2,-3.0082E-1,7.232317E-2,4.133E1,6.78782E-2,-1.5616417E-2,1.0659913E-1,7.9083E-1,1.414894E0,7.8967E-1,8.9941904E-2,7.5385824E-2,4.637E1,6.1E-4,5.547E1,6.1E1,6.843881E-2,1.1864E0,1.27E-3,4E0,1.17026E0,-2.09738E-1,-4.1372478E-2,-2.161404E0,8.5E1,8.4E1,-7.2915904E-2,8E-4,-7.587451E-2,-4.6367448E-2,8.7711535E-2,5.892E1,1E0,1.03258654E-1,-3.393694E-2,5.4E-4,2.3017E-1,4.336E1,8.972E-2,-7.4943714E-2,5.15E-2,4.565E1,4.258E1,-6.2954605E-2,8.013711E-2,8.266938E-2,8.5E1,-7.031174E-2,8.2800135E-2,-0E0,6.8E-4,-6.518904E-3,1.0456506E-1,6.0825035E-2,-1.262745E0,6.453189E-2,7.8904E-1,-7.7409826E-2,2E0,3.6176074E-2,-7.66719E-2,4.4311028E-2,-7.3352486E-2,3.3715934E-2,-6.624061E-2,-0E0,7.8E1,-9.273445E-3,1.0179844E-1,-0E0,9.423665E-2,-1.7186386E-3,7.2523E-1,8.278E-2,3E0,8.43373E-1,-1.488274E0,9.338556E-2,1.853733E2,-2.215827E0,2.178312E-2,-7.294092E-2,6.104E1,4.773E1,4.658E1,-4.85053E-2,7.170392E-2,1.701707E0,-6.550266E-2,9.77778E-1,-5.425331E-2,4.2E-4,-8.009535E-2,-6.5202564E-2,4.8436817E-2,1.06100835E-1,8.57808E-1,-4.6739623E-2,6.7047246E-2,-0E0,-7.991244E-2,3.1063247E-2,-7.5340584E-2,-2.8963925E-3,5.597E1,-6.783038E-2,4.3221015E-2,8.1E-4,4.2863663E-2,8.799092E-2,-2.0079643E-3,1.98425E-1,-1.9316228E-2,-0E0,1.256216E0,1.0087122E-1,-0E0,-4.2431828E-2,6.8483055E-2,-6.474664E-2,2.752242E-2,9.9567845E-2,-0E0,-0E0,-8.183896E-2,-0E0,-7.2604984E-2,-7.461736E-2,-0E0,7.909746E-2,-3.8272731E-3,-6.4329475E-2,-0E0,-0E0,9.334589E-2,-5.9123263E-2,8.3E1,7.2984174E-2,-1.8330038E-2],"split_indices":[7,7,6,8,10,10,8,0,1,11,1,8,7,11,12,10,12,8,8,8,11,6,6,0,8,11,0,12,9,4,7,0,12,0,8,0,10,12,0,7,8,11,0,0,6,1,12,0,8,10,0,11,0,12,10,12,0,6,0,0,0,8,12,8,0,0,6,10,6,7,0,8,11,0,8,12,0,12,7,7,0,11,0,0,0,6,13,0,0,10,11,6,10,0,10,6,6,0,0,0,7,0,0,0,11,0,0,0,12,0,9,0,4,0,0,0,0,0,0,0,7,0,0,0,0,0,12,10,4,12,12,0,9,12,0,0,6,6,6,0,0,12,0,12,0,11,0,0,0,0,12,0,0,0,0,0,0,0,6,0,0,11,0,0,0,12,0,0,12,0,0,0,0,0,0,0,0,0,0,0,0,0,0,0,0,0,0,0,0,0,7,0,0],"split_type":[0,0,0,0,0,0,0,0,0,0,0,0,0,0,0,0,0,0,0,0,0,0,0,0,0,0,0,0,0,0,0,0,0,0,0,0,0,0,0,0,0,0,0,0,0,0,0,0,0,0,0,0,0,0,0,0,0,0,0,0,0,0,0,0,0,0,0,0,0,0,0,0,0,0,0,0,0,0,0,0,0,0,0,0,0,0,0,0,0,0,0,0,0,0,0,0,0,0,0,0,0,0,0,0,0,0,0,0,0,0,0,0,0,0,0,0,0,0,0,0,0,0,0,0,0,0,0,0,0,0,0,0,0,0,0,0,0,0,0,0,0,0,0,0,0,0,0,0,0,0,0,0,0,0,0,0,0,0,0,0,0,0,0,0,0,0,0,0,0,0,0,0,0,0,0,0,0,0,0,0,0,0,0,0,0,0,0,0,0,0,0,0,0],"sum_hessian":[1.17513306E2,9.643817E1,2.1075136E1,2.0234247E1,7.6203926E1,1.8056534E1,5.8147392E1,4.754363E0,5.339303E1,1.2669909E1,5.386626E0,1.7629314E1,2.6049318E0,1.14771805E1,6.1521344E0,2.2797728E1,3.0595303E1,2.9242306E0,9.745678E0,1.2343465E1,1.8251837E1,6.365459E0,1.4709678E1,1.6493788E0,4.71608E0,1.2240376E1,2.469301E0,3.0992053E0,9.24426E0,8.009318E0,1.0242518E1,2.9884543E0,2.3981714E0,1.4171448E0,1.0823232E1,4.3000565E0,4.9442034E0,3.1348796E0,1.8093237E0,3.3172069E0,4.6921115E0,2.3207483E0,9.9645835E-1,9.812373E-1,2.1536422E0,5.8125725E0,4.429946E0,2.477875E0,2.2142367E0,1.2265131E0,9.877236E-1,1.2064464E0,3.2234998E0,2.402038E0,3.4105344E0,1.903194E0,4.988441E-1,2.2298677E1,4.99049E-1,2.410888E-1,4.4749913E0,6.209638E0,3.5360398E0,5.4656463E0,7.439917E-1,1.4460679E0,1.0031113E1,3.3170123E0,6.7141E0,2.8172207E0,4.9979168E-1,3.8554718E0,2.858628E0,9.701318E-1,1.8884962E0,3.4039485E0,4.5152327E-1,1.9283072E0,1.1708981E0,7.1315914E-1,1.6075892E0,4.268056E0,1.1975901E0,4.684887E-1,7.379577E-1,1.4787903E0,9.344441E0,1.2287903E0,2.5E-1,5.6911855E0,3.6532562E0,2.4579978E0,1.1952584E0,1.6378518E0,4.0533338E0,2.4153605E0,1.6379733E0,7.1262276E-1,1.7027377E0,7.498696E-1,1.6483017E0,1.1610003E0,4.8730153E-1,6.86447E-1,2.7175016E0,2.3045889E-1,2.4870427E0,1.2253636E0,3.0426927E0,4.987188E-1,2.5439737E0,1.6524384E0,9.524935E-1,2.4987546E-1,1.6533185E0,2.4750203E-1,1.3904712E0,7.1175265E-1,9.376261E-1,7.04985E-1,2.2192457E0,2.3403248E-1,1.985213E0,6.851302E-1,1.243177E0,2.2364646E-1,5.928488E0,6.9290853E0,1.5369593E1,8.846074E0,6.5235195E0,9.901894E-1,5.53333E0,6.2115083E0,7.1757674E-1,5.5539646E0,3.2921093E0,3.596299E0,1.9370311E0,4.72973E-1,1.4640582E0,2.1659877E0,1.1261215E0,1.491295E0,6.746928E-1,1.6861246E0,1.9101743E0,7.2100306E-1,9.6512157E-1,3.7290082E0,2.1994796E0,4.6972495E-1,1.7297546E0,4.7206756E-1,2.345153E0,2.4978945E-1,9.767237E-1,2.2537796E-1,2.23262E0,9.472786E-1,2.4797975E-1,2.2958474E0,2.4812639E-1,7.460568E-1,2.2407506E-1,3.166205E0,2.4432936E-1,6.864661E-1,2.479739E0,1.987482E0,4.9225703E-1,4.5448244E-1,4.9801108E-1,9.219663E-1,2.4893178E-1,1.7414862E0,4.9113375E-1,7.047444E-1,5.506764E0,4.8254192E-1,1.8133054E0,1.4069777E0,4.8151857E-1,4.8643857E-1,2.2672059E-1,3.04474E0,4.912998E-1,4.942084E-1,9.970865E-1,6.979085E-1,1.4557338E0,4.993589E-1,9.563748E-1],"tree_param":{"num_deleted":"0","num_feature":"15","num_nodes":"193","size_leaf_vector":"1"}},{"base_weights":[4.6456333E-2,2.1850269E-1,-1.8927677E-1,-4.9989286E-1,1.0424199E-1,5.545549E-1,-3.524968E-1,1.7893973E-1,8.948407E-2,1.2057428E-1,1.1856091E0,-5.27706E-2,1.0302935E-1,1.0954598E0,3.0610282E-2,5.030806E-1,-9.3465E-1,2.923987E-1,-1.00307696E-1,4.2495492E-1,-8.859617E-1,-4.520962E-1,3.1271785E-1,-2.7396268E-1,7.6616186E-1,1.5694907E-2,6.8194157E-1,-2.6500124E-1,1.3327582E0,8.662652E-2,-5.040544E-1,1.2961779E0,-0E0,-7.106947E-2,1.6510655E-1,-4.6754815E-2,-0E0,3.2450998E-1,-7.8073755E-2,1.0195406E-1,-2.875971E-1,-9.915716E-1,6.767339E-1,9.276325E-2,-4.536646E-2,-7.546066E-2,-1.073491E-1,1.1425222E0,3.5811627E-1,-2.3294216E-2,9.4393724E-1,-4.390401E-2,1.2056507E0,9.111135E-2,-0E0,-1.3283977E-1,1.1754946E0,-1.9061908E-1,9.108802E-2,-0E0,1.0376154E-1,9.9185735E-2,5.864529E-1,1.0349039E0,-6.46404E-2,1.3906543E0,-3.993051E-2,-6.0812972E-2,7.626762E-2,2.7068613E-2,-6.52236E-2,-6.139573E-2,5.912446E-1,1.6998568E-1,-7.635617E-1,4.5977557E-1,-1.0699683E0,8.493876E-2,-3.790328E-2,-7.560203E-2,-3.8336298E-1,-5.3945974E-2,-6.920796E-1,-8.123196E-2,-1.1853148E-1,1.1186333E0,-2.8728598E-1,-6.8826723E-1,1.6497463E-1,-6.8284415E-2,7.361958E-1,-4.7787793E-2,1.1875867E0,-8.784615E-3,-7.636014E-2,4.8281577E-1,-7.260942E-2,-5.1214993E-2,1.1759359E0,-7.258724E-2,4.082946E-2,9.034827E-2,-1.9325558E-2,8.7677695E-2,-2.1256988E-1,-7.3393874E-2,5.879234E-2,1.1476907E0,-2.2813365E-1,-5.9139913E-1,6.906689E-2,2.517532E-2,-1.0569983E0,7.73465E-2,-2.607016E-1,4.7002487E-2,-1.1444576E0,2.477481E-2,-7.5696535E-2,9.564505E-2,-6.3873576E-3,-7.392182E-2,2.8794732E-2,-0E0,9.993372E-2,9.016384E-2,-4.4789542E-3,4.0745798E-1,-3.9482263E-1,-3.1345952E-1,8.7719336E-2,7.6930515E-2,-6.1004806E-1,-8.426085E-1,6.4130634E-2,-1.10443E0,2.0402163E-2,-8.033769E-2,2.5632381E-2,2.2054315E-2,-6.5709606E-2,7.761828E-2,-4.3158434E-2,-7.785718E-2,-0E0,-4.029932E-3,1.4499091E0,1.4595962E0,-2.6955663E-3,-6.1352767E-2,1.9173952E-2,6.78672E-2,-3.0217922E-1,-7.1411446E-2,-0E0,7.337776E-2,-2.5001168E-1,-6.1257863E-1,6.7417756E-2,1.5892087E-2,-6.800371E-2,6.7840606E-2,-4.1068804E-2,9.778916E-2,-0E0,6.411538E-2,-0E0,9.794728E-2,-0E0,-8.407758E-1,3.0925112E-2,-1.0941544E0,2.2017729E-2,-7.57713E-2,-0E0,1.4546947E0,3.6762992E-1,-6.350085E-2,7.239603E-2,-0E0,1.0448795E-1,6.285089E-2,-4.4193402E-2,1.649059E0,2.3072398E-1,7.198507E-2,-4.5009777E-2,-0E0,1.0403126E-1,-1.16552174E-1,-7.0417136E-2,2.2258922E-2,-5.980794E-2],"categories":[],"categories_nodes":[],"categories_segments":[],"categories_sizes":[],"default_left":[0,0,0,0,0,0,0,0,0,0,0,0,0,0,0,0,0,0,0,0,0,0,0,0,0,0,0,0,0,0,0,0,0,0,0,0,0,0,0,0,0,0,0,0,0,0,0,0,0,0,0,0,0,0,0,0,0,0,0,0,0,0,0,0,0,0,0,0,0,0,0,0,0,0,0,0,0,0,0,0,0,0,0,0,0,0,0,0,0,0,0,0,0,0,0,0,0,0,0,0,0,0,0,0,0,0,0,0,0,0,0,0,0,0,0,0,0,0,0,0,0,0,0,0,0,0,0,0,0,0,0,0,0,0,0,0,0,0,0,0,0,0,0,0,0,0,0,0,0,0,0,0,0,0,0,0,0,0,0,0,0,0,0,0,0,0,0,0,0,0,0,0,0,0,0,0,0,0,0,0,0,0,0,0,0,0,0,0,0,0,0,0,0],"id":6,"left_children":[1,7,3,79,5,13,45,9,-1,17,11,-1,-1,175,15,55,121,19,21,25,115,35,23,33,31,27,47,29,59,-1,73,183,71,-1,57,-1,37,39,-1,-1,41,99,43,-1,-1,-1,127,61,49,103,51,-1,53,-1,67,149,145,69,-1,-1,-1,-1,63,65,-1,123,-1,-1,-1,-1,-1,-1,165,113,75,77,189,-1,-1,-1,81,85,83,-1,151,101,87,93,89,-1,91,-1,147,95,-1,97,-1,-1,125,-1,-1,-1,-1,-1,105,-1,107,119,109,111,-1,-1,117,-1,159,-1,143,-1,-1,-1,-1,-1,-1,161,-1,-1,-1,129,131,139,-1,-1,133,135,-1,137,-1,-1,141,-1,-1,-1,-1,-1,-1,-1,163,167,-1,-1,-1,-1,153,-1,155,-1,157,169,-1,-1,-1,-1,-1,-1,-1,-1,-1,-1,-1,171,-1,173,-1,-1,-1,179,177,-1,-1,181,-1,-1,-1,187,185,-1,-1,-1,-1,191,-1,-1,-1],"loss_changes":[4.501133E0,3.0690243E0,4.3180313E0,1.7903814E0,4.8178697E0,3.0269258E0,2.337965E0,3.2872872E0,0E0,2.348669E0,5.2451944E0,0E0,0E0,8.492665E-1,2.7974737E0,2.2956095E0,1.4849412E0,5.2767344E0,3.7562206E0,3.0785408E0,1.5927005E0,2.416606E0,3.1775231E0,2.4966726E0,2.594916E0,5.037254E0,2.3047142E0,4.2223682E0,2.0908666E0,0E0,1.8166757E0,8.3342934E-1,1.8651667E0,0E0,2.1469831E0,0E0,3.6341712E0,5.947518E0,0E0,0E0,2.7907567E0,1.72965E0,2.6387334E0,0E0,0E0,0E0,1.3713295E0,1.9965E0,2.8755488E0,1.6113087E0,2.3923678E0,0E0,2.7001677E0,0E0,1.9392645E0,1.293483E0,1.3029065E0,1.8679453E0,0E0,0E0,0E0,0E0,3.4574246E0,2.5353694E0,0E0,1.482017E0,0E0,0E0,0E0,0E0,0E0,0E0,1.0387526E0,1.6055712E0,2.8492904E0,1.865755E0,8.173809E-1,0E0,0E0,0E0,1.8465557E0,2.6052065E0,4.1503224E0,0E0,1.2506082E0,1.6742257E0,1.8086331E0,2.0673282E0,2.995119E0,0E0,2.269901E0,0E0,1.2965224E0,2.209323E0,0E0,2.0479252E0,0E0,0E0,1.4436297E0,0E0,0E0,0E0,0E0,0E0,2.3415265E0,0E0,1.7984073E0,1.5186096E0,1.7306476E0,1.7068689E0,0E0,0E0,1.535229E0,0E0,1.1470515E0,0E0,1.3328412E0,0E0,0E0,0E0,0E0,0E0,0E0,1.0885903E0,0E0,0E0,0E0,2.9970908E0,2.2412174E0,1.3671681E0,0E0,0E0,2.3600883E0,1.9650891E0,0E0,2.4792285E0,0E0,0E0,1.3622714E0,0E0,0E0,0E0,0E0,0E0,0E0,0E0,1.0414872E0,9.6287155E-1,0E0,0E0,0E0,0E0,1.9390976E0,0E0,1.622752E0,0E0,1.7294292E0,9.217104E-1,0E0,0E0,0E0,0E0,0E0,0E0,0E0,0E0,0E0,0E0,0E0,1.1197361E0,0E0,1.0427034E0,0E0,0E0,0E0,1.970756E0,3.3451195E0,0E0,0E0,1.0178676E0,0E0,0E0,0E0,9.1777563E-1,1.6180252E0,0E0,0E0,0E0,0E0,9.9120593E-1,0E0,0E0,0E0],"parents":[2147483647,0,0,2,2,4,4,1,1,7,7,10,10,5,5,14,14,9,9,17,17,18,18,22,22,19,19,25,25,27,27,24,24,23,23,21,21,36,36,37,37,40,40,42,42,6,6,26,26,48,48,50,50,52,52,15,15,34,34,28,28,47,47,62,62,63,63,54,54,57,57,32,32,30,30,74,74,75,75,3,3,80,80,82,82,81,81,86,86,88,88,90,90,87,87,93,93,95,95,41,41,85,85,49,49,104,104,106,106,108,108,109,109,73,73,20,20,112,112,107,107,16,16,65,65,98,98,46,46,127,127,128,128,132,132,133,133,135,135,129,129,138,138,116,116,56,56,92,92,55,55,84,84,152,152,154,154,156,156,114,114,123,123,146,146,72,72,147,147,157,157,169,169,171,171,13,13,176,176,175,175,179,179,31,31,184,184,183,183,76,76,189,189],"right_children":[2,8,4,80,6,14,46,10,-1,18,12,-1,-1,176,16,56,122,20,22,26,116,36,24,34,32,28,48,30,60,-1,74,184,72,-1,58,-1,38,40,-1,-1,42,100,44,-1,-1,-1,128,62,50,104,52,-1,54,-1,68,150,146,70,-1,-1,-1,-1,64,66,-1,124,-1,-1,-1,-1,-1,-1,166,114,76,78,190,-1,-1,-1,82,86,84,-1,152,102,88,94,90,-1,92,-1,148,96,-1,98,-1,-1,126,-1,-1,-1,-1,-1,106,-1,108,120,110,112,-1,-1,118,-1,160,-1,144,-1,-1,-1,-1,-1,-1,162,-1,-1,-1,130,132,140,-1,-1,134,136,-1,138,-1,-1,142,-1,-1,-1,-1,-1,-1,-1,164,168,-1,-1,-1,-1,154,-1,156,-1,158,170,-1,-1,-1,-1,-1,-1,-1,-1,-1,-1,-1,172,-1,174,-1,-1,-1,180,178,-1,-1,182,-1,-1,-1,188,186,-1,-1,-1,-1,192,-1,-1,-1],"split_conditions":[2.59E-3,9.6E1,1.861952E2,3.571E1,2.1423534E2,7.7E1,6.8E1,2.3E-3,8.948407E-2,3.1E-4,-9.76913E-1,-5.27706E-2,1.0302935E-1,2.1394688E2,1.065217E0,8.4E1,2.1434079E2,1.51E-3,1.46E-3,7.9041E-1,3.378E1,1.17607E0,-5.40344E-1,5.2E-4,1.065217E0,1.540453E0,7.9702E-1,1.9E-4,7.8629E-1,8.662652E-2,4.37E1,8.6E1,1.65E-3,-7.106947E-2,8.4E1,-4.6754815E-2,1.38072E0,-6.01618E-1,-7.8073755E-2,1.0195406E-1,1.3603E0,7.157E1,5.923E1,9.276325E-2,-4.536646E-2,-7.546066E-2,4.92E1,5E0,5E0,3.319E1,3.754E1,-4.390401E-2,5.448E1,9.111135E-2,6.015E1,-4.54575E-1,3.018E1,7.8E1,9.108802E-2,-0E0,1.0376154E-1,9.9185735E-2,1.45725E0,7.9546E-1,-6.46404E-2,8.3E1,-3.993051E-2,-6.0812972E-2,7.626762E-2,2.7068613E-2,-6.52236E-2,-6.139573E-2,1.17254E0,8.2E1,7.8698E-1,5.827E1,7.7E1,8.493876E-2,-3.790328E-2,-7.560203E-2,5.025E1,1.17607E0,5.718E1,-8.123196E-2,5.767E1,2E0,8.1E1,7.4E1,3.809E1,-6.8284415E-2,2E0,-4.7787793E-2,3.3191E-1,1.6942E-1,-7.636014E-2,6.8E-4,-7.260942E-2,-5.1214993E-2,1.8547163E2,-7.258724E-2,4.082946E-2,9.034827E-2,-1.9325558E-2,8.7677695E-2,4.227E1,-7.3393874E-2,6.3E1,3E0,8.8525E-1,4.446E1,6.906689E-2,2.517532E-2,1.8E-4,7.73465E-2,-1.23894E-1,4.7002487E-2,2.9E-4,2.477481E-2,-7.5696535E-2,9.564505E-2,-6.3873576E-3,-7.392182E-2,2.8794732E-2,7.9267E-1,9.993372E-2,9.016384E-2,-4.4789542E-3,5E0,7.3E1,1.0562E-1,8.7719336E-2,7.6930515E-2,1.0383E-1,8.9E1,6.4130634E-2,2.1557895E2,2.0402163E-2,-8.033769E-2,2.1620688E2,2.2054315E-2,-6.5709606E-2,7.761828E-2,-4.3158434E-2,-7.785718E-2,-0E0,-4.029932E-3,8.178E-2,1.853733E2,-2.6955663E-3,-6.1352767E-2,1.9173952E-2,6.78672E-2,-5.6E-1,-7.1411446E-2,6.9E1,7.337776E-2,8.8E1,1.8608109E2,6.7417756E-2,1.5892087E-2,-6.800371E-2,6.7840606E-2,-4.1068804E-2,9.778916E-2,-0E0,6.411538E-2,-0E0,9.794728E-2,-0E0,5.893E-2,3.0925112E-2,6.937E1,2.2017729E-2,-7.57713E-2,-0E0,1.8645366E2,2.1403885E2,-6.350085E-2,7.239603E-2,1.8626543E2,1.0448795E-1,6.285089E-2,-4.4193402E-2,1.16301E0,2E0,7.198507E-2,-4.5009777E-2,-0E0,1.0403126E-1,5.41509E-1,-7.0417136E-2,2.2258922E-2,-5.980794E-2],"split_indices":[11,7,9,6,8,7,7,11,0,10,12,0,0,9,12,7,9,11,11,9,6,8,12,10,12,12,8,11,8,0,6,7,11,0,7,0,8,12,0,0,8,6,6,0,0,0,6,1,1,6,6,0,6,0,6,12,6,7,0,0,0,0,12,9,0,7,0,0,0,0,0,0,8,7,8,6,7,0,0,0,6,8,6,0,6,0,7,7,6,0,0,0,11,11,0,10,0,0,8,0,0,0,0,0,6,0,7,0,8,6,0,0,11,0,12,0,10,0,0,0,0,0,0,8,0,0,0,1,7,11,0,0,10,7,0,8,0,0,8,0,0,0,0,0,0,0,10,9,0,0,0,0,12,0,7,0,7,8,0,0,0,0,0,0,0,0,0,0,0,10,0,6,0,0,0,8,9,0,0,9,0,0,0,8,4,0,0,0,0,12,0,0,0],"split_type":[0,0,0,0,0,0,0,0,0,0,0,0,0,0,0,0,0,0,0,0,0,0,0,0,0,0,0,0,0,0,0,0,0,0,0,0,0,0,0,0,0,0,0,0,0,0,0,0,0,0,0,0,0,0,0,0,0,0,0,0,0,0,0,0,0,0,0,0,0,0,0,0,0,0,0,0,0,0,0,0,0,0,0,0,0,0,0,0,0,0,0,0,0,0,0,0,0,0,0,0,0,0,0,0,0,0,0,0,0,0,0,0,0,0,0,0,0,0,0,0,0,0,0,0,0,0,0,0,0,0,0,0,0,0,0,0,0,0,0,0,0,0,0,0,0,0,0,0,0,0,0,0,0,0,0,0,0,0,0,0,0,0,0,0,0,0,0,0,0,0,0,0,0,0,0,0,0,0,0,0,0,0,0,0,0,0,0,0,0,0,0,0,0],"sum_hessian":[1.10701996E2,6.480556E1,4.5896435E1,2.283752E1,2.3058914E1,1.1972522E1,1.1086393E1,6.331362E1,1.4919354E0,6.0176277E1,3.1373434E0,6.65946E-1,2.4713974E0,5.569664E0,6.402858E0,4.535046E0,1.867812E0,3.468294E1,2.5493338E1,3.143981E1,3.2431302E0,1.4197502E1,1.1295836E1,4.610965E0,6.684871E0,1.2630931E1,1.880888E1,1.0219505E1,2.411425E0,9.902846E-1,9.229221E0,3.8662677E0,2.8186035E0,1.5802054E0,3.0307596E0,7.1122003E0,7.085302E0,5.6468587E0,1.4384432E0,1.7313797E0,3.9154792E0,2.460652E0,1.4548271E0,9.912052E-1,4.636218E-1,1.8366299E0,9.2497635E0,7.322013E0,1.1486866E1,6.628582E0,4.8582845E0,4.610623E-1,4.397222E0,3.198302E0,1.19892E0,2.0874357E0,2.4476101E0,2.2943451E0,7.3641425E-1,6.879861E-1,1.723439E0,2.9809923E0,4.3410206E0,3.6228423E0,7.181785E-1,3.176123E0,4.4671944E-1,7.059405E-1,4.9297953E-1,1.1779156E0,1.1164297E0,9.0167415E-1,1.9169294E0,2.2142189E0,7.0150023E0,1.1873137E0,5.8276887E0,7.483843E-1,4.3892938E-1,2.2735584E0,2.0563961E1,1.0477527E1,1.0086435E1,3.93226E0,6.154175E0,1.4908707E0,8.986656E0,5.144093E0,3.8425632E0,9.261987E-1,2.9163642E0,4.7202832E-1,2.444336E0,2.8974125E0,2.2466803E0,1.945753E0,9.516596E-1,4.775135E-1,1.4682395E0,2.2117887E0,2.4886341E-1,1.2465341E0,2.4433665E-1,4.87986E-1,6.140596E0,1.3946157E0,4.7459803E0,1.216182E0,3.5297983E0,3.0302427E0,4.995555E-1,7.101972E-1,2.3200455E0,7.470003E-1,1.4672185E0,2.4613588E-1,2.9969945E0,2.4779826E-1,2.0722473E0,9.859004E-1,2.3028153E-1,1.6184946E0,2.4931747E-1,9.4871086E-1,2.227412E0,1.2405936E0,2.2764598E-1,2.9000046E0,6.3497586E0,1.6584246E0,1.2415799E0,4.976949E-1,5.8520637E0,5.3535304E0,4.9853307E-1,4.6316776E0,7.2185284E-1,3.679995E0,9.5168245E-1,7.241165E-1,9.343082E-1,4.9299908E-1,4.5868334E-1,2.5334985E0,4.634959E-1,2.2700968E-1,2.2206004E0,2.2192507E0,2.2508523E-1,8.9587355E-1,1.1915622E0,4.9964482E-1,5.65453E0,1.3903862E0,4.264144E0,7.410644E-1,3.5230794E0,3.0233226E0,4.997568E-1,7.3935187E-1,7.2786665E-1,4.9895436E-1,4.497565E-1,1.7416439E0,4.7895646E-1,1.2018312E0,7.15098E-1,1.7303674E0,4.888833E-1,2.773554E0,2.4976853E-1,2.5273073E0,2.4624677E-1,2.0676763E0,4.596311E-1,3.411358E0,2.158306E0,7.006456E-1,1.4576602E0,9.5463455E-1,2.4567237E0,4.964639E-1,4.5817065E-1,2.662973E0,1.2032948E0,7.413417E-1,4.6195307E-1,4.598351E-1,2.2031379E0,1.421408E0,4.4062805E0,7.171717E-1,7.042363E-1],"tree_param":{"num_deleted":"0","num_feature":"15","num_nodes":"193","size_leaf_vector":"1"}}]},"name":"gbtree"},"learner_model_param":{"base_score":"4.1338244E-1","boost_from_average":"1","num_class":"0","num_feature":"15","num_target":"1"},"objective":{"name":"binary:logistic","reg_loss_param":{"scale_pos_weight":"1"}}},"version":[2,1,4]}