{"learner":{"attributes":{},"feature_names":["entry_price","symbol_enc","side_enc"],"feature_types":["float","float","float"],"gradient_booster":{"model":{"gbtree_model_param":{"num_parallel_tree":"1","num_trees":"7"},"iteration_indptr":[0,1,2,3,4,5,6,7],"tree_info":[0,0,0,0,0,0,0],"trees":[{"base_weights":[2.1465886E-3,6.1064985E-2,-5.1426023E-2,1.4478832E-1,4.5689475E-2,3.7051353E-3,1.4478832E-1],"categories":[],"categories_nodes":[],"categories_segments":[],"categories_sizes":[],"default_left":[0,0,0,0,0,0,0],"id":0,"left_children":[1,3,-1,-1,5,-1,-1],"loss_changes":[4.424272E0,2.666427E0,0E0,0E0,2.742199E0,0E0,0E0],"parents":[2147483647,0,0,1,1,4,4],"right_children":[2,4,-1,-1,6,-1,-1],"split_conditions":[2.1324078E2,7.72015E-1,-5.1426023E-2,1.4478832E-1,2.1273999E2,3.7051353E-3,1.4478832E-1],"split_indices":[0,0,0,0,0,0,0],"split_type":[0,0,0,0,0,0,0],"sum_hessian":[1.8032536E2,1.5805127E2,2.2274092E1,2.1326258E0,1.5591864E2,1.5378603E2,2.1326258E0],"tree_param":{"num_deleted":"0","num_feature":"3","num_nodes":"7","size_leaf_vector":"1"}},{"base_weights":[1.26980515E-2,8.805207E-3,-4.2164493E-1,-8.614811E-2,3.458814E-2,2.2087374E-1,-3.3131953E-2],"categories":[],"categories_nodes":[],"categories_segments":[],"categories_sizes":[],"default_left":[0,0,0,0,0,0,0],"id":1,"left_children":[1,-1,3,-1,5,-1,-1],"loss_changes":[4.5624566E0,0E0,2.6700952E0,0E0,4.2406073E0,0E0,0E0],"parents":[2147483647,0,0,2,2,4,4],"right_children":[2,-1,4,-1,6,-1,-1],"split_conditions":[2.1324078E2,8.805207E-3,2.1486372E2,-8.614811E-2,2.1503358E2,2.2087374E-1,-3.3131953E-2],"split_indices":[0,0,0,0,0,0,0],"split_type":[0,0,0,0,0,0,0],"sum_hessian":[1.803119E2,1.5901378E2,2.1298128E1,1.3340586E1,7.9575424E0,1.1702268E0,6.787316E0],"tree_param":{"num_deleted":"0","num_feature":"3","num_nodes":"7","size_leaf_vector":"1"}},{"base_weights":[-2.0581963E-2,3.0805351E-2,-4.962125E-2,5.344619E-3,6.9707155E-2,1.2197001E-1,-1.1254053E-3],"categories":[],"categories_nodes":[],"categories_segments":[],"categories_sizes":[],"default_left":[0,0,0,0,0,0,0],"id":2,"left_children":[1,3,-1,5,-1,-1,-1],"loss_changes":[3.511041E0,2.12933E0,0E0,2.1490908E0,0E0,0E0,0E0],"parents":[2147483647,0,0,1,1,3,3],"right_children":[2,4,-1,6,-1,-1,-1],"split_conditions":[2.1324078E2,2.1241116E2,-4.962125E-2,7.72015E-1,6.9707155E-2,1.2197001E-1,-1.1254053E-3],"split_indices":[0,0,0,0,0,0,0],"split_type":[0,0,0,0,0,0,0],"sum_hessian":[1.7956815E2,1.5813133E2,2.1436823E1,1.5095123E2,7.1800947E0,2.196322E0,1.4875491E2],"tree_param":{"num_deleted":"0","num_feature":"3","num_nodes":"7","size_leaf_vector":"1"}},{"base_weights":[1.4514606E-2,7.4006477E-3,-3.3341542E-1,-7.438005E-2,1.2045194E-1,2.1006018E-1,-3.1091776E-2],"categories":[],"categories_nodes":[],"categories_segments":[],"categories_sizes":[],"default_left":[0,0,0,0,0,0,0],"id":3,"left_children":[1,-1,3,-1,5,-1,-1],"loss_changes":[2.8342252E0,0E0,2.5160208E0,0E0,4.5043664E0,0E0,0E0],"parents":[2147483647,0,0,2,2,4,4],"right_children":[2,-1,4,-1,6,-1,-1],"split_conditions":[2.1324078E2,7.4006477E-3,2.1486372E2,-7.438005E-2,2.1503358E2,2.1006018E-1,-3.1091776E-2],"split_indices":[0,0,0,0,0,0,0],"split_type":[0,0,0,0,0,0,0],"sum_hessian":[1.8058096E2,1.5988498E2,2.069599E1,1.3061145E1,7.634844E0,1.4561932E0,6.1786504E0],"tree_param":{"num_deleted":"0","num_feature":"3","num_nodes":"7","size_leaf_vector":"1"}},{"base_weights":[-2.7713846E-2,1.042507E-1,-3.8902555E-2,-7.485809E-1,-2.4823742E-3,-2.8684175E-2,-2.0004295E-1],"categories":[],"categories_nodes":[],"categories_segments":[],"categories_sizes":[],"default_left":[0,0,0,0,0,0,0],"id":4,"left_children":[1,-1,3,5,-1,-1,-1],"loss_changes":[1.7186093E0,0E0,2.344576E0,1.9892721E0,0E0,0E0,0E0],"parents":[2147483647,0,0,2,2,3,3],"right_children":[2,-1,4,6,-1,-1,-1],"split_conditions":[7.72015E-1,1.042507E-1,7.73935E-1,7.72405E-1,-2.4823742E-3,-2.8684175E-2,-2.0004295E-1],"split_indices":[0,0,0,0,0,0,0],"split_type":[0,0,0,0,0,0,0],"sum_hessian":[1.7831268E2,2.2314627E0,1.7608122E2,4.52119E0,1.7156003E2,2.8554888E0,1.6657017E0],"tree_param":{"num_deleted":"0","num_feature":"3","num_nodes":"7","size_leaf_vector":"1"}},{"base_weights":[-8.1848595E-3,1.8404287E-1,-2.3149563E-2,1.3426683E-2,-3.751984E-2,-1.9523205E-3,7.592982E-2],"categories":[],"categories_nodes":[],"categories_segments":[],"categories_sizes":[],"default_left":[0,0,0,0,0,0,0],"id":5,"left_children":[1,-1,3,5,-1,-1,-1],"loss_changes":[3.9684415E0,0E0,1.8161184E0,2.7478395E0,0E0,0E0,0E0],"parents":[2147483647,0,0,2,2,3,3],"right_children":[2,-1,4,6,-1,-1,-1],"split_conditions":[7.72015E-1,1.8404287E-1,2.1324078E2,2.1241116E2,-3.751984E-2,-1.9523205E-3,7.592982E-2],"split_indices":[0,0,0,0,0,0,0],"split_type":[0,0,0,0,0,0,0],"sum_hessian":[1.78839E2,1.7473556E0,1.7709164E2,1.5655257E2,2.0539083E1,1.4926685E2,7.285726E0],"tree_param":{"num_deleted":"0","num_feature":"3","num_nodes":"7","size_leaf_vector":"1"}},{"base_weights":[-1.0120812E-2,2.0906699E-1,-4.4144373E-3,-2.62224E-2,1.8631162E-1,-3.2242417E-2,4.4011347E-2],"categories":[],"categories_nodes":[],"categories_segments":[],"categories_sizes":[],"default_left":[0,0,0,0,0,0,0],"id":6,"left_children":[1,3,-1,5,-1,-1,-1],"loss_changes":[9.961633E-1,5.6781144E0,0E0,1.3999718E0,0E0,0E0,0E0],"parents":[2147483647,0,0,1,1,3,3],"right_children":[2,4,-1,6,-1,-1,-1],"split_conditions":[7.77875E-1,7.76295E-1,-4.4144373E-3,1E0,1.8631162E-1,-3.2242417E-2,4.4011347E-2],"split_indices":[0,0,0,2,0,0,0],"split_type":[0,0,0,0,0,0,0],"sum_hessian":[1.7885663E2,1.8543205E1,1.6031342E2,1.5690508E1,2.8526974E0,9.758651E0,5.931857E0],"tree_param":{"num_deleted":"0","num_feature":"3","num_nodes":"7","size_leaf_vector":"1"}}]},"name":"gbtree"},"learner_model_param":{"base_score":"3.8580033E-1","boost_from_average":"1","num_class":"0","num_feature":"3","num_target":"1"},"objective":{"name":"binary:logistic","reg_loss_param":{"scale_pos_weight":"1"}}},"version":[2,1,4]}