{"learner":{"attributes":{},"feature_names":["symbol_id","category","market_type","indicator","trend_dir","score","rsi","body","ema50","ema200","atr","dist","relative_momentum","side_enc","raw_market_type_enc"],"feature_types":["float","float","float","float","float","float","float","float","float","float","float","float","float","float","float"],"gradient_booster":{"model":{"gbtree_model_param":{"num_parallel_tree":"1","num_trees":"6"},"iteration_indptr":[0,1,2,3,4,5,6],"tree_info":[0,0,0,0,0,0],"trees":[{"base_weights":[-1.1866494E-2,-5.36824E-2,3.6963285E-3,-1.0769083E-1,3.9882783E-2,4.1326737E-1,-6.9909734E-3,7.122126E-2,-3.0522662E-1,-3.869541E-2,1.4229529E-3,-1.13083914E-1,6.600122E-2,4.382789E-2,2.5687208E-2,7.82434E-2,-2.3459108E-1,-3.868629E-2,2.4899734E-2,-1.1658161E-1,2.0187514E-1,6.212548E-1,7.883227E-3,-1.7942667E-2,3.921206E-2,1.2252304E-1,-3.521753E-2,1.0492292E-2,-2.4473858E-1,-4.79243E-2,-4.9608946E-2,-2.8367576E-1,2.7132183E-2,2.2587755E-3,6.189111E-2,-8.7411895E-2,2.5720792E-2,-3.5725646E-2,1.1379671E-2,3.336453E-2,-2.6142051E-2,2.4412471E-1,-1.16627645E-2,2.4077909E-2,-1.9493534E-1,-3.5777953E-2,-4.3341455E-1,-2.4769545E-1,2.4802469E-1,4.7624532E-2,2.4286539E-3,3.41349E-3,-4.100802E-1,3.989424E-4,-5.6263026E-2,3.4093477E-2,-4.6503294E-2,-2.3852441E-2,1.4658986E-2,-4.5822423E-2,-3.7500479E-3,4.8026502E-2,-4.0406268E-2,1.8557732E-1,-2.8944997E-2,-1.0177657E-2,3.7613213E-2,2.5413215E-2,2.2255696E-4,-4.1654337E-2,2.073664E-2],"categories":[],"categories_nodes":[],"categories_segments":[],"categories_sizes":[],"default_left":[0,0,0,0,0,0,0,0,0,0,0,0,0,0,0,0,0,0,0,0,0,0,0,0,0,0,0,0,0,0,0,0,0,0,0,0,0,0,0,0,0,0,0,0,0,0,0,0,0,0,0,0,0,0,0,0,0,0,0,0,0,0,0,0,0,0,0,0,0,0,0],"id":0,"left_children":[1,-1,3,7,5,21,11,23,9,-1,-1,43,13,-1,15,19,17,-1,-1,27,41,33,-1,25,-1,35,-1,-1,29,31,-1,37,-1,39,-1,61,-1,-1,-1,-1,-1,67,-1,55,45,47,59,51,49,-1,-1,-1,53,-1,-1,-1,57,-1,-1,-1,-1,63,-1,65,-1,-1,-1,-1,69,-1,-1],"loss_changes":[7.089578E0,0E0,2.8003185E0,6.1485147E0,9.2131815E0,3.503704E0,3.6947896E0,3.493912E0,4.558739E0,0E0,0E0,2.215175E0,5.281101E0,0E0,3.7398982E0,5.574725E0,6.787422E0,0E0,0E0,3.0445828E0,2.2439098E0,2.9043045E0,0E0,5.0977354E0,0E0,2.8288422E0,0E0,0E0,4.2483063E0,4.6794825E0,0E0,2.425889E0,0E0,2.3013988E0,0E0,2.1287656E0,0E0,0E0,0E0,0E0,0E0,2.0917544E0,0E0,2.2778609E0,4.548364E0,5.1327024E0,2.2563696E0,2.3876219E0,2.5808372E0,0E0,0E0,0E0,3.7267666E0,0E0,0E0,0E0,4.2362895E0,0E0,0E0,0E0,0E0,2.1300585E0,0E0,2.6907506E0,0E0,0E0,0E0,0E0,5.0535593E0,0E0,0E0],"parents":[2147483647,0,0,2,2,4,4,3,3,8,8,6,6,12,12,14,14,16,16,15,15,5,5,7,7,23,23,19,19,28,28,29,29,21,21,25,25,31,31,33,33,20,20,11,11,44,44,45,45,48,48,47,47,52,52,43,43,56,56,46,46,35,35,61,61,63,63,41,41,68,68],"right_children":[2,-1,4,8,6,22,12,24,10,-1,-1,44,14,-1,16,20,18,-1,-1,28,42,34,-1,26,-1,36,-1,-1,30,32,-1,38,-1,40,-1,62,-1,-1,-1,-1,-1,68,-1,56,46,48,60,52,50,-1,-1,-1,54,-1,-1,-1,58,-1,-1,-1,-1,64,-1,66,-1,-1,-1,-1,70,-1,-1],"split_conditions":[7.6945E-1,-5.36824E-2,4.177E1,1.3533E0,4.397E1,4E0,1.17036E0,1.19465E0,2.1156267E2,-3.869541E-2,1.4229529E-3,5.174E1,1.18052E0,4.382789E-2,2.143459E2,1.37156E0,2.1605847E2,-3.868629E-2,2.4899734E-2,5.5E1,2E0,8.8184E-1,7.883227E-3,1.16791E0,3.921206E-2,8.6983E-1,-3.521753E-2,1.0492292E-2,5.694E1,6.5E1,-4.9608946E-2,5.275E1,2.7132183E-2,8.6883E-1,6.189111E-2,4.081E1,2.5720792E-2,-3.5725646E-2,1.1379671E-2,3.336453E-2,-2.6142051E-2,5.991E1,-1.16627645E-2,7.7677E-1,8.7382E-1,7.8827E-1,6.258E1,7.7791E-1,7.9703E-1,4.7624532E-2,2.4286539E-3,3.41349E-3,5.845E1,3.989424E-4,-5.6263026E-2,3.4093477E-2,8.6883E-1,-2.3852441E-2,1.4658986E-2,-4.5822423E-2,-3.7500479E-3,8.651E-1,-4.0406268E-2,7.8711E-1,-2.8944997E-2,-1.0177657E-2,3.7613213E-2,2.5413215E-2,5.5E1,-4.1654337E-2,2.073664E-2],"split_indices":[9,0,6,8,6,0,8,9,8,0,0,6,8,0,9,8,8,0,0,5,3,8,0,8,0,8,0,0,6,5,0,6,0,8,0,6,0,0,0,0,0,6,0,9,8,8,6,8,8,0,0,0,6,0,0,0,8,0,0,0,0,9,0,9,0,0,0,0,5,0,0],"split_type":[0,0,0,0,0,0,0,0,0,0,0,0,0,0,0,0,0,0,0,0,0,0,0,0,0,0,0,0,0,0,0,0,0,0,0,0,0,0,0,0,0,0,0,0,0,0,0,0,0,0,0,0,0,0,0,0,0,0,0,0,0,0,0,0,0,0,0,0,0,0,0],"sum_hessian":[6.9481055E2,1.0966845E1,6.838437E2,1.6474637E2,5.190973E2,5.312827E1,4.6596906E2,8.822217E1,7.65242E1,4.8497826E1,2.802638E1,1.8887343E2,2.770956E2,1.6328413E1,2.6076718E2,2.2031172E2,4.045547E1,2.8513796E1,1.1941675E1,8.554139E1,1.3477034E2,2.8757504E1,2.4370766E1,7.6767914E1,1.145426E1,6.0195793E1,1.657212E1,2.9244919E1,5.629647E1,4.069918E1,1.559729E1,2.607672E1,1.4622459E1,6.336399E0,2.2421104E1,3.021975E1,2.9976042E1,1.9009197E1,7.067522E0,2.193369E0,4.14303E0,1.2161012E2,1.3160213E1,7.189376E1,1.16979675E2,7.408713E1,4.2892548E1,4.2892548E1,3.119458E1,8.529768E0,2.2664812E1,1.6815828E1,2.607672E1,1.2672798E1,1.3403921E1,6.8238144E0,6.506995E1,3.0463457E1,3.4606487E1,3.021975E1,1.2672798E1,2.6320427E1,3.8993225E0,2.193369E1,4.386738E0,1.1697968E1,1.0235722E1,9.3827446E1,2.7782673E1,7.3112297E0,2.0471443E1],"tree_param":{"num_deleted":"0","num_feature":"15","num_nodes":"71","size_leaf_vector":"1"}},{"base_weights":[-1.621927E-2,-3.9262096E-3,-5.120072E-1,-1.9183245E-2,3.471018E-1,4.357537E-2,-1.2434232E-1,-5.8099512E-2,1.8053178E-1,-2.427014E-1,4.003198E-2,1.5820089E-1,-3.108533E-2,4.738734E-2,5.816073E-2,-1.4908634E-2,4.278213E-2,1.0540382E-2,-6.1946582E-2,2.528548E-1,-3.7333276E-3,2.8527623E-2,3.5134768E-1,2.4728405E-1,-3.8972326E-2,1.4744624E-2,4.5893317E-1,5.838305E-2,1.3102827E-2,3.0759962E-2,-2.0345323E-2,6.183659E-2,6.230924E-2,-2.1775468E-1,3.755391E-2,-4.2890444E-2,1.1269702E-2,-1.0164809E-1,2.0897105E-1,-3.6259104E-2,-2.7412085E-2,3.547629E-1,-6.7407885E-3,-9.255456E-3,5.2897844E-2,5.6921536E-1,-2.7574233E-3,5.931934E-2,-2.0530425E-2,-3.0780373E-2,4.0688854E-2,1.7708412E-1,-2.3138563E-1,-9.230836E-2,4.547074E-2,2.079661E-2,-3.774434E-2,2.3042796E-2,-2.9384177E-2,-9.201057E-2,-3.850519E-1,-6.186523E-1,-7.756467E-2,4.5208675E-3,-6.2559545E-2,-3.3922935E-1,2.155252E-2,1.3109278E-2,-4.466619E-2,-2.493619E-2,5.082943E-3],"categories":[],"categories_nodes":[],"categories_segments":[],"categories_sizes":[],"default_left":[0,0,0,0,0,0,0,0,0,0,0,0,0,0,0,0,0,0,0,0,0,0,0,0,0,0,0,0,0,0,0,0,0,0,0,0,0,0,0,0,0,0,0,0,0,0,0,0,0,0,0,0,0,0,0,0,0,0,0,0,0,0,0,0,0,0,0,0,0,0,0],"id":1,"left_children":[1,3,17,5,15,7,9,37,19,59,11,13,-1,49,-1,-1,-1,-1,-1,21,-1,23,25,31,-1,29,27,-1,-1,-1,-1,-1,33,35,-1,-1,-1,39,45,-1,41,43,-1,-1,-1,47,-1,-1,-1,51,-1,53,57,55,-1,-1,-1,-1,-1,69,61,63,65,-1,-1,67,-1,-1,-1,-1,-1],"loss_changes":[4.2853246E0,3.7557003E0,3.2805367E0,4.4737687E0,3.3033369E0,5.9850874E0,4.986204E0,3.000623E0,3.0630484E0,2.9623241E0,5.839236E0,5.351593E0,0E0,2.9782503E0,0E0,0E0,0E0,0E0,0E0,3.0116787E0,0E0,6.052107E0,3.4327888E0,3.2805471E0,0E0,3.3271558E0,4.9122896E0,0E0,0E0,0E0,0E0,0E0,4.345835E0,3.0141172E0,0E0,0E0,0E0,5.4529967E0,3.3189483E0,0E0,4.057649E0,3.78453E0,0E0,0E0,0E0,3.0044727E0,0E0,0E0,0E0,3.3395605E0,0E0,4.3774824E0,3.2597892E0,4.272844E0,0E0,0E0,0E0,0E0,0E0,2.7383404E0,5.043544E0,4.422023E0,3.9487154E0,0E0,0E0,3.0465517E0,0E0,0E0,0E0,0E0,0E0],"parents":[2147483647,0,0,1,1,3,3,5,5,6,6,10,10,11,11,4,4,2,2,8,8,19,19,21,21,22,22,26,26,25,25,23,23,32,32,33,33,7,7,37,37,40,40,41,41,38,38,45,45,13,13,49,49,51,51,53,53,52,52,9,9,60,60,61,61,62,62,65,65,59,59],"right_children":[2,4,18,6,16,8,10,38,20,60,12,14,-1,50,-1,-1,-1,-1,-1,22,-1,24,26,32,-1,30,28,-1,-1,-1,-1,-1,34,36,-1,-1,-1,40,46,-1,42,44,-1,-1,-1,48,-1,-1,-1,52,-1,54,58,56,-1,-1,-1,-1,-1,70,62,64,66,-1,-1,68,-1,-1,-1,-1,-1],"split_conditions":[5.1069E-1,9.269E-2,8.354E-2,2.63E-3,4.427E1,1.16E-3,5.758E-2,6.238E1,5.624E1,1E0,8.841E-2,8.627E-2,-3.108533E-2,6.258E1,5.816073E-2,-1.4908634E-2,4.278213E-2,1.0540382E-2,-6.1946582E-2,4.6E-4,-3.7333276E-3,3.2E-4,4.116E1,3.374E1,-3.8972326E-2,5E0,6E-4,5.838305E-2,1.3102827E-2,3.0759962E-2,-2.0345323E-2,6.183659E-2,4.889E1,5E0,3.755391E-2,-4.2890444E-2,1.1269702E-2,2.2E-4,6.395E1,-3.6259104E-2,2.3E-4,5.7E-4,-6.7407885E-3,-9.255456E-3,5.2897844E-2,9.8E-4,-2.7574233E-3,5.931934E-2,-2.0530425E-2,4.917E1,4.0688854E-2,4.434E1,6.137E-2,2.0988E-1,4.547074E-2,2.079661E-2,-3.774434E-2,2.3042796E-2,-2.9384177E-2,4E0,5E1,2E0,1.0562E-1,4.5208675E-3,-6.2559545E-2,3.41E-3,2.155252E-2,1.3109278E-2,-4.466619E-2,-2.493619E-2,5.082943E-3],"split_indices":[11,10,10,11,6,11,10,6,6,13,10,10,0,6,0,0,0,0,0,10,0,10,6,6,0,1,10,0,0,0,0,0,6,1,0,0,0,10,6,0,10,11,0,0,0,11,0,0,0,6,0,6,10,11,0,0,0,0,0,0,6,0,11,0,0,11,0,0,0,0,0],"split_type":[0,0,0,0,0,0,0,0,0,0,0,0,0,0,0,0,0,0,0,0,0,0,0,0,0,0,0,0,0,0,0,0,0,0,0,0,0,0,0,0,0,0,0,0,0,0,0,0,0,0,0,0,0,0,0,0,0,0,0,0,0,0,0,0,0,0,0,0,0,0,0],"sum_hessian":[7.0239465E2,6.9094617E2,1.1448495E1,6.673071E2,2.363903E1,4.197339E2,2.4757326E2,2.4258662E2,1.7714726E2,1.4251633E2,1.0505694E2,8.483934E1,2.0217598E1,7.5824905E1,9.014439E0,5.8535233E0,1.7785507E1,3.900079E0,7.5484157E0,1.3387729E2,4.3269962E1,4.3147003E1,9.073029E1,3.218051E1,1.0966492E1,2.3588873E1,6.714142E1,3.1756136E1,3.5385284E1,8.9982395E0,1.4590633E1,3.9056246E0,2.8274887E1,1.8038887E1,1.0236001E1,8.288945E0,9.749942E0,2.1165572E2,3.0930908E1,3.259316E1,1.7906256E2,1.8752308E1,1.6031024E2,8.513316E0,1.0238993E1,9.499496E0,2.1431412E1,8.524685E0,9.748116E-1,6.9002785E1,6.822117E0,3.412184E1,3.4880947E1,2.2406298E1,1.1715543E1,1.2415212E1,9.991087E0,5.624057E0,2.925689E1,7.380417E1,6.871215E1,3.577994E1,3.293221E1,7.0752397E0,2.87047E1,1.874533E1,1.4186878E1,5.8526316E0,1.28927E1,2.8731266E1,4.5072903E1],"tree_param":{"num_deleted":"0","num_feature":"15","num_nodes":"71","size_leaf_vector":"1"}},{"base_weights":[-9.764049E-3,1.1136832E-2,-5.203635E-1,1.6343584E-2,-5.9654117E-2,-2.949057E-1,3.4709297E-2,2.1407913E-2,-4.8080403E-2,-1.9481842E-1,6.8844445E-2,-5.588646E-3,-3.2176957E-2,3.4315872E-1,-1.5268007E-2,-2.4173148E-2,4.515287E-2,1.3445528E-2,1.5916413E-1,7.9966225E-2,-2.975812E-1,2.2975989E-1,-7.728197E-2,1.0372108E-1,5.4453403E-2,1.9916221E-2,-4.37173E-1,-2.784701E-1,9.045244E-2,2.7057223E-2,-3.9279047E-1,3.9187912E-2,3.148783E-1,5.692619E-2,1.04137205E-1,3.2925148E-2,-5.6265548E-2,1.4727179E-2,-2.3294285E-1,-2.852517E-2,2.4657409E-1,-1.2958535E-2,1.9551557E-1,-3.517103E-2,3.8095653E-1,1.3781477E-2,-2.4925804E-2,-5.524108E-2,-1.8353279E-1,1.8328774E-1,-2.923013E-2,-2.1943254E-2,3.6755774E-2,-2.4048435E-2,1.6541833E-1,3.2999206E-1,-2.8855884E-2,-4.4053536E-2,3.0581555E-3,4.7005333E-2,9.798528E-2,-1.9927118E-2,2.6523229E-2,4.6254903E-2,-4.964156E-3,-3.642081E-2,1.268356E-3,-1.2718834E-2,4.3152604E-2,-1.8865261E-2,1.7119057E-2],"categories":[],"categories_nodes":[],"categories_segments":[],"categories_sizes":[],"default_left":[0,0,0,0,0,0,0,0,0,0,0,0,0,0,0,0,0,0,0,0,0,0,0,0,0,0,0,0,0,0,0,0,0,0,0,0,0,0,0,0,0,0,0,0,0,0,0,0,0,0,0,0,0,0,0,0,0,0,0,0,0,0,0,0,0,0,0,0,0,0,0],"id":2,"left_children":[1,5,3,-1,-1,7,9,-1,-1,11,17,13,-1,15,-1,-1,-1,19,31,21,25,23,27,41,-1,-1,57,29,45,-1,47,35,33,-1,49,-1,37,-1,39,-1,67,-1,43,53,59,-1,-1,-1,65,51,-1,69,-1,-1,55,63,-1,-1,-1,-1,61,-1,-1,-1,-1,-1,-1,-1,-1,-1,-1],"loss_changes":[7.5880194E0,4.98161E0,5.1070004E0,0E0,0E0,9.006955E0,5.085294E0,0E0,0E0,3.1617637E0,2.7913337E0,3.4602454E0,0E0,3.4495296E0,0E0,0E0,0E0,7.4559064E0,3.8923922E0,7.085662E0,5.407799E0,8.061968E0,5.1631966E0,3.2075443E0,0E0,0E0,2.7145233E0,5.54794E0,2.9404774E0,0E0,2.9031734E0,4.549981E0,6.979699E0,0E0,2.7695394E0,0E0,4.6411242E0,0E0,4.0121746E0,0E0,2.2448602E0,0E0,4.184539E0,2.7641304E0,2.6372094E0,0E0,0E0,0E0,2.297091E0,3.364034E0,0E0,2.1764433E0,0E0,0E0,3.2508926E0,2.6303437E0,0E0,0E0,0E0,0E0,2.6866345E0,0E0,0E0,0E0,0E0,0E0,0E0,0E0,0E0,0E0,0E0],"parents":[2147483647,0,0,2,2,1,1,5,5,6,6,9,9,11,11,13,13,10,10,17,17,19,19,21,21,20,20,22,22,27,27,18,18,32,32,31,31,36,36,38,38,23,23,42,42,28,28,30,30,34,34,49,49,43,43,54,54,26,26,44,44,60,60,55,55,48,48,40,40,51,51],"right_children":[2,6,4,-1,-1,8,10,-1,-1,12,18,14,-1,16,-1,-1,-1,20,32,22,26,24,28,42,-1,-1,58,30,46,-1,48,36,34,-1,50,-1,38,-1,40,-1,68,-1,44,54,60,-1,-1,-1,66,52,-1,70,-1,-1,56,64,-1,-1,-1,-1,62,-1,-1,-1,-1,-1,-1,-1,-1,-1,-1],"split_conditions":[2.545455E0,-2.133748E0,8.6551E-1,1.6343584E-2,-5.9654117E-2,4E0,7.8731E-1,2.1407913E-2,-4.8080403E-2,3E0,4.54352E-1,7.7594E-1,-3.2176957E-2,7.6776E-1,-1.5268007E-2,-2.4173148E-2,4.515287E-2,6.9913E-2,1.37467E0,1.35254E0,2E0,-2.49086E-1,1.8528487E2,8.7058E-1,5.4453403E-2,1.9916221E-2,2.1348946E2,-1.637133E0,-1.69811E-1,2.7057223E-2,2E0,8.6699E-1,1.8457375E2,5.692619E-2,1.984512E0,3.2925148E-2,1.101852E0,1.4727179E-2,2.023599E0,-2.852517E-2,1.16976E0,-1.2958535E-2,2E0,-1.144928E0,-1.020362E0,1.3781477E-2,-2.4925804E-2,-5.524108E-2,-1.041696E0,1.1375E0,-2.923013E-2,3E0,3.6755774E-2,-2.4048435E-2,-3.64729E-1,4E0,-2.8855884E-2,-4.4053536E-2,3.0581555E-3,4.7005333E-2,-6.86583E-1,-1.9927118E-2,2.6523229E-2,4.6254903E-2,-4.964156E-3,-3.642081E-2,1.268356E-3,-1.2718834E-2,4.3152604E-2,-1.8865261E-2,1.7119057E-2],"split_indices":[12,12,8,0,0,4,8,0,0,4,12,8,0,8,0,0,0,12,8,8,0,12,8,8,0,0,8,12,12,0,4,8,8,0,12,0,12,0,12,0,8,0,0,12,12,0,0,0,12,12,0,4,0,0,12,4,0,0,0,0,12,0,0,0,0,0,0,0,0,0,0],"split_type":[0,0,0,0,0,0,0,0,0,0,0,0,0,0,0,0,0,0,0,0,0,0,0,0,0,0,0,0,0,0,0,0,0,0,0,0,0,0,0,0,0,0,0,0,0,0,0,0,0,0,0,0,0,0,0,0,0,0,0,0,0,0,0,0,0,0,0,0,0,0,0],"sum_hessian":[7.0073566E2,6.78345E2,2.239069E1,5.114077E0,1.7276611E1,4.3820854E1,6.345241E2,1.5339423E1,2.8481432E1,7.862083E1,5.559033E2,4.3444057E1,3.517677E1,1.3127464E1,3.0316591E1,2.6539202E0,1.0473544E1,3.4877008E2,2.0713321E2,2.9082132E2,5.794876E1,1.477419E2,1.4307944E2,1.2017456E2,2.756733E1,1.0958669E1,4.6990093E1,6.3477657E1,7.9601776E1,8.288962E0,5.5188694E1,1.210571E2,8.60761E1,2.5878649E1,6.0197453E1,2.1442747E1,9.961436E1,4.2400097E1,5.7214256E1,4.7245056E1,9.9692E0,2.9955282E1,9.0219284E1,4.213004E1,4.808924E1,6.915283E1,1.0448942E1,1.8003632E1,3.7185062E1,5.434538E1,5.8520765E0,3.358912E1,2.0756258E1,1.728138E1,2.4848661E1,2.046649E1,4.3821716E0,3.800109E1,8.989001E0,2.4918953E1,2.3170288E1,9.019656E0,1.4150632E1,1.1216981E1,9.249509E0,1.3096749E1,2.4088314E1,5.09442E0,4.87478E0,1.7735212E1,1.5853908E1],"tree_param":{"num_deleted":"0","num_feature":"15","num_nodes":"71","size_leaf_vector":"1"}},{"base_weights":[-9.92441E-3,-1.599161E-1,1.20838E-2,9.212039E-3,-3.3552793E-1,2.9355633E-1,-1.1318994E-2,-2.3475055E-2,4.8203176E-1,3.4145E-2,-1.6062564E-1,-6.8345886E-1,7.010936E-2,-1.8719591E-1,6.9595434E-2,2.5944045E-2,-3.2724567E-2,4.30542E-2,3.512975E-1,6.436169E-2,-4.466188E-1,6.3847685E-1,1.1180565E-3,2.2303728E-2,-4.937832E-2,4.3986467E-1,-1.259043E-1,-6.477156E-2,1.2361763E-2,1.9998407E-1,2.0751154E-2,3.7643743E-1,-1.2588003E-1,-4.2196184E-1,8.721768E-3,6.523057E-2,-1.3586712E-3,-1.2162842E-2,1.926175E-2,-7.2937743E-3,3.604673E-2,-1.0017525E-2,5.473657E-2,-1.7856862E-3,3.9224166E-2,-1.8584354E-2,2.638218E-2,-1.7183035E-3,-5.56106E-2,-3.8145414E-1,2.2517994E-2,5.2078947E-2,-5.348283E-3,8.3917575E-3,-3.6395185E-2,1.5485035E-1,-4.478669E-2,2.342706E-2,-2.1093033E-2,-1.9891012E-2,-2.6122732E-3,6.366025E-3,-1.5308589E-1,-4.191755E-1,5.0098997E-2,-1.482471E-1,3.5690114E-2,1.13685895E-2,-4.724453E-2,2.8790439E-2,-4.099907E-2],"categories":[],"categories_nodes":[],"categories_segments":[],"categories_sizes":[],"default_left":[0,0,0,0,0,0,0,0,0,0,0,0,0,0,0,0,0,0,0,0,0,0,0,0,0,0,0,0,0,0,0,0,0,0,0,0,0,0,0,0,0,0,0,0,0,0,0,0,0,0,0,0,0,0,0,0,0,0,0,0,0,0,0,0,0,0,0,0,0,0,0],"id":3,"left_children":[1,3,9,5,49,7,-1,-1,51,13,11,27,43,15,17,25,-1,19,21,29,23,35,-1,-1,-1,41,45,-1,-1,31,37,39,33,47,-1,-1,-1,55,-1,-1,-1,-1,-1,-1,-1,-1,-1,-1,-1,53,-1,-1,-1,-1,-1,57,59,-1,-1,-1,61,-1,63,69,65,67,-1,-1,-1,-1,-1],"loss_changes":[2.3359685E0,2.7174387E0,2.3801124E0,2.398971E0,1.8459029E0,2.916698E0,0E0,0E0,1.7045221E0,4.404646E0,8.826544E0,2.7664146E0,2.1232696E0,3.6215618E0,3.494609E0,3.0912735E0,0E0,4.795933E0,3.852682E0,2.5239906E0,3.1428328E0,2.4074383E0,0E0,0E0,0E0,2.1948318E0,2.0869203E0,0E0,0E0,6.267907E0,2.3898141E0,2.3586473E0,3.0715694E0,1.8931062E0,0E0,0E0,0E0,1.6382456E0,0E0,0E0,0E0,0E0,0E0,0E0,0E0,0E0,0E0,0E0,0E0,1.6577721E0,0E0,0E0,0E0,0E0,0E0,3.1149254E0,2.095605E0,0E0,0E0,0E0,2.6538205E0,0E0,4.2562394E0,3.1849008E0,4.07886E0,4.93514E0,0E0,0E0,0E0,0E0,0E0],"parents":[2147483647,0,0,1,1,3,3,5,5,2,2,10,10,9,9,13,13,14,14,17,17,18,18,20,20,15,15,11,11,19,19,29,29,32,32,21,21,30,30,31,31,25,25,12,12,26,26,33,33,4,4,8,8,49,49,37,37,55,55,56,56,60,60,62,62,64,64,65,65,63,63],"right_children":[2,4,10,6,50,8,-1,-1,52,14,12,28,44,16,18,26,-1,20,22,30,24,36,-1,-1,-1,42,46,-1,-1,32,38,40,34,48,-1,-1,-1,56,-1,-1,-1,-1,-1,-1,-1,-1,-1,-1,-1,54,-1,-1,-1,-1,-1,58,60,-1,-1,-1,62,-1,64,70,66,68,-1,-1,-1,-1,-1],"split_conditions":[7.8731E-1,3E0,2.1424658E2,7.7594E-1,6.687E1,7.6776E-1,-1.1318994E-2,-2.3475055E-2,5.9E1,3.757E1,2E0,8.9E1,8.9E1,1.35375E0,2.125815E2,3.093E1,-3.2724567E-2,9.4E1,2.1353654E2,4.397E1,8.6983E-1,6.5E1,1.1180565E-3,2.2303728E-2,-4.937832E-2,5.3E1,1.34745E0,-6.477156E-2,1.2361763E-2,1.35721E0,8.8E1,6.5E1,7.8E1,7.4E1,8.721768E-3,6.523057E-2,-1.3586712E-3,6.7E1,1.926175E-2,-7.2937743E-3,3.604673E-2,-1.0017525E-2,5.473657E-2,-1.7856862E-3,3.9224166E-2,-1.8584354E-2,2.638218E-2,-1.7183035E-3,-5.56106E-2,3.306E1,2.2517994E-2,5.2078947E-2,-5.348283E-3,8.3917575E-3,-3.6395185E-2,6.058E1,4.68E1,2.342706E-2,-2.1093033E-2,-1.9891012E-2,5.915E1,6.366025E-3,6.226E1,7E1,4E0,6.755E1,3.5690114E-2,1.13685895E-2,-4.724453E-2,2.8790439E-2,-4.099907E-2],"split_indices":[8,4,8,8,6,8,0,0,6,6,4,7,7,8,8,6,0,7,8,6,8,5,0,0,0,5,8,0,0,8,7,7,7,7,0,0,0,7,0,0,0,0,0,0,0,0,0,0,0,6,0,0,0,0,0,6,6,0,0,0,6,0,6,7,0,6,0,0,0,0,0],"split_type":[0,0,0,0,0,0,0,0,0,0,0,0,0,0,0,0,0,0,0,0,0,0,0,0,0,0,0,0,0,0,0,0,0,0,0,0,0,0,0,0,0,0,0,0,0,0,0,0,0,0,0,0,0,0,0,0,0,0,0,0,0,0,0,0,0,0,0,0,0,0,0],"sum_hessian":[6.9722565E2,8.4955826E1,6.1226984E2,4.5861164E1,3.9094666E1,1.3919477E1,3.1941687E1,2.6397135E0,1.1279764E1,5.47063E2,6.520683E1,1.6667892E1,4.853894E1,7.209432E1,4.7496866E2,3.853138E1,3.3562946E1,4.400529E2,3.491578E1,4.2640683E2,1.3646044E1,1.6127604E1,1.8788177E1,1.7095675E0,1.1936477E1,7.5699973E0,3.096138E1,1.4977474E1,1.6904184E0,9.86964E1,3.2771042E2,6.3536667E1,3.5159733E1,1.3559091E1,2.1600643E1,1.1979713E1,4.147889E0,2.8873538E2,3.897506E1,7.571142E0,5.5965523E1,2.928574E0,4.6414237E0,4.3901657E1,4.6372833E0,2.7528025E1,3.4333558E0,7.766999E0,5.792092E0,3.836995E1,7.24715E-1,8.091416E0,3.188348E0,4.109009E0,3.426094E1,4.3597084E1,2.4513829E2,3.4360878E1,9.236207E0,3.8000484E1,2.071378E2,1.3638687E2,7.075093E1,2.81466E1,4.260433E1,3.0407513E1,1.2196816E1,2.0455103E1,9.95241E0,9.700122E-1,2.7176588E1],"tree_param":{"num_deleted":"0","num_feature":"15","num_nodes":"71","size_leaf_vector":"1"}},{"base_weights":[5.0186664E-3,-3.6084807E-1,3.208623E-2,1.6359132E-2,-5.3348567E-2,5.214704E-2,-4.3720347E-1,-1.9548269E-1,8.51985E-2,-3.9908206E-1,2.513727E-2,-1.8730352E-2,3.5266575E-1,5.924104E-1,-3.3169396E-2,1.4438216E-1,-4.8853356E-2,-1.5732022E-2,7.2795063E-1,-1.5086187E-2,6.819635E-2,-2.4858864E-2,3.191233E-2,-1.49765145E-2,-5.5120658E-2,1.1848558E-1,-7.66059E-4,-3.0739833E-2,8.1585586E-2,-1.1773441E-3,4.505905E-2,2.3025538E-1,-1.09453104E-1,-2.4126601E-1,1.5339343E-1,1.1232856E-1,-3.7320275E-2,2.3008011E-2,-3.3956107E-2,2.708914E-2,-2.0888628E-2,4.082068E-1,-6.7659644E-3,-1.0639319E-2,4.8930876E-2,1.5877695E-1,-2.663675E-2,-1.6030324E-1,3.3594653E-2,2.41956E-1,-2.6900636E-2,4.1142743E-2,2.3217387E-2,1.0098638E-1,-3.1704083E-2,-1.630781E-2,4.5874946E-2,1.9789378E-1,-1.6521372E-1,-9.821227E-2,2.985262E-1,5.1767487E-2,4.147056E-2,2.8570756E-2,-2.4181008E-2,3.7861824E-2,-7.7857915E-3,-5.0548622E-3,-4.796462E-2,-1.5530819E-2,3.124863E-2],"categories":[],"categories_nodes":[],"categories_segments":[],"categories_sizes":[],"default_left":[0,0,0,0,0,0,0,0,0,0,0,0,0,0,0,0,0,0,0,0,0,0,0,0,0,0,0,0,0,0,0,0,0,0,0,0,0,0,0,0,0,0,0,0,0,0,0,0,0,0,0,0,0,0,0,0,0,0,0,0,0,0,0,0,0,0,0,0,0,0,0],"id":4,"left_children":[1,3,5,-1,-1,7,15,9,25,23,11,-1,13,17,-1,21,-1,-1,19,-1,-1,-1,-1,-1,-1,45,27,-1,29,31,-1,41,33,35,37,39,-1,-1,-1,-1,-1,43,-1,-1,-1,51,47,49,-1,55,-1,53,-1,57,-1,-1,-1,59,67,63,61,65,-1,-1,-1,-1,-1,69,-1,-1,-1],"loss_changes":[6.9986076E0,8.785418E0,6.3103886E0,0E0,0E0,5.2968507E0,3.0967636E0,3.505102E0,1.6225915E0,1.6778288E0,3.952999E0,0E0,5.0994797E0,2.712996E0,0E0,1.8296841E0,0E0,0E0,2.531743E0,0E0,0E0,0E0,0E0,0E0,0E0,2.4133854E0,5.238117E0,0E0,5.419701E0,3.2216365E0,0E0,2.4826317E0,3.2500083E0,4.952903E0,3.0506613E0,2.7085872E0,0E0,0E0,0E0,0E0,0E0,3.2647052E0,0E0,0E0,0E0,4.6775856E0,5.8289084E0,5.6094894E0,0E0,4.2719393E0,0E0,4.6481223E0,0E0,4.2036843E0,0E0,0E0,0E0,3.653407E0,2.982873E0,3.5862334E0,4.4410105E0,3.1268287E0,0E0,0E0,0E0,0E0,0E0,3.1398454E0,0E0,0E0,0E0],"parents":[2147483647,0,0,1,1,2,2,5,5,7,7,10,10,12,12,6,6,13,13,18,18,15,15,9,9,8,8,26,26,28,28,29,29,32,32,33,33,34,34,35,35,31,31,41,41,25,25,46,46,47,47,45,45,51,51,49,49,53,53,57,57,60,60,59,59,61,61,58,58,67,67],"right_children":[2,4,6,-1,-1,8,16,10,26,24,12,-1,14,18,-1,22,-1,-1,20,-1,-1,-1,-1,-1,-1,46,28,-1,30,32,-1,42,34,36,38,40,-1,-1,-1,-1,-1,44,-1,-1,-1,52,48,50,-1,56,-1,54,-1,58,-1,-1,-1,60,68,64,62,66,-1,-1,-1,-1,-1,70,-1,-1,-1],"split_conditions":[-2.133748E0,4E0,2.545455E0,1.6359132E-2,-5.3348567E-2,7.861E-1,8.651E-1,1E0,1.8493538E2,8.5E1,8.1E1,-1.8730352E-2,7.7857E-1,7.6913E-1,-3.3169396E-2,2.604651E0,-4.8853356E-2,-1.5732022E-2,-1.68306E0,-1.5086187E-2,6.819635E-2,-2.4858864E-2,3.191233E-2,-1.49765145E-2,-5.5120658E-2,1.101852E0,1.8561617E2,-3.0739833E-2,8.9E1,7.4E1,4.505905E-2,2.143459E2,4.73846E-1,-9.39726E-1,1.964912E0,8.4E1,-3.7320275E-2,2.3008011E-2,-3.3956107E-2,2.708914E-2,-2.0888628E-2,2.1201689E2,-6.7659644E-3,-1.0639319E-2,4.8930876E-2,-2.49086E-1,1.3701E0,8.7338E-1,3.3594653E-2,8E1,-2.6900636E-2,8.9E1,2.3217387E-2,1.35479E0,-3.1704083E-2,-1.630781E-2,4.5874946E-2,8.6941E-1,-5.11416E-1,7.5E1,5E0,8.8401E-1,4.147056E-2,2.8570756E-2,-2.4181008E-2,3.7861824E-2,-7.7857915E-3,-8.27503E-1,-4.796462E-2,-1.5530819E-2,3.124863E-2],"split_indices":[12,4,12,0,0,9,9,13,9,7,7,0,9,9,0,12,0,0,12,0,0,0,0,0,0,12,9,0,7,7,0,9,12,12,12,7,0,0,0,0,0,9,0,0,0,12,9,9,0,7,0,7,0,9,0,0,0,9,12,7,1,9,0,0,0,0,0,12,0,0,0],"split_type":[0,0,0,0,0,0,0,0,0,0,0,0,0,0,0,0,0,0,0,0,0,0,0,0,0,0,0,0,0,0,0,0,0,0,0,0,0,0,0,0,0,0,0,0,0,0,0,0,0,0,0,0,0,0,0,0,0,0,0,0,0,0,0,0,0,0,0,0,0,0,0],"sum_hessian":[6.9580994E2,4.3111374E1,6.5269855E2,1.5376798E1,2.7734575E1,6.3076013E2,2.1938425E1,7.092612E1,5.5983405E2,3.4627438E1,3.629868E1,2.1279701E1,1.5018978E1,1.2384557E1,2.6344216E0,4.877009E0,1.7061417E1,1.4359566E0,1.09486E1,7.1959925E-1,1.0229001E1,1.2180787E0,3.65893E0,2.478505E1,9.842389E0,4.023455E2,1.5748854E2,2.4761038E1,1.3272751E2,1.17568306E2,1.5159199E1,3.5368874E1,8.219943E1,5.514003E1,2.7059404E1,2.1916485E1,3.3223545E1,2.4408857E1,2.650548E0,1.4125304E1,7.7911806E0,2.1553625E1,1.3815247E1,6.093043E0,1.5460583E1,3.1469534E2,8.765013E1,6.9962845E1,1.7687292E1,2.001022E1,4.995262E1,1.6684232E2,1.4785303E2,1.5028464E2,1.6557673E1,9.254835E0,1.0755384E1,1.1132141E2,3.8963234E1,2.8180971E1,8.3140434E1,4.1544647E1,4.159579E1,7.2806854E0,2.0900286E1,7.83386E0,3.3710785E1,3.242095E1,6.5422816E0,2.3924248E1,8.496702E0],"tree_param":{"num_deleted":"0","num_feature":"15","num_nodes":"71","size_leaf_vector":"1"}},{"base_weights":[-1.4503646E-2,-3.060651E-1,8.543585E-3,1.5364654E-1,-4.522924E-2,2.5360592E-2,-3.8833967E-1,-4.233111E-2,1.7188825E-1,-2.0412296E-2,3.2171365E-2,-2.1364983E-2,2.59986E-1,3.2716386E-2,-1.0315655E-2,1.12962626E-1,6.2417514E-3,-6.884487E-2,2.6076188E-2,1.9503637E-1,-2.4898192E-1,2.1891335E-2,-4.4835463E-2,-7.902111E-2,6.104919E-2,-2.0407616E-1,3.3892784E-2,-1.3429904E-1,3.1295317E-1,5.2623592E-2,-8.22952E-2,-3.2965906E-2,2.5818301E-2,4.5384946E-3,-3.1717926E-2,9.418194E-2,-2.5084961E-2,3.691044E-1,-1.5852707E-2,-1.8434552E-2,5.7517964E-2,-6.344916E-2,3.9082002E-2,2.3460234E-2,-3.770195E-2,-1.9495523E-2,1.2673971E-1,3.8862076E-2,3.3259414E-2,-4.996127E-2,8.897338E-2,1.6971734E-1,-7.1191792E-3,-1.7546855E-1,4.073347E-2,-4.092022E-2,9.376523E-2,2.2818256E-2,-3.1810224E-2,-5.235423E-3,1.7308554E-1,3.6705095E-1,1.5293179E-2,-1.2388326E-1,4.133999E-2,2.7227255E-2,-3.7877727E-2,2.4088399E-1,-1.3986521E-2,-6.1840075E-3,3.879391E-2],"categories":[],"categories_nodes":[],"categories_segments":[],"categories_sizes":[],"default_left":[0,0,0,0,0,0,0,0,0,0,0,0,0,0,0,0,0,0,0,0,0,0,0,0,0,0,0,0,0,0,0,0,0,0,0,0,0,0,0,0,0,0,0,0,0,0,0,0,0,0,0,0,0,0,0,0,0,0,0,0,0,0,0,0,0,0,0,0,0,0,0],"id":5,"left_children":[1,3,5,11,-1,15,7,-1,9,-1,-1,-1,13,-1,-1,17,23,19,-1,41,21,-1,-1,25,45,35,27,33,29,-1,31,-1,-1,-1,-1,37,-1,39,-1,-1,-1,43,-1,-1,-1,51,47,-1,49,-1,59,53,-1,55,-1,-1,57,-1,-1,-1,61,63,67,65,-1,-1,-1,69,-1,-1,-1],"loss_changes":[4.7325363E0,6.396041E0,4.4104767E0,1.3718661E0,0E0,1.0524014E0,2.4846983E0,0E0,1.4255238E0,0E0,0E0,0E0,1.4277524E0,0E0,0E0,4.378253E0,2.4843044E0,3.340676E0,0E0,2.335073E0,7.2118587E0,0E0,0E0,2.9815347E0,1.7296765E0,3.2543497E0,5.5876694E0,3.7619286E0,6.184839E0,0E0,3.97001E0,0E0,0E0,0E0,0E0,2.77994E0,0E0,4.3770695E0,0E0,0E0,0E0,3.578651E0,0E0,0E0,0E0,2.0056703E0,5.7615004E0,0E0,5.5988674E0,0E0,1.8796924E0,5.213471E0,0E0,2.413447E0,0E0,0E0,2.2240717E0,0E0,0E0,0E0,2.7867477E0,3.199914E0,2.6337535E0,2.9897258E0,0E0,0E0,0E0,2.3174658E0,0E0,0E0,0E0],"parents":[2147483647,0,0,1,1,2,2,6,6,8,8,3,3,12,12,5,5,15,15,17,17,20,20,16,16,23,23,26,26,28,28,30,30,27,27,25,25,35,35,37,37,19,19,41,41,24,24,46,46,48,48,45,45,51,51,53,53,56,56,50,50,60,60,61,61,63,63,62,62,67,67],"right_children":[2,4,6,12,-1,16,8,-1,10,-1,-1,-1,14,-1,-1,18,24,20,-1,42,22,-1,-1,26,46,36,28,34,30,-1,32,-1,-1,-1,-1,38,-1,40,-1,-1,-1,44,-1,-1,-1,52,48,-1,50,-1,60,54,-1,56,-1,-1,58,-1,-1,-1,62,64,68,66,-1,-1,-1,70,-1,-1,-1],"split_conditions":[-2.092527E0,4E0,2.545455E0,2E0,-4.522924E-2,6.9E1,6E0,-4.233111E-2,2.604651E0,-2.0412296E-2,3.2171365E-2,-2.1364983E-2,6E0,3.2716386E-2,-1.0315655E-2,6.5E1,2E0,2E0,2.6076188E-2,6.3E1,6.2E1,2.1891335E-2,-4.4835463E-2,8.1E1,-2.63574E-1,-5.11416E-1,7.65837E-1,-1.69811E-1,1.404682E0,5.2623592E-2,4E0,-3.2965906E-2,2.5818301E-2,4.5384946E-3,-3.1717926E-2,4E0,-2.5084961E-2,5E0,-1.5852707E-2,-1.8434552E-2,5.7517964E-2,4E0,3.9082002E-2,2.3460234E-2,-3.770195E-2,-1.478873E0,6.9913E-2,3.8862076E-2,1.63265E-1,-4.996127E-2,7.9E1,-1.708802E0,-7.1191792E-3,3E0,4.073347E-2,-4.092022E-2,-1.744928E0,2.2818256E-2,-3.1810224E-2,-5.235423E-3,7.65837E-1,3.26781E-1,5.7E1,8.5E1,4.133999E-2,2.7227255E-2,-3.7877727E-2,1.332569E0,-1.3986521E-2,-6.1840075E-3,3.879391E-2],"split_indices":[12,4,12,1,0,7,0,0,12,0,0,0,1,0,0,7,4,4,0,7,7,0,0,7,12,12,12,12,12,0,0,0,0,0,0,0,0,1,0,0,0,0,0,0,0,12,12,0,12,0,7,12,0,0,0,0,12,0,0,0,12,12,5,7,0,0,0,12,0,0,0],"split_type":[0,0,0,0,0,0,0,0,0,0,0,0,0,0,0,0,0,0,0,0,0,0,0,0,0,0,0,0,0,0,0,0,0,0,0,0,0,0,0,0,0,0,0,0,0,0,0,0,0,0,0,0,0,0,0,0,0,0,0,0,0,0,0,0,0,0,0,0,0,0,0],"sum_hessian":[6.949715E2,4.6015705E1,6.4895575E2,1.687072E1,2.9144985E1,6.2766156E2,2.1294191E1,1.7631098E1,3.6630926E0,9.728261E-1,2.6902666E0,1.7051367E0,1.5165584E1,1.10098505E1,4.1557336E0,1.0721541E2,5.2044617E2,5.89826E1,4.8232807E1,2.3662212E1,3.532039E1,1.317386E1,2.214653E1,2.0242668E2,3.180195E2,9.406588E1,1.08360794E2,6.933372E1,3.902708E1,1.931477E1,1.9712313E1,1.0913347E1,8.7989645E0,4.2144844E1,2.718887E1,2.4334478E1,6.97314E1,1.1735476E1,1.2599003E1,4.863314E0,6.872162E0,1.4603643E1,9.058568E0,8.546345E0,6.0572987E0,1.4437373E2,1.7364577E2,3.168833E1,1.4195744E2,6.7918324E0,1.351656E2,3.5778484E1,1.08595245E2,1.8717184E1,1.70613E1,6.3375278E0,1.2379657E1,1.0687885E1,1.6917717E0,4.821661E1,8.6949E1,3.5590538E1,5.1358456E1,8.0025625E0,2.7587976E1,3.4184585E0,4.5841036E0,2.2633715E1,2.8724741E1,1.1189107E1,1.1444608E1],"tree_param":{"num_deleted":"0","num_feature":"15","num_nodes":"71","size_leaf_vector":"1"}}]},"name":"gbtree"},"learner_model_param":{"base_score":"4.2067575E-1","boost_from_average":"1","num_class":"0","num_feature":"15","num_target":"1"},"objective":{"name":"binary:logistic","reg_loss_param":{"scale_pos_weight":"1"}}},"version":[2,1,4]}